{"learner":{"attributes":{},"feature_names":[],"feature_types":[],"gradient_booster":{"model":{"cats":{"enc":[],"feature_segments":[],"sorted_idx":[]},"gbtree_model_param":{"num_parallel_tree":"1","num_trees":"600"},"iteration_indptr":[0,3,6,9,12,15,18,21,24,27,30,33,36,39,42,45,48,51,54,57,60,63,66,69,72,75,78,81,84,87,90,93,96,99,102,105,108,111,114,117,120,123,126,129,132,135,138,141,144,147,150,153,156,159,162,165,168,171,174,177,180,183,186,189,192,195,198,201,204,207,210,213,216,219,222,225,228,231,234,237,240,243,246,249,252,255,258,261,264,267,270,273,276,279,282,285,288,291,294,297,300,303,306,309,312,315,318,321,324,327,330,333,336,339,342,345,348,351,354,357,360,363,366,369,372,375,378,381,384,387,390,393,396,399,402,405,408,411,414,417,420,423,426,429,432,435,438,441,444,447,450,453,456,459,462,465,468,471,474,477,480,483,486,489,492,495,498,501,504,507,510,513,516,519,522,525,528,531,534,537,540,543,546,549,552,555,558,561,564,567,570,573,576,579,582,585,588,591,594,597,600],"tree_info":[0,1,2,0,1,2,0,1,2,0,1,2,0,1,2,0,1,2,0,1,2,0,1,2,0,1,2,0,1,2,0,1,2,0,1,2,0,1,2,0,1,2,0,1,2,0,1,2,0,1,2,0,1,2,0,1,2,0,1,2,0,1,2,0,1,2,0,1,2,0,1,2,0,1,2,0,1,2,0,1,2,0,1,2,0,1,2,0,1,2,0,1,2,0,1,2,0,1,2,0,1,2,0,1,2,0,1,2,0,1,2,0,1,2,0,1,2,0,1,2,0,1,2,0,1,2,0,1,2,0,1,2,0,1,2,0,1,2,0,1,2,0,1,2,0,1,2,0,1,2,0,1,2,0,1,2,0,1,2,0,1,2,0,1,2,0,1,2,0,1,2,0,1,2,0,1,2,0,1,2,0,1,2,0,1,2,0,1,2,0,1,2,0,1,2,0,1,2,0,1,2,0,1,2,0,1,2,0,1,2,0,1,2,0,1,2,0,1,2,0,1,2,0,1,2,0,1,2,0,1,2,0,1,2,0,1,2,0,1,2,0,1,2,0,1,2,0,1,2,0,1,2,0,1,2,0,1,2,0,1,2,0,1,2,0,1,2,0,1,2,0,1,2,0,1,2,0,1,2,0,1,2,0,1,2,0,1,2,0,1,2,0,1,2,0,1,2,0,1,2,0,1,2,0,1,2,0,1,2,0,1,2,0,1,2,0,1,2,0,1,2,0,1,2,0,1,2,0,1,2,0,1,2,0,1,2,0,1,2,0,1,2,0,1,2,0,1,2,0,1,2,0,1,2,0,1,2,0,1,2,0,1,2,0,1,2,0,1,2,0,1,2,0,1,2,0,1,2,0,1,2,0,1,2,0,1,2,0,1,2,0,1,2,0,1,2,0,1,2,0,1,2,0,1,2,0,1,2,0,1,2,0,1,2,0,1,2,0,1,2,0,1,2,0,1,2,0,1,2,0,1,2,0,1,2,0,1,2,0,1,2,0,1,2,0,1,2,0,1,2,0,1,2,0,1,2,0,1,2,0,1,2,0,1,2,0,1,2,0,1,2,0,1,2,0,1,2,0,1,2,0,1,2,0,1,2,0,1,2,0,1,2,0,1,2,0,1,2,0,1,2,0,1,2,0,1,2,0,1,2,0,1,2,0,1,2,0,1,2,0,1,2,0,1,2,0,1,2,0,1,2,0,1,2,0,1,2,0,1,2,0,1,2,0,1,2,0,1,2,0,1,2,0,1,2,0,1,2,0,1,2,0,1,2,0,1,2,0,1,2,0,1,2,0,1,2,0,1,2,0,1,2,0,1,2,0,1,2,0,1,2,0,1,2,0,1,2,0,1,2],"trees":[{"base_weights":[1.5163785E-1,-1.3807055E-1,7.712496E-1,-3.780723E-1,1.6525798E-1,9.8448217E-1,1.9720449E-1,-6.6231567E-1,-2.571487E-1,2.9747665E-1,-2.0965178E-1,1.031464E0,-2.1818365E-1,-1.3635845E-1,6.1234844E-1,-2.0573257E-1,-7.206508E-1,-1.974035E-1,-7.063506E-1,-4.9053725E-2,4.5914167E-1,1.5266955E-1,-4.5371825E-1,1.0638802E0,-6.332234E-2,-6.25716E-2,5.3078067E-2,1.5266955E-1,-6.463465E-1,8.820669E-1,3.642465E-2,-6.7316405E-2,5.655182E-1,-7.4916387E-1,-5.7763137E-2,1.0117164E0,-2.7545428E-1,-7.5213484E-2,-4.5721233E-3,1.3502246E-1,-4.295139E-1,6.236813E-1,-3.0293008E-3,-2.1985668E-1,6.7536587E-1,-5.368625E-1,7.881602E-2,1.0821409E0,-4.6266194E-2,-5.845163E-2,7.881602E-2,-4.8048827E-1,5.439236E-1,-4.5721233E-3,-7.1995944E-2,1.2916052E-1,1.1050558E0,-6.25716E-2,5.830947E-1,8.798741E-2,-4.5721233E-3,-7.6439135E-2,-4.5721233E-3,-4.6266194E-2,3.7121948E-2,-4.5721233E-3,1.1919506E-1,-3.266586E-2,2.254635E-2,-6.668522E-4,8.99092E-2,-5.9470892E-2,5.3078067E-2,2.6764615E-2,7.800891E-2,5.401171E-2,-1.6585488E-2,-4.5645963E-2,6.456798E-2,-4.6266194E-2,9.323825E-2,-6.73998E-2,-6.860441E-3,8.385195E-2,1.20647706E-1,-6.880717E-2,3.7121948E-2,8.557257E-2,-3.727913E-2,8.798741E-2,-5.552674E-2,1.2316642E-1,3.4544304E-2,1.034673E-1,-4.6266194E-2],"categories":[],"categories_nodes":[],"categories_segments":[],"categories_sizes":[],"default_left":[0,0,0,0,0,0,0,0,0,0,0,0,0,0,0,0,0,0,0,0,0,0,0,0,0,0,0,0,0,0,0,0,0,0,0,0,0,0,0,0,0,0,0,0,0,0,0,0,0,0,0,0,0,0,0,0,0,0,0,0,0,0,0,0,0,0,0,0,0,0,0,0,0,0,0,0,0,0,0,0,0,0,0,0,0,0,0,0,0,0,0,0,0,0,0],"id":0,"left_children":[1,3,5,7,9,11,13,15,17,19,21,23,25,27,29,31,33,35,37,39,41,43,45,47,49,-1,-1,51,53,55,57,-1,59,61,63,65,67,-1,-1,69,71,73,75,77,79,81,-1,83,-1,-1,-1,85,87,-1,-1,89,91,-1,93,-1,-1,-1,-1,-1,-1,-1,-1,-1,-1,-1,-1,-1,-1,-1,-1,-1,-1,-1,-1,-1,-1,-1,-1,-1,-1,-1,-1,-1,-1,-1,-1,-1,-1,-1,-1],"loss_changes":[1.187704E2,3.291626E1,2.5604362E1,8.499958E0,9.97847E0,8.894257E0,8.161577E0,1.8400345E0,4.653762E0,8.330589E0,4.7332377E0,5.313843E0,2.3446913E0,4.987037E0,4.0332975E0,3.9340868E0,1.2002869E0,1.5285999E1,5.880184E-1,3.4252284E0,7.69923E0,4.4276743E0,3.703061E0,4.5046997E0,2.7662876E0,0E0,0E0,5.70545E0,5.0593233E-1,2.8425303E0,3.7639666E0,0E0,8.593472E-1,6.3985443E-1,8.312405E-1,1.9330435E0,3.9252548E0,0E0,0E0,3.5963583E0,2.840589E0,3.9482403E0,2.5278225E0,3.076943E0,3.1780348E0,1.9037638E0,0E0,3.2969666E0,0E0,0E0,0E0,1.833262E0,4.3355246E0,0E0,0E0,3.1579418E0,8.811226E-1,0E0,3.1522527E0,0E0,0E0,0E0,0E0,0E0,0E0,0E0,0E0,0E0,0E0,0E0,0E0,0E0,0E0,0E0,0E0,0E0,0E0,0E0,0E0,0E0,0E0,0E0,0E0,0E0,0E0,0E0,0E0,0E0,0E0,0E0,0E0,0E0,0E0,0E0,0E0],"parents":[2147483647,0,0,1,1,2,2,3,3,4,4,5,5,6,6,7,7,8,8,9,9,10,10,11,11,12,12,13,13,14,14,15,15,16,16,17,17,18,18,19,19,20,20,21,21,22,22,23,23,24,24,27,27,28,28,29,29,30,30,32,32,33,33,34,34,35,35,36,36,39,39,40,40,41,41,42,42,43,43,44,44,45,45,47,47,51,51,52,52,55,55,56,56,58,58],"right_children":[2,4,6,8,10,12,14,16,18,20,22,24,26,28,30,32,34,36,38,40,42,44,46,48,50,-1,-1,52,54,56,58,-1,60,62,64,66,68,-1,-1,70,72,74,76,78,80,82,-1,84,-1,-1,-1,86,88,-1,-1,90,92,-1,94,-1,-1,-1,-1,-1,-1,-1,-1,-1,-1,-1,-1,-1,-1,-1,-1,-1,-1,-1,-1,-1,-1,-1,-1,-1,-1,-1,-1,-1,-1,-1,-1,-1,-1,-1,-1],"split_conditions":[8.7E-1,-6E-2,2.9E1,-1.08E0,4E0,6.58E0,1.5E0,3E0,6.72E0,3.649635E-1,3.5E-1,1.7E1,1.37E0,1E0,3.7E1,2E0,1E0,2E1,1.75E1,5.5E0,8E0,1.785E2,3.5E0,1.5E1,1.85E1,-6.25716E-2,5.3078067E-2,3E0,4E0,1E0,2E0,-6.7316405E-2,1.55E1,6E0,1.4E1,6E0,8E0,-7.5213484E-2,-4.5721233E-3,4.5E0,4.29E0,4.71E2,4.9E1,4E0,6E0,7E0,7.881602E-2,1.5E0,-4.6266194E-2,-5.845163E-2,7.881602E-2,3E0,1.5E1,-4.5721233E-3,-7.1995944E-2,3.22E2,6E0,-6.25716E-2,4E0,8.798741E-2,-4.5721233E-3,-7.6439135E-2,-4.5721233E-3,-4.6266194E-2,3.7121948E-2,-4.5721233E-3,1.1919506E-1,-3.266586E-2,2.254635E-2,-6.668522E-4,8.99092E-2,-5.9470892E-2,5.3078067E-2,2.6764615E-2,7.800891E-2,5.401171E-2,-1.6585488E-2,-4.5645963E-2,6.456798E-2,-4.6266194E-2,9.323825E-2,-6.73998E-2,-6.860441E-3,8.385195E-2,1.20647706E-1,-6.880717E-2,3.7121948E-2,8.557257E-2,-3.727913E-2,8.798741E-2,-5.552674E-2,1.2316642E-1,3.4544304E-2,1.034673E-1,-4.6266194E-2],"split_indices":[277,277,321,277,165,488,175,159,488,281,277,185,277,180,321,396,88,374,164,336,193,267,170,336,318,0,0,336,159,446,383,0,164,182,164,227,220,0,0,336,279,259,338,228,235,399,0,175,0,0,0,170,188,0,0,258,441,0,174,0,0,0,0,0,0,0,0,0,0,0,0,0,0,0,0,0,0,0,0,0,0,0,0,0,0,0,0,0,0,0,0,0,0,0,0],"split_type":[0,0,0,0,0,0,0,0,0,0,0,0,0,0,0,0,0,0,0,0,0,0,0,0,0,0,0,0,0,0,0,0,0,0,0,0,0,0,0,0,0,0,0,0,0,0,0,0,0,0,0,0,0,0,0,0,0,0,0,0,0,0,0,0,0,0,0,0,0,0,0,0,0,0,0,0,0,0,0,0,0,0,0,0,0,0,0,0,0,0,0,0,0,0,0],"sum_hessian":[6.600554E2,4.5029205E2,2.0976338E2,2.5124991E2,1.9904214E2,1.5242805E2,5.7335323E1,7.365025E1,1.7759966E2,1.473005E2,5.1741634E1,1.4683437E2,5.59369E0,3.216372E1,2.5171606E1,8.856676E0,6.479358E1,1.5802174E2,1.9577915E1,4.7080223E1,1.0022028E2,2.0976337E1,3.0765295E1,1.426391E2,4.1952677E0,3.7291267E0,1.8645633E0,2.0976337E1,1.118738E1,1.678107E1,8.390535E0,5.59369E0,3.262986E0,6.199673E1,2.796845E0,8.856676E0,1.4916507E2,1.8179493E1,1.3984225E0,3.216372E1,1.4916507E1,7.365025E1,2.6570028E1,1.2585803E1,8.390535E0,2.9366873E1,1.3984225E0,1.4124068E2,1.3984225E0,2.796845E0,1.3984225E0,7.924394E0,1.3051944E1,1.3984225E0,9.788958E0,4.1952677E0,1.2585803E1,3.7291267E0,4.6614084E0,1.8645633E0,1.3984225E0,6.059831E1,1.3984225E0,1.3984225E0,1.3984225E0,1.3984225E0,7.4582534E0,1.3564699E2,1.3518085E1,2.796845E1,4.1952677E0,1.3051944E1,1.8645633E0,2.3307041E1,5.0343212E1,5.59369E0,2.0976337E1,1.0255098E1,2.3307042E0,1.3984225E0,6.9921126E0,2.237476E1,6.9921126E0,5.0343212E1,9.089746E1,6.525972E0,1.3984225E0,9.788958E0,3.262986E0,1.8645633E0,2.3307042E0,1.0255098E1,2.3307042E0,3.262986E0,1.3984225E0],"tree_param":{"num_deleted":"0","num_feature":"576","num_nodes":"95","size_leaf_vector":"1"}},{"base_weights":[-1.3819447E-1,-3.0952042E-2,-3.7936834E-1,-1.5021533E-3,-5.887171E-1,-5.576492E-1,-1.7796402E-1,-4.9616214E-2,9.696792E-1,-6.813653E-2,2.904658E-2,-5.762958E-1,4.7870737E-2,-2.4831018E-1,1.09340146E-1,5.8212306E-2,-2.266844E-1,1.1106502E0,4.9060624E-2,-5.9544104E-1,4.7870737E-2,-4.902708E-2,-5.077224E-1,-6.692723E-2,3.1921402E-1,-2.619321E-1,7.557676E-1,1.2432657E0,1.5336665E-2,4.7870737E-2,-4.0219493E-2,-6.213726E-1,-1.47109E-1,1.1157322E-1,-5.0732195E-1,-6.897003E-2,-1.1843056E-1,-1.2580094E-2,4.3491926E-2,4.708719E-2,-2.2100016E-2,-3.5518853E-3,-4.0544033E-2,-4.0219493E-2,1.2283065E-1,1.3593566E-1,3.8256221E-3,-6.313036E-2,3.8256221E-3,9.191585E-2,-5.8147192E-2,-9.76244E-3,7.299756E-2,4.7870737E-2,-6.567488E-2,-3.1152425E-2,9.191585E-2],"categories":[],"categories_nodes":[],"categories_segments":[],"categories_sizes":[],"default_left":[0,0,0,0,0,0,0,0,0,0,0,0,0,0,0,0,0,0,0,0,0,0,0,0,0,0,0,0,0,0,0,0,0,0,0,0,0,0,0,0,0,0,0,0,0,0,0,0,0,0,0,0,0,0,0,0,0],"id":1,"left_children":[1,3,5,7,9,11,13,15,17,-1,-1,19,-1,21,-1,23,25,27,29,31,-1,33,35,37,39,41,43,45,-1,-1,-1,47,49,51,53,-1,55,-1,-1,-1,-1,-1,-1,-1,-1,-1,-1,-1,-1,-1,-1,-1,-1,-1,-1,-1,-1],"loss_changes":[1.5522958E1,6.846246E0,6.5357265E0,1.859617E1,1.9005542E0,2.1609936E0,8.16278E0,7.252413E0,2.3835144E0,0E0,0E0,2.2297325E0,0E0,4.3394737E0,0E0,7.7441206E0,5.174456E0,1.8716125E0,8.7902546E-1,1.0131683E0,0E0,3.6522014E0,2.5091124E0,4.8011146E0,6.3961544E0,4.517396E0,3.358335E0,1.9242954E0,0E0,0E0,0E0,6.104698E-1,3.5472662E0,4.8571987E0,2.2087402E0,0E0,2.8622766E0,0E0,0E0,0E0,0E0,0E0,0E0,0E0,0E0,0E0,0E0,0E0,0E0,0E0,0E0,0E0,0E0,0E0,0E0,0E0,0E0],"parents":[2147483647,0,0,1,1,2,2,3,3,4,4,5,5,6,6,7,7,8,8,11,11,13,13,15,15,16,16,17,17,18,18,19,19,21,21,22,22,23,23,24,24,25,25,26,26,27,27,31,31,32,32,33,33,34,34,36,36],"right_children":[2,4,6,8,10,12,14,16,18,-1,-1,20,-1,22,-1,24,26,28,30,32,-1,34,36,38,40,42,44,46,-1,-1,-1,48,50,52,54,-1,56,-1,-1,-1,-1,-1,-1,-1,-1,-1,-1,-1,-1,-1,-1,-1,-1,-1,-1,-1,-1],"split_conditions":[1.5E0,7.13E0,1.5E0,6.69E0,6.5E0,1.3E1,4.3E1,4E0,1.615E2,-6.813653E-2,2.904658E-2,5E1,4.7870737E-2,1.72E0,1.09340146E-1,5.35E1,6E0,6E0,4E0,1.3E1,4.7870737E-2,9E0,5.1E1,2E0,2E0,1.39E2,1E1,1.6E1,1.5336665E-2,4.7870737E-2,-4.0219493E-2,2.2E1,5E-1,7E0,9E0,-6.897003E-2,5E0,-1.2580094E-2,4.3491926E-2,4.708719E-2,-2.2100016E-2,-3.5518853E-3,-4.0544033E-2,-4.0219493E-2,1.2283065E-1,1.3593566E-1,3.8256221E-3,-6.313036E-2,3.8256221E-3,9.191585E-2,-5.8147192E-2,-9.76244E-3,7.299756E-2,4.7870737E-2,-6.567488E-2,-3.1152425E-2,9.191585E-2],"split_indices":[175,488,180,488,169,336,321,192,257,0,0,374,0,277,0,335,315,169,165,319,0,229,335,462,170,264,249,187,0,0,0,188,393,229,268,0,171,0,0,0,0,0,0,0,0,0,0,0,0,0,0,0,0,0,0,0,0],"split_type":[0,0,0,0,0,0,0,0,0,0,0,0,0,0,0,0,0,0,0,0,0,0,0,0,0,0,0,0,0,0,0,0,0,0,0,0,0,0,0,0,0,0,0,0,0,0,0,0,0,0,0,0,0,0,0,0,0],"sum_hessian":[5.9962854E2,4.158441E2,1.8378445E2,3.9594116E2,1.9902924E1,9.6550354E1,8.723409E1,3.7815555E2,1.7785591E1,1.8209059E1,1.6938659E0,9.527995E1,1.2703995E0,8.34229E1,3.8111982E0,2.3544736E2,1.427082E2,1.5244793E1,2.540799E0,9.400956E1,1.2703995E0,4.785171E1,3.5571182E1,1.5964687E2,7.58005E1,1.3847354E2,4.234665E0,1.31274605E1,2.1173325E0,1.2703995E0,1.2703995E0,8.850449E1,5.505064E0,3.599465E1,1.1857061E1,2.3714123E1,1.1857061E1,1.4355513E2,1.6091726E1,5.9285305E1,1.6515192E1,5.420371E1,8.426983E1,1.2703995E0,2.9642653E0,1.1857061E1,1.2703995E0,8.723409E1,1.2703995E0,1.2703995E0,4.234665E0,2.752532E1,8.46933E0,1.2703995E0,1.0586662E1,1.0586662E1,1.2703995E0],"tree_param":{"num_deleted":"0","num_feature":"576","num_nodes":"57","size_leaf_vector":"1"}},{"base_weights":[-2.7668662E-2,5.271953E-1,-3.5314798E-1,7.7304345E-1,1.2910213E-1,-2.0712481E-1,-6.3805336E-1,1.1484734E0,5.9150636E-1,6.3972846E-2,1.2251101E-1,-2.5384235E-1,7.1579856E-1,-6.522296E-1,4.4128418E-2,1.3449411E0,4.8880872E-1,4.945213E-1,1.3066849E0,-2.412204E-1,2.9654825E-1,-2.809818E-1,9.288499E-1,-5.3757608E-2,1.0914584E0,-6.66693E-1,4.4128418E-2,-1.0987502E-2,1.4266547E0,8.357695E-1,-5.3757608E-2,5.803242E-1,-6.310388E-2,1.378132E-1,4.4128418E-2,-3.23493E-1,7.418985E-2,-1.2388593E-1,5.458467E-1,-4.527481E-1,-5.988883E-2,1.1949549E-1,9.837863E-4,1.2503842E0,9.837863E-4,-7.0778185E-1,-4.0989932E-1,1.4540341E-1,4.4128418E-2,1.1804389E-1,-1.9668413E-2,3.7989482E-2,9.169881E-2,-3.9564278E-2,8.7273054E-2,-2.9283023E-2,9.7824566E-2,1.2503526E-1,3.8174402E-2,-4.8658315E-2,3.334653E-2,-1.813688E-2,6.11037E-2,4.4128418E-2,1.3327326E-1,1.16176745E-2,-7.255121E-2,-5.351862E-2,4.2903762E-2],"categories":[],"categories_nodes":[],"categories_segments":[],"categories_sizes":[],"default_left":[0,0,0,0,0,0,0,0,0,0,0,0,0,0,0,0,0,0,0,0,0,0,0,0,0,0,0,0,0,0,0,0,0,0,0,0,0,0,0,0,0,0,0,0,0,0,0,0,0,0,0,0,0,0,0,0,0,0,0,0,0,0,0,0,0,0,0,0,0],"id":2,"left_children":[1,3,5,7,9,11,13,15,17,19,-1,21,23,25,-1,27,29,31,33,35,37,39,41,-1,43,45,-1,-1,47,49,-1,51,-1,-1,-1,53,-1,55,57,59,61,-1,-1,63,-1,65,67,-1,-1,-1,-1,-1,-1,-1,-1,-1,-1,-1,-1,-1,-1,-1,-1,-1,-1,-1,-1,-1,-1],"loss_changes":[1.1269698E2,2.2482246E1,1.6228592E1,9.028748E0,6.2954583E0,1.1455954E1,2.319458E0,5.2220764E0,6.1565857E0,6.1288815E0,0E0,8.27327E0,6.64181E0,2.3733597E0,0E0,4.2442474E0,4.7160997E0,8.862398E0,7.83577E-2,3.2698011E0,5.1908627E0,9.269121E0,1.4144511E0,0E0,1.7452621E0,1.0830727E0,0E0,0E0,2.3859406E-1,3.5579872E0,0E0,5.2025604E0,0E0,0E0,0E0,3.3886917E0,0E0,3.8260503E0,3.0915833E0,3.8229122E0,8.92792E0,0E0,0E0,5.3243637E-3,0E0,1.703186E0,2.3661952E0,0E0,0E0,0E0,0E0,0E0,0E0,0E0,0E0,0E0,0E0,0E0,0E0,0E0,0E0,0E0,0E0,0E0,0E0,0E0,0E0,0E0,0E0],"parents":[2147483647,0,0,1,1,2,2,3,3,4,4,5,5,6,6,7,7,8,8,9,9,11,11,12,12,13,13,15,15,16,16,17,17,18,18,19,19,20,20,21,21,22,22,24,24,25,25,28,28,29,29,31,31,35,35,37,37,38,38,39,39,40,40,43,43,45,45,46,46],"right_children":[2,4,6,8,10,12,14,16,18,20,-1,22,24,26,-1,28,30,32,34,36,38,40,42,-1,44,46,-1,-1,48,50,-1,52,-1,-1,-1,54,-1,56,58,60,62,-1,-1,64,-1,66,68,-1,-1,-1,-1,-1,-1,-1,-1,-1,-1,-1,-1,-1,-1,-1,-1,-1,-1,-1,-1,-1,-1],"split_conditions":[-1E-1,2.97E0,1.5E0,-1.2E0,7.01E0,1.5E0,4E0,4E0,7.13E0,3E0,1.2251101E-1,7.03E0,3.5E0,4E0,4.4128418E-2,1.49E2,5E0,1.25E-1,1.5E1,4E1,2E0,5E-1,1.45E1,-5.3757608E-2,1.5E1,1E1,4.4128418E-2,-1.0987502E-2,1.7E1,4E0,-5.3757608E-2,2.17E2,-6.310388E-2,1.378132E-1,4.4128418E-2,2.3E1,7.418985E-2,6.05E2,5E-1,1E1,3.4E1,1.1949549E-1,9.837863E-4,1.2E1,9.837863E-4,1.7E-1,1.3E1,1.4540341E-1,4.4128418E-2,1.1804389E-1,-1.9668413E-2,3.7989482E-2,9.169881E-2,-3.9564278E-2,8.7273054E-2,-2.9283023E-2,9.7824566E-2,1.2503526E-1,3.8174402E-2,-4.8658315E-2,3.334653E-2,-1.813688E-2,6.11037E-2,4.4128418E-2,1.3327326E-1,1.16176745E-2,-7.255121E-2,-5.351862E-2,4.2903762E-2],"split_indices":[277,280,175,277,488,180,176,182,488,177,0,488,190,294,0,265,234,504,164,321,434,394,164,0,230,319,0,0,164,208,0,262,0,0,0,305,0,259,208,220,321,0,0,164,0,277,187,0,0,0,0,0,0,0,0,0,0,0,0,0,0,0,0,0,0,0,0,0,0],"split_type":[0,0,0,0,0,0,0,0,0,0,0,0,0,0,0,0,0,0,0,0,0,0,0,0,0,0,0,0,0,0,0,0,0,0,0,0,0,0,0,0,0,0,0,0,0,0,0,0,0,0,0,0,0,0,0,0,0,0,0,0,0,0,0,0,0,0,0,0,0],"sum_hessian":[6.219947E2,2.2973392E2,3.9226077E2,1.4144229E2,8.829162E1,2.6048224E2,1.3177853E2,4.436544E1,9.707686E1,8.4338264E1,3.9533563E0,2.4862218E2,1.1860068E1,1.3046075E2,1.3177854E0,3.3383896E1,1.09815445E1,8.697384E1,1.0103022E1,3.645873E1,4.7879536E1,2.437903E2,4.8318796E0,2.6355708E0,9.224498E0,1.2914297E2,1.3177854E0,1.7570472E0,3.162685E1,8.345974E0,2.6355708E0,8.1263435E1,5.7104034E0,8.785236E0,1.3177854E0,3.426242E1,2.196309E0,1.8009733E1,2.9869802E1,1.3661041E2,1.0717988E2,3.5140944E0,1.3177854E0,7.9067125E0,1.3177854E0,1.09815445E2,1.9327518E1,3.0309063E1,1.3177854E0,6.149665E0,2.196309E0,5.2272152E1,2.8991278E1,3.2944633E1,1.3177854E0,1.6252686E1,1.7570472E0,4.392618E0,2.5477184E1,1.3133928E2,5.2711415E0,9.1366455E1,1.5813425E1,1.3177854E0,6.588927E0,2.196309E0,1.0761914E2,1.713121E1,2.196309E0],"tree_param":{"num_deleted":"0","num_feature":"576","num_nodes":"69","size_leaf_vector":"1"}},{"base_weights":[1.3894734E-1,-1.2969545E-1,6.959624E-1,-3.5559472E-1,1.4935018E-1,8.83852E-1,1.7751928E-1,-6.305848E-1,-2.4074462E-1,2.7174664E-1,-2.0315485E-1,9.248352E-1,-2.0786384E-1,-1.336253E-1,5.564956E-1,-1.8887971E-1,-6.881859E-1,-1.8722653E-1,-7.309504E-2,3.2343253E-1,-6.906195E-2,1.3853021E-1,-4.3733588E-1,9.534952E-1,-7.020902E-2,-6.1022412E-2,5.1675677E-2,1.3747914E-1,-6.2395483E-1,7.96493E-1,3.0436926E-2,-6.4823955E-2,5.4414237E-1,-7.166492E-1,-4.482412E-2,-1.253559E-1,-6.657389E-1,1.17073014E-1,2.476558E-1,-2.1250248E-1,6.193195E-1,-5.189614E-1,7.4666716E-2,9.698034E-1,-4.538019E-2,-5.7601046E-2,7.413936E-2,-4.6528783E-1,5.001105E-1,-2.8189823E-3,-6.98681E-2,1.0631129E-1,9.9761134E-1,-6.0584497E-2,5.401706E-1,8.489445E-2,-4.977201E-3,-7.323524E-2,-1.3683379E-3,-4.5076817E-2,3.7771374E-2,9.300792E-2,-2.038624E-2,-7.172196E-2,-1.6612327E-3,3.3617735E-2,-2.6199264E-2,-4.4133108E-2,6.032707E-2,-4.5817476E-2,8.5830264E-2,-6.5311E-2,-6.8928706E-3,1.0304227E-1,6.409686E-2,-6.731378E-2,3.735683E-2,7.866907E-2,-3.644594E-2,8.102371E-2,-5.484436E-2,1.10749416E-1,3.203719E-2,9.511206E-2,-4.464383E-2],"categories":[],"categories_nodes":[],"categories_segments":[],"categories_sizes":[],"default_left":[0,0,0,0,0,0,0,0,0,0,0,0,0,0,0,0,0,0,0,0,0,0,0,0,0,0,0,0,0,0,0,0,0,0,0,0,0,0,0,0,0,0,0,0,0,0,0,0,0,0,0,0,0,0,0,0,0,0,0,0,0,0,0,0,0,0,0,0,0,0,0,0,0,0,0,0,0,0,0,0,0,0,0,0,0],"id":3,"left_children":[1,3,5,7,9,11,13,15,17,19,21,23,25,27,29,31,33,35,-1,37,-1,39,41,43,45,-1,-1,47,49,51,53,-1,55,57,59,61,63,-1,65,67,69,71,-1,73,-1,-1,-1,75,77,-1,-1,79,81,-1,83,-1,-1,-1,-1,-1,-1,-1,-1,-1,-1,-1,-1,-1,-1,-1,-1,-1,-1,-1,-1,-1,-1,-1,-1,-1,-1,-1,-1,-1,-1],"loss_changes":[9.937437E1,2.8322182E1,2.0887306E1,7.6846333E0,8.741774E0,7.275696E0,6.9982705E0,1.7141571E0,4.4973536E0,7.6780605E0,4.2583675E0,4.423752E0,2.223515E0,4.479332E0,3.342576E0,3.6323946E0,1.1351357E0,4.671263E0,0E0,8.885857E0,0E0,3.8603804E0,3.4190722E0,3.8497467E0,2.5652003E0,0E0,0E0,5.0640464E0,5.1223564E-1,2.4303799E0,3.3741589E0,0E0,8.199322E-1,6.630726E-1,8.164526E-1,1.2075222E1,5.948076E-1,0E0,6.063513E0,2.7890143E0,2.859874E0,1.7622032E0,0E0,2.273407E0,0E0,0E0,0E0,1.7893906E0,3.8254788E0,0E0,0E0,2.8606315E0,6.8929386E-1,0E0,2.7537036E0,0E0,0E0,0E0,0E0,0E0,0E0,0E0,0E0,0E0,0E0,0E0,0E0,0E0,0E0,0E0,0E0,0E0,0E0,0E0,0E0,0E0,0E0,0E0,0E0,0E0,0E0,0E0,0E0,0E0,0E0],"parents":[2147483647,0,0,1,1,2,2,3,3,4,4,5,5,6,6,7,7,8,8,9,9,10,10,11,11,12,12,13,13,14,14,15,15,16,16,17,17,19,19,21,21,22,22,23,23,24,24,27,27,28,28,29,29,30,30,32,32,33,33,34,34,35,35,36,36,38,38,39,39,40,40,41,41,43,43,47,47,48,48,51,51,52,52,54,54],"right_children":[2,4,6,8,10,12,14,16,18,20,22,24,26,28,30,32,34,36,-1,38,-1,40,42,44,46,-1,-1,48,50,52,54,-1,56,58,60,62,64,-1,66,68,70,72,-1,74,-1,-1,-1,76,78,-1,-1,80,82,-1,84,-1,-1,-1,-1,-1,-1,-1,-1,-1,-1,-1,-1,-1,-1,-1,-1,-1,-1,-1,-1,-1,-1,-1,-1,-1,-1,-1,-1,-1,-1],"split_conditions":[8.7E-1,-6E-2,2.9E1,-1.08E0,4E0,6.58E0,1.5E0,3E0,3.17E2,6.69E0,3.5E-1,1.7E1,1.95E1,1E0,3.7E1,2E0,1E0,6.72E0,-7.309504E-2,2.5E0,-6.906195E-2,1.785E2,3.5E0,1.5E1,1.85E1,-6.1022412E-2,5.1675677E-2,3E0,1.43E2,1E0,2E0,-6.4823955E-2,2E0,3.75E-1,2E0,2E1,6E0,1.17073014E-1,7E0,4E0,6E0,7E0,7.4666716E-2,3.5E0,-4.538019E-2,-5.7601046E-2,7.413936E-2,3.5E0,1.5E1,-2.8189823E-3,-6.98681E-2,3.22E2,6E0,-6.0584497E-2,4E0,8.489445E-2,-4.977201E-3,-7.323524E-2,-1.3683379E-3,-4.5076817E-2,3.7771374E-2,9.300792E-2,-2.038624E-2,-7.172196E-2,-1.6612327E-3,3.3617735E-2,-2.6199264E-2,-4.4133108E-2,6.032707E-2,-4.5817476E-2,8.5830264E-2,-6.5311E-2,-6.8928706E-3,1.0304227E-1,6.409686E-2,-6.731378E-2,3.735683E-2,7.866907E-2,-3.644594E-2,8.102371E-2,-5.484436E-2,1.10749416E-1,3.203719E-2,9.511206E-2,-4.464383E-2],"split_indices":[277,277,321,277,165,488,175,159,265,488,277,185,318,180,321,396,88,488,0,399,0,267,170,336,318,0,0,336,267,446,383,0,175,536,228,374,169,0,190,228,235,399,0,404,0,0,0,421,188,0,0,258,441,0,174,0,0,0,0,0,0,0,0,0,0,0,0,0,0,0,0,0,0,0,0,0,0,0,0,0,0,0,0,0,0],"split_type":[0,0,0,0,0,0,0,0,0,0,0,0,0,0,0,0,0,0,0,0,0,0,0,0,0,0,0,0,0,0,0,0,0,0,0,0,0,0,0,0,0,0,0,0,0,0,0,0,0,0,0,0,0,0,0,0,0,0,0,0,0,0,0,0,0,0,0,0,0,0,0,0,0,0,0,0,0,0,0,0,0,0,0,0,0],"sum_hessian":[6.624949E2,4.474577E2,2.150372E2,2.471251E2,2.0033258E2,1.5731842E2,5.7718777E1,7.148215E1,1.7564297E2,1.4887088E2,5.14617E1,1.5177368E2,5.5447493E0,3.2051487E1,2.566729E1,8.739994E0,6.274215E1,1.5960056E2,1.6042416E1,1.4191307E2,6.957821E0,2.1093454E1,3.0368246E1,1.4756516E2,4.208524E0,3.6666427E0,1.8781067E0,2.110313E1,1.0948356E1,1.7272972E1,8.394317E0,5.4440536E0,3.2959404E0,5.9974857E1,2.7672925E0,1.4244473E2,1.7155828E1,1.046368E1,1.3144939E2,1.251445E1,8.579005E0,2.8935139E1,1.4331086E0,1.4618202E2,1.3831282E0,2.7715425E0,1.4369816E0,7.820606E0,1.3282524E1,1.3736868E0,9.574669E0,4.2425003E0,1.3030473E1,3.6498234E0,4.7444935E0,1.8943421E0,1.4015985E0,5.8623486E1,1.3513694E0,1.3772848E0,1.3900077E0,9.110928E0,1.333338E2,1.5798025E1,1.3578031E0,1.1228655E2,1.9162834E1,1.0131512E1,2.3829384E0,1.3908674E0,7.188138E0,2.1942987E1,6.99215E0,1.21627045E2,2.4554981E1,6.4259505E0,1.3946557E0,1.0043477E1,3.2390475E0,1.9300457E0,2.3124545E0,1.0664793E1,2.3656797E0,3.3747754E0,1.3697178E0],"tree_param":{"num_deleted":"0","num_feature":"576","num_nodes":"85","size_leaf_vector":"1"}},{"base_weights":[-1.2890065E-1,-2.8286183E-2,-3.5990462E-1,4.039474E-2,-2.4586432E-1,-5.3630733E-1,-1.642344E-1,1.5335551E-1,-1.2907748E-1,-8.1625514E-2,-4.627087E-1,-5.5515355E-1,4.6656664E-2,-2.3190571E-1,9.845863E-2,-1.0699198E-2,3.097043E-1,-1.8916747E-1,6.704722E-1,-1.7175E-1,7.1894366E-1,-5.4500395E-1,5.907807E-1,-5.744039E-1,4.55205E-2,-4.4061862E-2,-4.8359537E-1,-2.9028046E-1,1.6481264E-1,-3.122046E-1,4.097699E-1,-2.6794723E-1,2.713173E-1,1.1348166E-1,-9.422815E-2,2.1793818E-1,-3.2778662E-1,-1.6736086E-2,1.23437166E-1,-6.1175865E-1,2.2248833E-1,2.7688774E-3,8.9450054E-2,-6.002757E-1,-1.3782085E-1,1.08378395E-1,-4.9048746E-1,-6.683014E-2,-9.780697E-2,2.4016066E-2,-4.0165853E-2,6.308998E-2,-7.1618296E-3,-6.448847E-2,3.7513338E-2,7.825055E-2,1.7589066E-2,7.834878E-2,-3.1255532E-2,5.7377752E-2,-4.2471513E-2,-4.8046898E-2,4.6950188E-2,-1.304363E-2,9.388524E-2,-3.9234158E-2,6.7906305E-2,-2.639947E-3,-6.610345E-2,8.964082E-2,-4.4206735E-2,-6.1060514E-2,6.659118E-3,8.497811E-2,-5.642387E-2,5.655381E-2,-1.5502797E-2,-6.415563E-2,4.74248E-2,9.168588E-2,-2.9237485E-2],"categories":[],"categories_nodes":[],"categories_segments":[],"categories_sizes":[],"default_left":[0,0,0,0,0,0,0,0,0,0,0,0,0,0,0,0,0,0,0,0,0,0,0,0,0,0,0,0,0,0,0,0,0,0,0,0,0,0,0,0,0,0,0,0,0,0,0,0,0,0,0,0,0,0,0,0,0,0,0,0,0,0,0,0,0,0,0,0,0,0,0,0,0,0,0,0,0,0,0,0,0],"id":4,"left_children":[1,3,5,7,9,11,13,15,17,19,21,23,-1,25,-1,27,29,31,33,35,37,39,41,43,-1,45,47,49,51,53,55,57,59,-1,61,63,65,-1,-1,67,69,-1,-1,71,73,75,77,-1,79,-1,-1,-1,-1,-1,-1,-1,-1,-1,-1,-1,-1,-1,-1,-1,-1,-1,-1,-1,-1,-1,-1,-1,-1,-1,-1,-1,-1,-1,-1,-1,-1],"loss_changes":[1.3821454E1,6.2209277E0,6.1412334E0,6.0839624E0,3.5187483E0,2.0444832E0,6.9922667E0,4.8904486E0,6.2399397E0,4.3109617E0,4.0347233E0,2.0738316E0,0E0,3.9015718E0,0E0,4.657563E0,6.2012033E0,4.394117E0,3.3432121E0,3.2924638E0,2.9774024E0,2.1978312E0,5.879632E-1,9.550915E-1,0E0,3.3614733E0,2.4543333E0,2.258299E0,6.4752145E0,3.4646392E0,7.2284555E0,5.0394425E0,4.0118856E0,0E0,1.1763734E0,4.0772476E0,2.7509828E0,0E0,0E0,1.0580921E0,2.1668086E0,0E0,0E0,6.361122E-1,3.1908445E0,4.550171E0,2.1341121E0,0E0,2.7595093E0,0E0,0E0,0E0,0E0,0E0,0E0,0E0,0E0,0E0,0E0,0E0,0E0,0E0,0E0,0E0,0E0,0E0,0E0,0E0,0E0,0E0,0E0,0E0,0E0,0E0,0E0,0E0,0E0,0E0,0E0,0E0,0E0],"parents":[2147483647,0,0,1,1,2,2,3,3,4,4,5,5,6,6,7,7,8,8,9,9,10,10,11,11,13,13,15,15,16,16,17,17,18,18,19,19,20,20,21,21,22,22,23,23,25,25,26,26,27,27,28,28,29,29,30,30,31,31,32,32,34,34,35,35,36,36,39,39,40,40,43,43,44,44,45,45,46,46,48,48],"right_children":[2,4,6,8,10,12,14,16,18,20,22,24,-1,26,-1,28,30,32,34,36,38,40,42,44,-1,46,48,50,52,54,56,58,60,-1,62,64,66,-1,-1,68,70,-1,-1,72,74,76,78,-1,80,-1,-1,-1,-1,-1,-1,-1,-1,-1,-1,-1,-1,-1,-1,-1,-1,-1,-1,-1,-1,-1,-1,-1,-1,-1,-1,-1,-1,-1,-1,-1,-1],"split_conditions":[1.5E0,4.845E2,1.5E0,4E0,5E-1,5E1,4.3E1,3.46E2,7.5E0,4.94E2,1.7E1,1.3E1,4.6656664E-2,1.72E0,9.845863E-2,3E0,2.06E0,6E0,5.5E0,5E0,1E0,3E0,3.5E0,1.3E1,4.55205E-2,9E0,5.1E1,5E-1,2.77E2,3E0,5E0,6E0,1.5E0,1.1348166E-1,2.5E0,8.65E1,3.5E0,-1.6736086E-2,1.23437166E-1,3.9E1,2.1E1,2.7688774E-3,8.9450054E-2,2.5E1,5E-1,3.83E0,4.86E0,-6.683014E-2,1E0,2.4016066E-2,-4.0165853E-2,6.308998E-2,-7.1618296E-3,-6.448847E-2,3.7513338E-2,7.825055E-2,1.7589066E-2,7.834878E-2,-3.1255532E-2,5.7377752E-2,-4.2471513E-2,-4.8046898E-2,4.6950188E-2,-1.304363E-2,9.388524E-2,-3.9234158E-2,6.7906305E-2,-2.639947E-3,-6.610345E-2,8.964082E-2,-4.4206735E-2,-6.1060514E-2,6.659118E-3,8.497811E-2,-5.642387E-2,5.655381E-2,-1.5502797E-2,-6.415563E-2,4.74248E-2,9.168588E-2,-2.9237485E-2],"split_indices":[175,256,180,192,222,374,321,258,232,258,230,336,0,277,0,353,280,209,169,235,422,442,336,319,0,229,335,170,258,443,172,230,405,0,165,263,442,0,0,338,167,0,0,303,393,279,279,0,219,0,0,0,0,0,0,0,0,0,0,0,0,0,0,0,0,0,0,0,0,0,0,0,0,0,0,0,0,0,0,0,0],"split_type":[0,0,0,0,0,0,0,0,0,0,0,0,0,0,0,0,0,0,0,0,0,0,0,0,0,0,0,0,0,0,0,0,0,0,0,0,0,0,0,0,0,0,0,0,0,0,0,0,0,0,0,0,0,0,0,0,0,0,0,0,0,0,0,0,0,0,0,0,0,0,0,0,0,0,0,0,0,0,0,0,0],"sum_hessian":[5.9410504E2,4.1463287E2,1.7947215E2,3.1577072E2,9.8862144E1,9.346747E1,8.600468E1,1.895334E2,1.2623733E2,5.7037865E1,4.182428E1,9.218161E1,1.2858558E0,8.197413E1,4.0305524E0,9.2942085E1,9.659132E1,1.18123215E2,8.114118E0,5.19725E1,5.065365E0,3.9241524E1,2.582756E0,9.088153E1,1.3000805E0,4.761364E1,3.4360485E1,3.5591984E1,5.7350098E1,1.3093719E1,8.3497604E1,1.0122394E2,1.6899277E1,4.7473884E0,3.3667297E0,1.4746832E1,3.7225666E1,2.1108863E0,2.9544787E0,3.6288177E1,2.9533489E0,1.2872956E0,1.2954605E0,8.544324E1,5.4382935E0,3.605815E1,1.15554905E1,2.274056E1,1.1619925E1,5.9758015E0,2.9616184E1,1.8739542E1,3.8610554E1,8.864806E0,4.228912E0,3.1287941E1,5.2209663E1,3.4456005E0,9.7778336E1,1.1902641E1,4.996636E0,2.0855248E0,1.2812049E0,1.0494527E1,4.2523055E0,3.5556274E1,1.6693906E0,2.9368148E0,3.335136E1,1.2931222E0,1.6602268E0,8.422304E1,1.2201974E0,1.3405907E0,4.0977025E0,1.2761931E1,2.3296219E1,1.0280629E1,1.2748607E0,1.272354E0,1.0347571E1],"tree_param":{"num_deleted":"0","num_feature":"576","num_nodes":"81","size_leaf_vector":"1"}},{"base_weights":[-2.4951458E-2,4.774584E-1,-3.3293593E-1,6.9624925E-1,1.1443103E-1,-1.9331795E-1,-6.1201835E-1,9.294431E-1,4.776986E-1,5.3794827E-2,1.0955378E-1,-2.3851219E-1,6.700102E-1,-6.264512E-1,4.417977E-2,1.0105563E0,-1.2217773E-1,3.262194E-1,9.759383E-1,-2.3352124E-1,2.6797578E-1,-2.6482415E-1,8.592033E-1,-5.158472E-2,1.0039062E0,1.09522924E-1,-6.4789635E-1,1.1066272E0,4.8307735E-1,7.89618E-2,-5.788343E-2,2.142746E-1,1.1551639E-1,8.40645E-3,1.1011099E0,-3.1321052E-1,6.8779305E-2,-1.2244706E-1,4.9347788E-1,-4.3190002E-1,-5.350358E-2,-4.6487647E-4,1.10813476E-1,-8.008337E-4,1.1521134E0,6.1298218E-2,-4.4884074E-2,-6.6286045E-1,1.2869353E-2,1.150852E-1,-1.2557541E-2,9.008583E-2,-5.4979123E-2,-1.3137228E-2,5.6373943E-2,1.20154105E-1,1.191893E-3,-3.841724E-2,8.274906E-2,-2.8668502E-2,9.186548E-2,6.9836766E-2,4.0273042E-3,-4.6507146E-2,3.11041E-2,-1.8528035E-2,5.200808E-2,1.23422764E-1,3.945997E-2,-3.036584E-2,-6.932928E-2],"categories":[],"categories_nodes":[],"categories_segments":[],"categories_sizes":[],"default_left":[0,0,0,0,0,0,0,0,0,0,0,0,0,0,0,0,0,0,0,0,0,0,0,0,0,0,0,0,0,0,0,0,0,0,0,0,0,0,0,0,0,0,0,0,0,0,0,0,0,0,0,0,0,0,0,0,0,0,0,0,0,0,0,0,0,0,0,0,0,0,0],"id":5,"left_children":[1,3,5,7,9,11,13,15,17,19,-1,21,23,25,-1,27,29,31,33,35,37,39,41,-1,43,45,47,49,51,-1,-1,53,-1,-1,55,57,-1,59,61,63,65,-1,-1,-1,67,-1,-1,69,-1,-1,-1,-1,-1,-1,-1,-1,-1,-1,-1,-1,-1,-1,-1,-1,-1,-1,-1,-1,-1,-1,-1],"loss_changes":[9.616577E1,1.868201E1,1.4892887E1,7.0574493E0,5.2966313E0,1.0235956E1,2.22361E0,6.107418E0,5.571354E0,5.3446856E0,0E0,7.3367615E0,5.7084026E0,2.0704536E0,0E0,2.7712708E0,2.9201708E0,5.4451E0,1.8825226E0,2.9461076E0,4.4309816E0,8.490753E0,1.294826E0,0E0,1.5941877E0,1.5239234E0,1.5175133E0,3.1095505E0,5.598219E0,0E0,0E0,6.7507467E0,0E0,0E0,1.6737614E0,3.1444943E0,0E0,3.5080707E0,2.9122887E0,3.4599972E0,8.230371E0,0E0,0E0,0E0,8.6800575E-2,0E0,0E0,1.1130066E0,0E0,0E0,0E0,0E0,0E0,0E0,0E0,0E0,0E0,0E0,0E0,0E0,0E0,0E0,0E0,0E0,0E0,0E0,0E0,0E0,0E0,0E0,0E0],"parents":[2147483647,0,0,1,1,2,2,3,3,4,4,5,5,6,6,7,7,8,8,9,9,11,11,12,12,13,13,15,15,16,16,17,17,18,18,19,19,20,20,21,21,22,22,24,24,25,25,26,26,27,27,28,28,31,31,34,34,35,35,37,37,38,38,39,39,40,40,44,44,47,47],"right_children":[2,4,6,8,10,12,14,16,18,20,-1,22,24,26,-1,28,30,32,34,36,38,40,42,-1,44,46,48,50,52,-1,-1,54,-1,-1,56,58,-1,60,62,64,66,-1,-1,-1,68,-1,-1,70,-1,-1,-1,-1,-1,-1,-1,-1,-1,-1,-1,-1,-1,-1,-1,-1,-1,-1,-1,-1,-1,-1,-1],"split_conditions":[-1E-1,2.97E0,1.5E0,-9.2E-1,7.01E0,1.5E0,8E0,1.1E1,4.5E0,3E0,1.0955378E-1,7.03E0,3.5E0,1.62E0,4.417977E-2,5E0,6.5E0,7.13E0,3E0,4E1,2E0,5E-1,8.618E3,-5.158472E-2,4E0,5.075E2,9E0,2.1E1,1.5E0,7.89618E-2,-5.788343E-2,1.57E2,1.1551639E-1,8.40645E-3,3.5E0,2.3E1,6.8779305E-2,6.05E2,1.8E1,1E1,7E0,-4.6487647E-4,1.10813476E-1,-8.008337E-4,6E0,6.1298218E-2,-4.4884074E-2,3.18E0,1.2869353E-2,1.150852E-1,-1.2557541E-2,9.008583E-2,-5.4979123E-2,-1.3137228E-2,5.6373943E-2,1.20154105E-1,1.191893E-3,-3.841724E-2,8.274906E-2,-2.8668502E-2,9.186548E-2,6.9836766E-2,4.0273042E-3,-4.6507146E-2,3.11041E-2,-1.8528035E-2,5.200808E-2,1.23422764E-1,3.945997E-2,-3.036584E-2,-6.932928E-2],"split_indices":[277,280,175,277,488,180,182,210,304,177,0,488,190,280,0,234,319,488,159,321,434,394,469,0,232,256,232,188,180,0,0,264,0,0,228,305,0,259,303,220,190,0,0,0,234,0,0,279,0,0,0,0,0,0,0,0,0,0,0,0,0,0,0,0,0,0,0,0,0,0,0],"split_type":[0,0,0,0,0,0,0,0,0,0,0,0,0,0,0,0,0,0,0,0,0,0,0,0,0,0,0,0,0,0,0,0,0,0,0,0,0,0,0,0,0,0,0,0,0,0,0,0,0,0,0,0,0,0,0,0,0,0,0,0,0,0,0,0,0,0,0,0,0,0,0],"sum_hessian":[6.1946185E2,2.3521283E2,3.84249E2,1.4618909E2,8.902374E1,2.5724728E2,1.270017E2,6.9151535E1,7.703756E1,8.483541E1,4.188327E0,2.4513832E2,1.2108977E1,1.25685875E2,1.3158298E0,6.423596E1,4.9155765E0,6.034553E1,1.6692026E1,3.6193214E1,4.8642197E1,2.4014095E2,4.9973674E0,2.5406675E0,9.56831E0,3.442308E0,1.2224356E2,5.3410275E1,1.0825686E1,1.3970299E0,3.5185466E0,5.4274517E1,6.0710125E0,2.2600784E0,1.4431949E1,3.391939E1,2.2738256E0,1.7976171E1,3.0666027E1,1.33527E2,1.0661395E2,1.3374435E0,3.6599238E0,1.3432133E0,8.225097E0,1.7587125E0,1.6835955E0,1.2007626E2,2.1672997E0,5.1623486E1,1.7867892E0,7.7989354E0,3.0267508E0,2.7600063E1,2.6674454E1,1.3119121E1,1.3128277E0,3.255725E1,1.3621398E0,1.6152658E1,1.823513E0,2.0745996E1,9.920029E0,1.2817801E2,5.348985E0,8.724666E1,1.9367296E1,6.852927E0,1.372169E0,1.0235973E1,1.0984029E2],"tree_param":{"num_deleted":"0","num_feature":"576","num_nodes":"71","size_leaf_vector":"1"}},{"base_weights":[1.2735918E-1,-9.7952634E-2,6.9097334E-1,-3.358198E-1,1.52706E-1,8.289586E-1,1.0942365E-1,-6.0313785E-1,-2.2653183E-1,1.9697723E-1,-6.932443E-2,8.5979E-1,-1.2726133E-1,-1.02059454E-1,5.1565814E-1,-1.7075111E-1,-6.606668E-1,-1.750563E-1,-7.0679344E-2,6.549445E-1,8.237832E-2,8.7504023E-1,-2.0652084E-2,-5.702589E-2,4.8734475E-2,4.5228833E-1,-3.214851E-1,-4.8110604E-2,7.1673304E-1,-6.247009E-2,5.28166E-1,-6.892081E-1,-3.48442E-2,-1.1669256E-1,-6.3851154E-1,8.1047136E-1,-4.5007586E-2,2.1259676E-1,-2.0210452E-1,9.0267766E-1,2.6836985E-1,-1.4263606E-1,9.218065E-2,2.721642E-1,-6.2840635E-1,9.164968E-1,-1.8380906E-2,8.263857E-2,-5.3642686E-3,-7.049678E-2,-7.1800256E-4,3.704564E-2,-4.3386992E-2,8.694863E-2,-1.918458E-2,-6.9098316E-2,3.0267463E-4,-1.55329555E-2,9.119839E-2,-5.0631553E-2,7.056046E-2,-9.516151E-3,3.5071906E-2,-3.5172056E-2,3.3420276E-2,7.159762E-2,1.01158574E-1,6.283559E-2,-5.490681E-2,3.190486E-2,-4.917735E-2,-5.5192728E-2,8.965708E-2,-5.155956E-3,-6.9430776E-2,9.993088E-2,2.811857E-2],"categories":[],"categories_nodes":[],"categories_segments":[],"categories_sizes":[],"default_left":[0,0,0,0,0,0,0,0,0,0,0,0,0,0,0,0,0,0,0,0,0,0,0,0,0,0,0,0,0,0,0,0,0,0,0,0,0,0,0,0,0,0,0,0,0,0,0,0,0,0,0,0,0,0,0,0,0,0,0,0,0,0,0,0,0,0,0,0,0,0,0,0,0,0,0,0,0],"id":6,"left_children":[1,3,5,7,9,11,13,15,17,19,-1,21,23,25,27,29,31,33,-1,35,37,39,-1,-1,-1,41,43,-1,45,-1,47,49,51,53,55,57,59,61,63,65,67,69,-1,71,73,75,-1,-1,-1,-1,-1,-1,-1,-1,-1,-1,-1,-1,-1,-1,-1,-1,-1,-1,-1,-1,-1,-1,-1,-1,-1,-1,-1,-1,-1,-1,-1],"loss_changes":[8.42678E1,2.8346426E1,1.5114723E1,6.9861183E0,8.816121E0,4.6200256E0,3.273458E0,1.6321411E0,4.1941223E0,1.1545204E1,0E0,2.5930328E0,1.8162494E0,3.2459135E0,2.950414E0,3.3713014E0,1.0756168E0,4.2284226E0,0E0,4.8363E0,6.6339464E0,2.2131958E0,0E0,0E0,0E0,2.2666059E0,3.6048074E0,0E0,2.1868386E0,0E0,7.9325306E-1,6.272259E-1,7.653319E-1,1.0728903E1,5.935049E-1,3.6836739E0,3.4608874E0,5.242278E0,4.641491E0,2.1151123E0,2.6414344E0,8.3996767E-1,0E0,4.1588693E0,4.479518E-1,2.1091509E-1,0E0,0E0,0E0,0E0,0E0,0E0,0E0,0E0,0E0,0E0,0E0,0E0,0E0,0E0,0E0,0E0,0E0,0E0,0E0,0E0,0E0,0E0,0E0,0E0,0E0,0E0,0E0,0E0,0E0,0E0,0E0],"parents":[2147483647,0,0,1,1,2,2,3,3,4,4,5,5,6,6,7,7,8,8,9,9,11,11,12,12,13,13,14,14,15,15,16,16,17,17,19,19,20,20,21,21,25,25,26,26,28,28,30,30,31,31,32,32,33,33,34,34,35,35,36,36,37,37,38,38,39,39,40,40,41,41,43,43,44,44,45,45],"right_children":[2,4,6,8,10,12,14,16,18,20,-1,22,24,26,28,30,32,34,-1,36,38,40,-1,-1,-1,42,44,-1,46,-1,48,50,52,54,56,58,60,62,64,66,68,70,-1,72,74,76,-1,-1,-1,-1,-1,-1,-1,-1,-1,-1,-1,-1,-1,-1,-1,-1,-1,-1,-1,-1,-1,-1,-1,-1,-1,-1,-1,-1,-1,-1,-1],"split_conditions":[1.04E0,-6E-2,3.1E1,-1.08E0,6.78E0,6.57E0,5E0,3E0,3.17E2,1E0,-6.932443E-2,3.2E1,1.4E1,9.5E0,1.5E1,2E0,1E0,6.72E0,-7.0679344E-2,1.6E1,2.5E0,6E0,-2.0652084E-2,-5.702589E-2,4.8734475E-2,1.87E2,9E0,-4.8110604E-2,1.695E2,-6.247009E-2,1.1E1,3.75E-1,1.15E2,2E1,2.5E1,8E0,4.6E1,3.5460994E-1,6.03E2,3.91E0,7E0,5.5E0,9.218065E-2,1E0,2E0,2.6E1,-1.8380906E-2,8.263857E-2,-5.3642686E-3,-7.049678E-2,-7.1800256E-4,3.704564E-2,-4.3386992E-2,8.694863E-2,-1.918458E-2,-6.9098316E-2,3.0267463E-4,-1.55329555E-2,9.119839E-2,-5.0631553E-2,7.056046E-2,-9.516151E-3,3.5071906E-2,-3.5172056E-2,3.3420276E-2,7.159762E-2,1.01158574E-1,6.283559E-2,-5.490681E-2,3.190486E-2,-4.917735E-2,-5.5192728E-2,8.965708E-2,-5.155956E-3,-6.9430776E-2,9.993088E-2,2.811857E-2],"split_indices":[277,277,321,277,488,488,177,159,265,446,0,306,320,185,263,396,88,488,0,276,228,171,0,0,0,265,159,0,268,0,166,536,269,374,306,90,285,281,259,279,441,207,0,429,353,306,0,0,0,0,0,0,0,0,0,0,0,0,0,0,0,0,0,0,0,0,0,0,0,0,0,0,0,0,0,0,0],"split_type":[0,0,0,0,0,0,0,0,0,0,0,0,0,0,0,0,0,0,0,0,0,0,0,0,0,0,0,0,0,0,0,0,0,0,0,0,0,0,0,0,0,0,0,0,0,0,0,0,0,0,0,0,0,0,0,0,0,0,0,0,0,0,0,0,0,0,0,0,0,0,0,0,0,0,0,0,0],"sum_hessian":[6.6205084E2,4.7356393E2,1.8848691E2,2.4280751E2,2.3075644E2,1.5199692E2,3.6489994E1,6.914942E1,1.736581E2,2.2000978E2,1.0746648E1,1.4734685E2,4.6500616E0,2.448962E1,1.2000374E1,8.585917E0,6.0563503E1,1.5807928E2,1.5578803E1,4.3091152E1,1.7691864E2,1.4544609E2,1.9007697E0,2.7442257E0,1.9058359E0,6.64379E0,1.7845829E1,1.7806585E0,1.0219715E1,5.2695246E0,3.3163927E0,5.7825054E1,2.738449E0,1.4151042E2,1.6568867E1,3.512795E1,7.963202E0,1.21538574E2,5.5380062E1,1.3864218E2,6.8039002E0,3.2376213E0,3.4061685E0,6.120588E0,1.1725242E1,8.349795E0,1.86992E0,1.9146302E0,1.4017624E0,5.648618E1,1.3388722E0,1.3940623E0,1.3443868E0,9.271966E0,1.3223845E2,1.5244907E1,1.3239589E0,3.2906082E0,3.1837341E1,5.1336493E0,2.8295527E0,3.774586E1,8.379271E1,4.3569473E1,1.1810589E1,5.3868813E1,8.477338E1,4.884263E0,1.9196371E0,1.4312184E0,1.8064028E0,2.6884499E0,3.4321377E0,1.3849449E0,1.0340297E1,6.880046E0,1.4697493E0],"tree_param":{"num_deleted":"0","num_feature":"576","num_nodes":"77","size_leaf_vector":"1"}},{"base_weights":[-1.1955514E-1,3.0680828E-2,-2.6093984E-1,3.4166738E-1,-3.2478686E-2,-4.302641E-1,-1.4914016E-1,5.897605E-1,-1.45228505E-2,-3.2023335E-1,5.9492745E-2,-4.6935672E-1,3.3996746E-1,2.7738899E-2,-3.5253125E-1,7.204916E-1,-3.1277215E-1,-6.1566975E-2,3.0852E-1,1.5837511E-2,-4.68038E-1,1.4764622E-1,-2.384519E-1,-5.0521666E-1,4.42283E-1,-4.848449E-2,9.5270686E-2,-5.043956E-1,1.1522505E-1,-4.303015E-1,1.4427492E-1,1.8643375E-1,9.307977E-1,5.0600474E-3,-4.7645923E-2,8.9248186E-1,-1.7433433E-1,-3.3268934E-1,5.963762E-1,1.0280514E-1,-5.69547E-1,1.9947837E-1,-5.409794E-1,6.974896E-1,-3.2886076E-1,-5.211775E-1,5.031026E-2,1.0322388E-1,-4.407881E-2,1.8430095E-2,-6.349263E-2,1.8987805E-2,6.775943E-1,-5.314366E-1,-3.5098143E-2,-1.4787978E-1,1.0073399E-1,-5.477611E-2,7.004514E-2,3.067482E-3,1.081105E-1,-7.837252E-3,1.2399282E-1,3.3474464E-2,-5.7641096E-2,4.576181E-2,-5.4400284E-2,-4.4006165E-2,9.724725E-2,8.718199E-2,-5.513515E-2,2.7766136E-2,-6.2251057E-2,1.45154735E-2,7.2039776E-2,6.6607E-3,-6.3154764E-2,3.990419E-3,9.851077E-2,-3.9105125E-2,6.44437E-2,-5.3717848E-2,4.659627E-2,4.608701E-2,-9.026248E-3,9.689044E-2,-9.524193E-3,5.1401287E-2,-5.6234844E-2,6.9732934E-2,-3.1160269E-2,-3.768068E-2,5.8692046E-2],"categories":[],"categories_nodes":[],"categories_segments":[],"categories_sizes":[],"default_left":[0,0,0,0,0,0,0,0,0,0,0,0,0,0,0,0,0,0,0,0,0,0,0,0,0,0,0,0,0,0,0,0,0,0,0,0,0,0,0,0,0,0,0,0,0,0,0,0,0,0,0,0,0,0,0,0,0,0,0,0,0,0,0,0,0,0,0,0,0,0,0,0,0,0,0,0,0,0,0,0,0,0,0,0,0,0,0,0,0,0,0,0,0],"id":7,"left_children":[1,3,5,7,9,11,13,15,17,19,21,23,25,27,29,31,33,-1,35,37,39,41,43,45,47,-1,-1,49,51,53,55,57,59,-1,-1,61,63,65,67,69,71,73,75,77,79,81,-1,-1,-1,-1,-1,83,85,87,89,91,-1,-1,-1,-1,-1,-1,-1,-1,-1,-1,-1,-1,-1,-1,-1,-1,-1,-1,-1,-1,-1,-1,-1,-1,-1,-1,-1,-1,-1,-1,-1,-1,-1,-1,-1,-1,-1],"loss_changes":[1.2512321E1,5.634609E0,5.678974E0,4.2871566E0,6.341224E0,3.776453E0,6.6386876E0,3.5955296E0,4.2397566E0,2.8892312E0,4.812E0,3.9744148E0,3.6874025E0,4.6893907E0,3.3763514E0,2.662691E0,2.8053787E-1,0E0,4.168277E0,3.9797843E0,2.39534E0,5.1393127E0,3.7754216E0,2.0463943E0,2.9951181E0,0E0,0E0,1.3964155E0,4.6549997E0,2.9558678E0,3.2653842E0,3.5480928E0,2.3841887E0,0E0,0E0,2.3250155E0,1.9586858E0,2.3063974E0,3.3003745E0,3.9696393E0,1.7160406E0,3.6258898E0,5.9987664E-1,7.19473E-1,2.60631E0,1.9818821E0,0E0,0E0,0E0,0E0,0E0,3.6465836E0,2.9231443E0,2.2017517E0,3.5051694E0,1.9211003E0,0E0,0E0,0E0,0E0,0E0,0E0,0E0,0E0,0E0,0E0,0E0,0E0,0E0,0E0,0E0,0E0,0E0,0E0,0E0,0E0,0E0,0E0,0E0,0E0,0E0,0E0,0E0,0E0,0E0,0E0,0E0,0E0,0E0,0E0,0E0,0E0,0E0],"parents":[2147483647,0,0,1,1,2,2,3,3,4,4,5,5,6,6,7,7,8,8,9,9,10,10,11,11,12,12,13,13,14,14,15,15,16,16,18,18,19,19,20,20,21,21,22,22,23,23,24,24,27,27,28,28,29,29,30,30,31,31,32,32,35,35,36,36,37,37,38,38,39,39,40,40,41,41,42,42,43,43,44,44,45,45,51,51,52,52,53,53,54,54,55,55],"right_children":[2,4,6,8,10,12,14,16,18,20,22,24,26,28,30,32,34,-1,36,38,40,42,44,46,48,-1,-1,50,52,54,56,58,60,-1,-1,62,64,66,68,70,72,74,76,78,80,82,-1,-1,-1,-1,-1,84,86,88,90,92,-1,-1,-1,-1,-1,-1,-1,-1,-1,-1,-1,-1,-1,-1,-1,-1,-1,-1,-1,-1,-1,-1,-1,-1,-1,-1,-1,-1,-1,-1,-1,-1,-1,-1,-1,-1,-1],"split_conditions":[1E0,3.5E0,1E0,4.5E0,1E0,1.1E1,2E0,7E0,1.05E2,9E0,4.835E2,1.35E1,1E1,4.15E1,5E0,5E0,1E1,-6.1566975E-2,1.28E2,5E0,1.35E1,2E0,3.5E1,4.5E0,3E0,-4.848449E-2,9.5270686E-2,3.5E0,2E0,1.7E1,6E0,2E1,1E0,5.0600474E-3,-4.7645923E-2,3.5E0,1.5E0,5E-1,3.5E0,1E0,1.275E2,8E0,-1.57E0,1.6E1,2.5E0,9.5E0,5.031026E-2,1.0322388E-1,-4.407881E-2,1.8430095E-2,-6.349263E-2,3E2,1E0,3.5E0,-1.1E0,8.75E1,1.0073399E-1,-5.477611E-2,7.004514E-2,3.067482E-3,1.081105E-1,-7.837252E-3,1.2399282E-1,3.3474464E-2,-5.7641096E-2,4.576181E-2,-5.4400284E-2,-4.4006165E-2,9.724725E-2,8.718199E-2,-5.513515E-2,2.7766136E-2,-6.2251057E-2,1.45154735E-2,7.2039776E-2,6.6607E-3,-6.3154764E-2,3.990419E-3,9.851077E-2,-3.9105125E-2,6.44437E-2,-5.3717848E-2,4.659627E-2,4.608701E-2,-9.026248E-3,9.689044E-2,-9.524193E-3,5.1401287E-2,-5.6234844E-2,6.9732934E-2,-3.1160269E-2,-3.768068E-2,5.8692046E-2],"split_indices":[175,190,180,336,191,210,175,172,269,166,256,319,465,335,171,373,320,0,269,378,257,323,335,323,209,0,0,207,447,305,424,268,426,0,0,399,186,314,207,218,267,207,277,90,422,399,0,0,0,0,0,258,390,263,277,268,0,0,0,0,0,0,0,0,0,0,0,0,0,0,0,0,0,0,0,0,0,0,0,0,0,0,0,0,0,0,0,0,0,0,0,0,0],"split_type":[0,0,0,0,0,0,0,0,0,0,0,0,0,0,0,0,0,0,0,0,0,0,0,0,0,0,0,0,0,0,0,0,0,0,0,0,0,0,0,0,0,0,0,0,0,0,0,0,0,0,0,0,0,0,0,0,0,0,0,0,0,0,0,0,0,0,0,0,0,0,0,0,0,0,0,0,0,0,0,0,0,0,0,0,0,0,0,0,0,0,0,0,0],"sum_hessian":[5.87686E2,2.853039E2,3.023821E2,4.74177E1,2.3788618E2,1.19120964E2,1.8326114E2,2.756348E1,1.9854221E1,5.7016018E1,1.8087016E2,1.1373885E2,5.3821125E0,9.8480865E1,8.478027E1,2.425226E1,3.31122E0,6.623247E0,1.3230973E1,1.7688845E1,3.9327175E1,1.3996338E2,4.090679E1,1.0986313E2,3.875723E0,2.3830285E0,2.999084E0,1.3231971E1,8.524889E1,7.3420815E1,1.135946E1,7.3850136E0,1.6867247E1,1.2429154E0,2.0683045E0,5.6045313E0,7.626442E0,1.1319878E1,6.3689675E0,5.9355288E0,3.3391644E1,1.3082652E2,9.136858E0,3.0118914E0,3.7894897E1,1.08626785E2,1.2363459E0,2.2222073E0,1.6535156E0,2.0426667E0,1.1189303E1,7.367482E1,1.1574076E1,5.8185932E1,1.52348795E1,9.105746E0,2.2537138E0,3.0141375E0,4.3708763E0,2.585848E0,1.4281399E1,1.6812156E0,3.9233158E0,3.4393094E0,4.187133E0,2.1422653E0,9.177611E0,1.6504947E0,4.718473E0,2.5753064E0,3.3602223E0,1.7150528E0,3.1676592E1,1.19629684E2,1.1196831E1,1.2196016E0,7.9172564E0,1.263005E0,1.7488863E0,3.618126E1,1.7136415E0,1.0734264E2,1.2841386E0,1.3966468E1,5.9708355E1,8.221422E0,3.3526533E0,1.2222023E0,5.696373E1,3.7581205E0,1.1476759E1,7.314204E0,1.7915425E0],"tree_param":{"num_deleted":"0","num_feature":"576","num_nodes":"93","size_leaf_vector":"1"}},{"base_weights":[-2.2832274E-2,4.3368262E-1,-3.1397173E-1,1.8238755E-1,6.950473E-1,-1.12490885E-1,-4.978887E-1,9.904248E-2,1.1031977E-1,3.844468E-1,8.704468E-1,-1.5248603E-1,9.552442E-2,-5.6308687E-1,-3.831028E-2,6.952711E-1,-1.6346596E-2,6.3333654E-1,-9.6035376E-2,-9.9076614E-2,9.352758E-1,-3.942339E-1,1.1791623E-2,-6.096709E-1,-1.564176E-1,3.3530375E-1,-4.9065426E-1,-5.0335724E-2,8.8407886E-1,-4.938399E-1,1.00626945E-1,8.8224983E-1,-1.7487152E-2,-3.732846E-1,6.4193517E-1,-5.5811144E-2,5.290438E-2,9.74213E-1,-2.0265546E-2,5.9813255E-1,-4.4024473E-1,-2.2641094E-1,2.6761538E-1,-6.261055E-1,-7.003877E-2,2.4001777E-1,-6.1845817E-2,1.1080642E-1,2.4791984E-2,-6.3960865E-2,1.2192938E-2,2.2298416E-2,1.0593468E-1,-6.288215E-2,2.3756547E-2,2.4186138E-2,-2.9151622E-2,1.0276089E-1,-4.6869397E-2,5.973367E-2,-4.5447975E-2,2.4254352E-2,-6.646278E-2,9.3984626E-2,-4.3643587E-3,-1.528832E-2,1.0082009E-1,-4.3649957E-2,4.0232964E-2,3.0415598E-3,9.034179E-2,6.1902888E-2,-4.773204E-2,8.598092E-2,-2.6914675E-2,-1.1014007E-2,6.0996335E-2,-6.377699E-2,1.070519E-2,-5.4683257E-2,8.3983E-2,-4.193809E-2,7.950194E-2,-3.666034E-2,6.066202E-2],"categories":[],"categories_nodes":[],"categories_segments":[],"categories_sizes":[],"default_left":[0,0,0,0,0,0,0,0,0,0,0,0,0,0,0,0,0,0,0,0,0,0,0,0,0,0,0,0,0,0,0,0,0,0,0,0,0,0,0,0,0,0,0,0,0,0,0,0,0,0,0,0,0,0,0,0,0,0,0,0,0,0,0,0,0,0,0,0,0,0,0,0,0,0,0,0,0,0,0,0,0,0,0,0,0],"id":8,"left_children":[1,3,5,7,9,11,13,15,-1,17,19,21,-1,23,25,27,29,31,33,35,37,39,41,43,45,47,49,-1,51,53,55,57,59,61,63,-1,-1,65,67,69,71,73,75,77,79,81,-1,-1,83,-1,-1,-1,-1,-1,-1,-1,-1,-1,-1,-1,-1,-1,-1,-1,-1,-1,-1,-1,-1,-1,-1,-1,-1,-1,-1,-1,-1,-1,-1,-1,-1,-1,-1,-1,-1],"loss_changes":[8.201126E1,1.565612E1,1.3903648E1,9.396852E0,6.063114E0,7.878023E0,5.8708534E0,7.901424E0,0E0,5.3434343E0,4.7602043E0,6.970154E0,0E0,3.1658478E0,4.4749274E0,4.6586847E0,5.4711666E0,4.7509146E0,3.5014098E0,1.8979691E0,2.6130943E0,3.5048275E0,6.4834356E0,1.3228912E0,3.6355977E0,3.4667327E0,1.1677434E0,0E0,1.6695995E0,2.0517216E0,4.434562E0,4.6376686E0,2.707683E0,2.353815E0,1.0053171E0,0E0,0E0,2.7205048E0,8.2797253E-1,5.9120464E-1,2.9826765E0,2.7901752E0,6.6987143E0,1.3461723E0,2.9236372E0,4.346908E0,0E0,0E0,2.820935E0,0E0,0E0,0E0,0E0,0E0,0E0,0E0,0E0,0E0,0E0,0E0,0E0,0E0,0E0,0E0,0E0,0E0,0E0,0E0,0E0,0E0,0E0,0E0,0E0,0E0,0E0,0E0,0E0,0E0,0E0,0E0,0E0,0E0,0E0,0E0,0E0],"parents":[2147483647,0,0,1,1,2,2,3,3,4,4,5,5,6,6,7,7,9,9,10,10,11,11,13,13,14,14,15,15,16,16,17,17,18,18,19,19,20,20,21,21,22,22,23,23,24,24,25,25,26,26,28,28,29,29,30,30,31,31,32,32,33,33,34,34,37,37,38,38,39,39,40,40,41,41,42,42,43,43,44,44,45,45,48,48],"right_children":[2,4,6,8,10,12,14,16,-1,18,20,22,-1,24,26,28,30,32,34,36,38,40,42,44,46,48,50,-1,52,54,56,58,60,62,64,-1,-1,66,68,70,72,74,76,78,80,82,-1,-1,84,-1,-1,-1,-1,-1,-1,-1,-1,-1,-1,-1,-1,-1,-1,-1,-1,-1,-1,-1,-1,-1,-1,-1,-1,-1,-1,-1,-1,-1,-1,-1,-1,-1,-1,-1,-1],"split_conditions":[-1E-1,3.11E0,8.3E-1,7.01E0,1.855E2,7.03E0,1.2E1,-1.2E0,1.1031977E-1,1E0,1.2E1,5E-1,9.552442E-2,3E0,1.79E0,1.36E2,4E0,1.35E1,5E0,3.9E1,7.5E0,1E0,2.5E0,1.75E1,1.5E0,5E-1,6.5E0,-5.0335724E-2,4E1,2.57E0,9E0,1.3E1,3.5E0,4.2E1,2.5E0,-5.5811144E-2,5.290438E-2,5E0,1.9E1,5E-1,3.9E1,1E0,4.5E0,1.5E1,1.35E1,1E0,-6.1845817E-2,1.1080642E-1,4E0,-6.3960865E-2,1.2192938E-2,2.2298416E-2,1.0593468E-1,-6.288215E-2,2.3756547E-2,2.4186138E-2,-2.9151622E-2,1.0276089E-1,-4.6869397E-2,5.973367E-2,-4.5447975E-2,2.4254352E-2,-6.646278E-2,9.3984626E-2,-4.3643587E-3,-1.528832E-2,1.0082009E-1,-4.3649957E-2,4.0232964E-2,3.0415598E-3,9.034179E-2,6.1902888E-2,-4.773204E-2,8.598092E-2,-2.6914675E-2,-1.1014007E-2,6.0996335E-2,-6.377699E-2,1.070519E-2,-5.4683257E-2,8.3983E-2,-4.193809E-2,7.950194E-2,-3.666034E-2,6.066202E-2],"split_indices":[277,278,277,488,262,488,319,277,0,351,306,393,0,406,277,262,399,185,304,374,207,234,404,185,175,186,217,0,337,278,402,227,336,337,446,0,0,320,164,222,338,373,319,336,164,384,0,0,209,0,0,0,0,0,0,0,0,0,0,0,0,0,0,0,0,0,0,0,0,0,0,0,0,0,0,0,0,0,0,0,0,0,0,0,0],"split_type":[0,0,0,0,0,0,0,0,0,0,0,0,0,0,0,0,0,0,0,0,0,0,0,0,0,0,0,0,0,0,0,0,0,0,0,0,0,0,0,0,0,0,0,0,0,0,0,0,0,0,0,0,0,0,0,0,0,0,0,0,0,0,0,0,0,0,0,0,0,0,0,0,0,0,0,0,0,0,0,0,0,0,0,0,0],"sum_hessian":[6.150214E2,2.3930103E2,3.7572037E2,1.2286626E2,1.1643476E2,1.8006787E2,1.956525E2,1.1368397E2,9.182288E0,4.3173756E1,7.3261E1,1.7439267E2,5.675201E0,1.7114743E2,2.4505068E1,1.7619022E1,9.606495E1,2.823164E1,1.4942117E1,4.558591E0,6.8702415E1,6.99928E1,1.0439988E2,1.5310953E2,1.8037895E1,1.3562142E1,1.0942925E1,2.1709533E0,1.5448069E1,1.8268791E1,7.779616E1,2.0164108E1,8.067533E0,1.1220751E1,3.721366E0,2.6981914E0,1.8603994E0,6.5993706E1,2.7087064E0,2.5696867E0,6.742311E1,5.412137E1,5.0278507E1,1.4842886E2,4.6806784E0,9.9668045E0,8.07109E0,3.1512418E0,1.0410901E1,8.767037E0,2.1758883E0,3.7134652E0,1.1734603E1,1.5540951E1,2.727841E0,5.7478065E1,2.031809E1,1.8421347E1,1.7427615E0,3.1993296E0,4.868202E0,3.6574001E0,7.5633507E0,2.335583E0,1.3857831E0,1.8293996E0,6.416431E1,1.3480477E0,1.3606585E0,1.2831451E0,1.2865415E0,1.7492647E0,6.567384E1,1.324982E0,5.2796387E1,2.4225622E1,2.6052885E1,1.4623242E2,2.1964343E0,3.333067E0,1.3476115E0,4.6666765E0,5.300128E0,6.445159E0,3.965742E0],"tree_param":{"num_deleted":"0","num_feature":"576","num_nodes":"85","size_leaf_vector":"1"}},{"base_weights":[1.1694293E-1,-1.1584671E-1,5.818704E-1,-3.1677556E-1,1.2168232E-1,7.3764366E-1,1.397516E-1,-5.778694E-1,-2.1248966E-1,2.2983634E-1,-1.9697994E-1,7.7249706E-1,-2.1481043E-1,-1.3609788E-1,4.6807188E-1,-1.5006278E-1,-6.3590753E-1,-1.6339108E-1,-6.8208605E-2,-6.979934E-2,3.6637443E-1,-2.748299E-1,7.104548E-2,7.9726183E-1,-9.782699E-2,-5.9503037E-2,4.538138E-2,1.0819653E-1,-5.93484E-1,7.9389536E-1,1.4293677E-1,-6.0005154E-2,5.143324E-1,-6.6492885E-1,-1.9713692E-2,-1.0807729E-1,-6.151151E-1,9.551953E-2,-4.1859674E-1,5.571158E-1,7.640443E-2,4.9067136E-2,-5.219107E-1,8.115334E-1,-4.4959586E-2,-5.728985E-2,6.595618E-2,-4.4418678E-1,4.2911032E-1,-6.676028E-2,-1.8343655E-3,2.661714E-1,9.426259E-2,-1.3666427E-1,8.114494E-2,7.9517655E-2,-4.667022E-3,-6.809674E-2,2.590395E-4,-4.174277E-2,3.72839E-2,8.070036E-2,-1.7932435E-2,-6.6826135E-2,1.4340212E-3,-3.184026E-3,7.670494E-2,-5.8338206E-2,5.2394856E-2,2.1063663E-2,7.589395E-2,5.5800725E-2,-2.151915E-2,-3.0760607E-2,4.355269E-2,-6.70049E-2,-7.4343383E-3,8.46885E-2,3.4705594E-2,-6.455894E-2,3.409394E-2,6.750428E-2,-3.4376185E-2,7.1239784E-2,-4.2342663E-2,5.226772E-2,-6.452443E-2],"categories":[],"categories_nodes":[],"categories_segments":[],"categories_sizes":[],"default_left":[0,0,0,0,0,0,0,0,0,0,0,0,0,0,0,0,0,0,0,0,0,0,0,0,0,0,0,0,0,0,0,0,0,0,0,0,0,0,0,0,0,0,0,0,0,0,0,0,0,0,0,0,0,0,0,0,0,0,0,0,0,0,0,0,0,0,0,0,0,0,0,0,0,0,0,0,0,0,0,0,0,0,0,0,0,0,0],"id":9,"left_children":[1,3,5,7,9,11,13,15,17,19,21,23,25,27,29,31,33,35,-1,37,39,41,-1,43,45,-1,-1,47,49,51,53,-1,55,57,59,61,63,65,67,69,71,73,75,77,-1,-1,-1,79,81,-1,-1,83,-1,85,-1,-1,-1,-1,-1,-1,-1,-1,-1,-1,-1,-1,-1,-1,-1,-1,-1,-1,-1,-1,-1,-1,-1,-1,-1,-1,-1,-1,-1,-1,-1,-1,-1],"loss_changes":[7.153228E1,2.107783E1,1.5080948E1,6.387306E0,7.032585E0,5.570221E0,5.37774E0,1.5844975E0,3.8642478E0,6.2370644E0,3.862507E0,3.4676437E0,1.9299715E0,3.7135663E0,2.7483978E0,3.1163626E0,1.046772E0,3.8670406E0,0E0,2.8289742E0,5.735016E0,3.9095058E0,0E0,3.0878983E0,2.2639709E0,0E0,0E0,4.114452E0,4.7905207E-1,7.9092884E-1,2.866301E0,0E0,7.194307E-1,6.074238E-1,7.327289E-1,9.3677635E0,5.7697344E-1,2.9005318E0,2.7501645E0,4.2352486E0,6.103587E0,3.1547494E0,1.7811875E0,2.1961975E0,0E0,0E0,0E0,1.584021E0,2.989979E0,0E0,0E0,1.628499E0,0E0,4.1096735E0,0E0,0E0,0E0,0E0,0E0,0E0,0E0,0E0,0E0,0E0,0E0,0E0,0E0,0E0,0E0,0E0,0E0,0E0,0E0,0E0,0E0,0E0,0E0,0E0,0E0,0E0,0E0,0E0,0E0,0E0,0E0,0E0,0E0],"parents":[2147483647,0,0,1,1,2,2,3,3,4,4,5,5,6,6,7,7,8,8,9,9,10,10,11,11,12,12,13,13,14,14,15,15,16,16,17,17,19,19,20,20,21,21,23,23,24,24,27,27,28,28,29,29,30,30,32,32,33,33,34,34,35,35,36,36,37,37,38,38,39,39,40,40,41,41,42,42,43,43,47,47,48,48,51,51,53,53],"right_children":[2,4,6,8,10,12,14,16,18,20,22,24,26,28,30,32,34,36,-1,38,40,42,-1,44,46,-1,-1,48,50,52,54,-1,56,58,60,62,64,66,68,70,72,74,76,78,-1,-1,-1,80,82,-1,-1,84,-1,86,-1,-1,-1,-1,-1,-1,-1,-1,-1,-1,-1,-1,-1,-1,-1,-1,-1,-1,-1,-1,-1,-1,-1,-1,-1,-1,-1,-1,-1,-1,-1,-1,-1],"split_conditions":[8.7E-1,-6E-2,2.9E1,-1.08E0,4E0,6.58E0,1.5E0,3E0,3.17E2,3.649635E-1,3.5E0,1.7E1,1.37E0,1E0,1.5E0,2E0,1E0,6.72E0,-6.8208605E-2,5.5E0,1E0,3.8E-1,7.104548E-2,1.5E1,1.85E1,-5.9503037E-2,4.538138E-2,3E0,3E0,5E-1,3E0,-6.0005154E-2,1.1E1,3.75E-1,1.5E0,2E1,6.2E1,4.5E0,2.7E1,1.79E2,2E0,3E0,7E0,2E1,-4.4959586E-2,-5.728985E-2,6.595618E-2,3.5E0,1.5E1,-6.676028E-2,-1.8343655E-3,3.08E2,9.426259E-2,1E1,8.114494E-2,7.9517655E-2,-4.667022E-3,-6.809674E-2,2.590395E-4,-4.174277E-2,3.72839E-2,8.070036E-2,-1.7932435E-2,-6.6826135E-2,1.4340212E-3,-3.184026E-3,7.670494E-2,-5.8338206E-2,5.2394856E-2,2.1063663E-2,7.589395E-2,5.5800725E-2,-2.151915E-2,-3.0760607E-2,4.355269E-2,-6.70049E-2,-7.4343383E-3,8.46885E-2,3.4705594E-2,-6.455894E-2,3.409394E-2,6.750428E-2,-3.4376185E-2,7.1239784E-2,-4.2342663E-2,5.226772E-2,-6.452443E-2],"split_indices":[277,277,321,277,165,488,175,159,265,281,170,185,277,180,180,396,88,488,0,336,405,277,0,336,318,0,0,336,423,393,175,0,166,536,179,374,335,336,306,270,443,192,399,305,0,0,0,421,188,0,0,258,0,319,0,0,0,0,0,0,0,0,0,0,0,0,0,0,0,0,0,0,0,0,0,0,0,0,0,0,0,0,0,0,0,0,0],"split_type":[0,0,0,0,0,0,0,0,0,0,0,0,0,0,0,0,0,0,0,0,0,0,0,0,0,0,0,0,0,0,0,0,0,0,0,0,0,0,0,0,0,0,0,0,0,0,0,0,0,0,0,0,0,0,0,0,0,0,0,0,0,0,0,0,0,0,0,0,0,0,0,0,0,0,0,0,0,0,0,0,0,0,0,0,0,0,0],"sum_hessian":[6.593038E2,4.3983084E2,2.1947292E2,2.3809209E2,2.0173875E2,1.6179771E2,5.767521E1,6.665958E1,1.7143251E2,1.5082684E2,5.091191E1,1.5626828E2,5.5294256E0,3.1660246E1,2.6014965E1,8.3913555E0,5.8268223E1,1.5642542E2,1.5007096E1,4.7367237E1,1.0345961E2,4.753128E1,3.3806322E0,1.5202638E2,4.241902E0,3.595102E0,1.9343238E0,2.1135183E1,1.05250635E1,1.227362E1,1.3741344E1,5.060662E0,3.330694E0,5.5571823E1,2.6963997E0,1.404647E2,1.5960704E1,3.262851E1,1.4738729E1,6.1852165E1,4.1607445E1,2.0915138E1,2.661614E1,1.5065117E2,1.3752217E0,2.7564857E0,1.4854162E0,7.6254673E0,1.3509715E1,9.18112E0,1.3439437E0,3.3119214E0,8.961699E0,1.0249943E1,3.4914024E0,1.9413915E0,1.3893025E0,5.4248253E1,1.323571E0,1.3079181E0,1.3884819E0,9.400465E0,1.3106424E2,1.466118E1,1.2995249E0,2.8227564E1,4.400946E0,1.2869763E1,1.8689657E0,2.3519293E1,3.8332874E1,1.5346831E1,2.6260614E1,1.0982843E1,9.932296E0,1.9623844E1,6.9922957E0,1.3923094E2,1.1420228E1,6.2101493E0,1.4153183E0,1.0344585E1,3.1651292E0,1.990708E0,1.3212135E0,4.451342E0,5.7986E0],"tree_param":{"num_deleted":"0","num_feature":"576","num_nodes":"87","size_leaf_vector":"1"}},{"base_weights":[-1.104013E-1,-1.9829309E-2,-3.26314E-1,6.0667796E-3,-5.4433537E-1,-5.038805E-1,-1.3416697E-1,-3.710391E-2,8.129779E-1,-6.3939236E-2,2.6868185E-2,-5.232316E-1,4.5247786E-2,-1.985709E-1,8.717746E-2,-4.631291E-1,2.7579223E-3,9.3770957E-1,-2.9502949E-3,-5.4300624E-1,4.4168975E-2,-5.269296E-2,-4.9531502E-1,-5.413849E-1,2.4058509E-1,1.0807206E-1,-1.7546594E-1,1.0366704E0,1.489369E-2,-4.150578E-2,4.0206783E-2,-5.685629E-1,-1.26661E-1,-4.4278732E-1,8.820875E-2,-6.364941E-2,2.5432987E-2,-6.042516E-2,4.552929E-2,8.75892E-2,-4.2092044E-2,1.9278102E-2,-2.2423012E-2,-2.1364534E-2,8.102538E-2,1.9748702E-3,1.1294259E-1,-1.37115E-2,-5.886252E-2,7.4081205E-2,-5.368895E-2,4.6718214E-2,-5.647731E-2,-3.0267317E-2,3.462062E-2,8.652976E-2,-3.5341594E-2],"categories":[],"categories_nodes":[],"categories_segments":[],"categories_sizes":[],"default_left":[0,0,0,0,0,0,0,0,0,0,0,0,0,0,0,0,0,0,0,0,0,0,0,0,0,0,0,0,0,0,0,0,0,0,0,0,0,0,0,0,0,0,0,0,0,0,0,0,0,0,0,0,0,0,0,0,0],"id":10,"left_children":[1,3,5,7,9,11,13,15,17,-1,-1,19,-1,21,-1,23,25,27,29,31,-1,33,35,37,39,41,43,45,-1,-1,-1,47,49,51,53,-1,55,-1,-1,-1,-1,-1,-1,-1,-1,-1,-1,-1,-1,-1,-1,-1,-1,-1,-1,-1,-1],"loss_changes":[1.1372896E1,5.5857744E0,5.7973213E0,1.3708153E1,1.6670895E0,1.883379E0,5.61011E0,6.346955E0,2.0365944E0,0E0,0E0,1.9127502E0,0E0,3.423404E0,0E0,1.891232E0,6.4510856E0,1.1989155E0,7.7556616E-1,8.4690857E-1,0E0,3.036997E0,1.9382434E0,2.0975075E0,2.0045276E0,6.124085E0,4.9777164E0,1.414917E0,0E0,0E0,0E0,6.211128E-1,2.6329863E0,1.888855E0,4.229764E0,0E0,2.3859708E0,0E0,0E0,0E0,0E0,0E0,0E0,0E0,0E0,0E0,0E0,0E0,0E0,0E0,0E0,0E0,0E0,0E0,0E0,0E0,0E0],"parents":[2147483647,0,0,1,1,2,2,3,3,4,4,5,5,6,6,7,7,8,8,11,11,13,13,15,15,16,16,17,17,18,18,19,19,21,21,22,22,23,23,24,24,25,25,26,26,27,27,31,31,32,32,33,33,34,34,36,36],"right_children":[2,4,6,8,10,12,14,16,18,-1,-1,20,-1,22,-1,24,26,28,30,32,-1,34,36,38,40,42,44,46,-1,-1,-1,48,50,52,54,-1,56,-1,-1,-1,-1,-1,-1,-1,-1,-1,-1,-1,-1,-1,-1,-1,-1,-1,-1,-1,-1],"split_conditions":[1.5E0,7.13E0,1.5E0,6.69E0,6.5E0,5E1,4.3E1,1E0,5.2E1,-6.3939236E-2,2.6868185E-2,1.3E1,4.5247786E-2,1.92E0,8.717746E-2,7.04E0,4E0,1.615E2,5E0,1.3E1,4.4168975E-2,5E-1,2.05E1,7E0,9E0,1.5E0,6E0,1E0,1.489369E-2,-4.150578E-2,4.0206783E-2,1.5E0,5E-1,3.2E1,1.5E0,-6.364941E-2,1E0,-6.042516E-2,4.552929E-2,8.75892E-2,-4.2092044E-2,1.9278102E-2,-2.2423012E-2,-2.1364534E-2,8.102538E-2,1.9748702E-3,1.1294259E-1,-1.37115E-2,-5.886252E-2,7.4081205E-2,-5.368895E-2,4.6718214E-2,-5.647731E-2,-3.0267317E-2,3.462062E-2,8.652976E-2,-3.5341594E-2],"split_indices":[175,488,180,488,169,374,321,373,337,0,0,336,0,277,0,503,192,257,232,319,0,422,303,380,166,384,315,350,0,0,0,313,393,337,208,0,219,0,0,0,0,0,0,0,0,0,0,0,0,0,0,0,0,0,0,0,0],"split_type":[0,0,0,0,0,0,0,0,0,0,0,0,0,0,0,0,0,0,0,0,0,0,0,0,0,0,0,0,0,0,0,0,0,0,0,0,0,0,0,0,0,0,0,0,0,0,0,0,0,0,0,0,0,0,0,0,0],"sum_hessian":[5.8089685E2,4.100001E2,1.7089676E2,3.9165176E2,1.8348328E1,8.797507E1,8.292169E1,3.7266763E2,1.8984137E1,1.661883E1,1.7294974E0,8.667418E1,1.300889E0,7.868651E1,4.2351866E0,3.0977354E1,3.4169028E2,1.6337374E1,2.646763E0,8.536206E1,1.3121146E0,5.3542732E1,2.5143772E1,2.808488E1,2.8924723E0,2.1502412E2,1.2666614E2,1.4236901E1,2.1004717E0,1.2996132E0,1.3471497E0,8.008083E1,5.28123E0,1.363923E1,3.9903503E1,1.9606125E1,5.537648E0,2.6788874E1,1.2960081E0,1.3101355E0,1.5823368E0,1.7168008E2,4.334404E1,1.2269704E2,3.9691033E0,1.291415E0,1.2945487E1,3.9064057E0,7.617442E1,1.4368985E0,3.8443315E0,1.2777646E0,1.2361465E1,1.57969675E1,2.4106537E1,1.3222822E0,4.215366E0],"tree_param":{"num_deleted":"0","num_feature":"576","num_nodes":"57","size_leaf_vector":"1"}},{"base_weights":[-2.1264443E-2,3.9532545E-1,-2.9637262E-1,8.661254E-2,5.727413E-1,-1.6524512E-1,-5.706904E-1,1.6673861E-1,-4.977258E-1,3.6923793E-1,7.374514E-1,-2.0864165E-1,6.2599E-1,-5.8569527E-1,4.3351617E-2,2.8161904E-1,-3.171274E-1,2.129178E-2,-6.5994404E-2,8.3977616E-1,2.3509113E-1,8.731569E-1,1.5966387E-1,-2.77174E-1,1.4735545E-1,-4.8896875E-2,9.17652E-1,-6.01029E-1,4.3164413E-2,6.1480135E-1,8.510193E-2,-4.738846E-1,7.406647E-2,3.3818644E-3,9.813901E-1,-3.5345787E-1,3.3604077E-1,9.6546596E-1,4.010278E-1,-2.0071547E-1,7.511674E-1,-3.0802754E-1,7.27212E-1,-9.5330946E-2,7.9163206E-1,-1.4216107E-3,1.0511132E0,-2.501275E-1,-6.29468E-1,8.468615E-2,-8.352557E-3,-6.253837E-2,2.036087E-2,-6.6896416E-2,5.6153804E-2,1.10508956E-1,1.6017273E-2,4.800378E-2,-6.5579556E-2,-2.2796837E-3,5.7873882E-2,1.0044352E-1,-1.4153448E-2,7.314494E-2,-2.3958547E-2,5.6673523E-2,-4.6635836E-2,9.387472E-2,-1.0975142E-3,-4.114242E-2,-4.233006E-3,9.464291E-2,-3.4951349E-3,3.513107E-2,-3.3260714E-2,1.0227778E-1,3.4483501E-3,3.6440436E-2,1.1245348E-1,-4.969215E-2,6.1054613E-2,-8.876536E-3,-6.4588904E-2],"categories":[],"categories_nodes":[],"categories_segments":[],"categories_sizes":[],"default_left":[0,0,0,0,0,0,0,0,0,0,0,0,0,0,0,0,0,0,0,0,0,0,0,0,0,0,0,0,0,0,0,0,0,0,0,0,0,0,0,0,0,0,0,0,0,0,0,0,0,0,0,0,0,0,0,0,0,0,0,0,0,0,0,0,0,0,0,0,0,0,0,0,0,0,0,0,0,0,0,0,0,0,0],"id":11,"left_children":[1,3,5,7,9,11,13,15,17,19,21,23,25,27,-1,29,31,-1,-1,33,35,37,39,41,43,-1,45,47,-1,49,51,53,-1,-1,55,57,59,61,63,65,67,69,71,73,75,-1,77,79,81,-1,-1,-1,-1,-1,-1,-1,-1,-1,-1,-1,-1,-1,-1,-1,-1,-1,-1,-1,-1,-1,-1,-1,-1,-1,-1,-1,-1,-1,-1,-1,-1,-1,-1],"loss_changes":[7.0051216E1,1.3266483E1,1.314579E1,4.2925577E0,4.8969E0,8.730112E0,2.041504E0,4.525989E0,1.4192774E0,4.2833815E0,6.4649277E0,5.851639E0,4.764588E0,2.0894928E0,0E0,4.2056546E0,2.9683037E0,0E0,0E0,1.7198591E0,3.4832528E0,2.5757446E0,3.826622E0,6.423998E0,6.189276E0,0E0,1.3665218E0,1.0000572E0,0E0,3.9544659E0,3.6691256E0,3.2756152E0,0E0,0E0,1.1464643E0,2.526905E0,4.267467E0,2.5646858E0,2.8907695E0,2.6097372E0,9.7378707E-1,5.3344936E0,1.0790517E0,3.221489E0,1.8559513E0,0E0,7.017803E-2,2.502924E0,8.894768E-1,0E0,0E0,0E0,0E0,0E0,0E0,0E0,0E0,0E0,0E0,0E0,0E0,0E0,0E0,0E0,0E0,0E0,0E0,0E0,0E0,0E0,0E0,0E0,0E0,0E0,0E0,0E0,0E0,0E0,0E0,0E0,0E0,0E0,0E0],"parents":[2147483647,0,0,1,1,2,2,3,3,4,4,5,5,6,6,7,7,8,8,9,9,10,10,11,11,12,12,13,13,15,15,16,16,19,19,20,20,21,21,22,22,23,23,24,24,26,26,27,27,29,29,30,30,31,31,34,34,35,35,36,36,37,37,38,38,39,39,40,40,41,41,42,42,43,43,44,44,46,46,47,47,48,48],"right_children":[2,4,6,8,10,12,14,16,18,20,22,24,26,28,-1,30,32,-1,-1,34,36,38,40,42,44,-1,46,48,-1,50,52,54,-1,-1,56,58,60,62,64,66,68,70,72,74,76,-1,78,80,82,-1,-1,-1,-1,-1,-1,-1,-1,-1,-1,-1,-1,-1,-1,-1,-1,-1,-1,-1,-1,-1,-1,-1,-1,-1,-1,-1,-1,-1,-1,-1,-1,-1,-1],"split_conditions":[-1E-1,3.3557048E-1,1.5E0,1.98E2,1E0,1.5E0,4E0,1.45E1,3E0,2E0,4E0,1E1,3.5E0,4E0,4.3351617E-2,2.07E2,4.995E2,2.129178E-2,-6.5994404E-2,2E0,1E0,9E0,2.5E0,7.03E0,1.5E0,-4.8896875E-2,9.5E0,3.18E0,4.3164413E-2,2.6E1,3.5E0,1.9E1,7.406647E-2,3.3818644E-3,3E0,4E0,2.04E2,-2.4E-1,5E0,5.2E1,3E0,2.79E0,4.5E0,1.7E1,4E0,-1.4216107E-3,5E0,6E0,1.62E0,8.468615E-2,-8.352557E-3,-6.253837E-2,2.036087E-2,-6.6896416E-2,5.6153804E-2,1.10508956E-1,1.6017273E-2,4.800378E-2,-6.5579556E-2,-2.2796837E-3,5.7873882E-2,1.0044352E-1,-1.4153448E-2,7.314494E-2,-2.3958547E-2,5.6673523E-2,-4.6635836E-2,9.387472E-2,-1.0975142E-3,-4.114242E-2,-4.233006E-3,9.464291E-2,-3.4951349E-3,3.513107E-2,-3.3260714E-2,1.0227778E-1,3.4483501E-3,3.6440436E-2,1.1245348E-1,-4.969215E-2,6.1054613E-2,-8.876536E-3,-6.4588904E-2],"split_indices":[277,283,175,264,175,180,176,185,207,353,182,319,190,294,0,265,256,0,0,234,336,235,170,488,384,0,263,279,0,318,190,305,0,0,182,190,270,277,380,338,315,278,232,306,446,0,235,380,280,0,0,0,0,0,0,0,0,0,0,0,0,0,0,0,0,0,0,0,0,0,0,0,0,0,0,0,0,0,0,0,0,0,0],"split_type":[0,0,0,0,0,0,0,0,0,0,0,0,0,0,0,0,0,0,0,0,0,0,0,0,0,0,0,0,0,0,0,0,0,0,0,0,0,0,0,0,0,0,0,0,0,0,0,0,0,0,0,0,0,0,0,0,0,0,0,0,0,0,0,0,0,0,0,0,0,0,0,0,0,0,0,0,0,0,0,0,0,0,0],"sum_hessian":[6.0920593E2,2.4212488E2,3.6708102E2,8.890818E1,1.5321669E2,2.494453E2,1.17635735E2,7.8815445E1,1.0092736E1,6.998733E1,8.322937E1,2.3717346E2,1.2271842E1,1.1631453E2,1.3212099E0,6.403105E1,1.4784398E1,1.8176144E0,8.275122E0,1.4359452E1,5.5627872E1,6.698527E1,1.6244104E1,1.990719E2,3.8101555E1,2.4042892E0,9.867553E0,1.1499056E2,1.3239647E0,2.2965689E1,4.106536E1,1.3356993E1,1.4274048E0,2.3311503E0,1.2028302E1,7.7782664E0,4.7849606E1,5.5156364E1,1.1828899E1,1.0504688E1,5.739415E0,1.9381157E2,5.260339E0,2.8295303E1,9.8062525E0,1.3481102E0,8.519443E0,9.355164E0,1.056354E2,1.7077864E1,5.887825E0,5.2589703E0,3.5806393E1,1.1537233E1,1.8197594E0,1.0153252E1,1.8750502E0,1.9139807E0,5.8642855E0,1.9671167E1,2.8178438E1,5.337025E1,1.7861158E0,7.710242E0,4.1186576E0,2.4096594E0,8.095029E0,4.4198685E0,1.3195468E0,1.391231E2,5.468847E1,3.8975427E0,1.3627963E0,9.649941E0,1.8645363E1,7.2439566E0,2.5622962E0,1.3988864E0,7.120556E0,7.5988626E0,1.7563004E0,3.3023674E0,1.0233303E2],"tree_param":{"num_deleted":"0","num_feature":"576","num_nodes":"83","size_leaf_vector":"1"}},{"base_weights":[1.0768368E-1,-1.09623455E-1,5.3763974E-1,-2.986994E-1,1.0906323E-1,6.8114644E-1,1.2621672E-1,-4.9255788E-1,-1.6508366E-1,1.7840286E-1,-3.2731175E-1,7.1300316E-1,-2.0291443E-1,-1.3304792E-1,4.3309292E-1,2.706398E-1,-5.2525413E-1,-2.183988E-1,3.9787722E-1,3.0551735E-1,-1.2528087E-1,7.167937E-2,-4.109611E-1,7.3624885E-1,-1.0537928E-1,-5.7785828E-2,4.4124704E-2,9.893635E-2,-5.758947E-1,7.34724E-1,1.2957759E-1,8.331286E-2,-4.443714E-2,3.6738947E-2,-5.657552E-1,-1.4602412E-1,-5.143532E-1,-5.762859E-2,7.8688264E-1,1.7681731E-1,7.6195514E-1,2.2073092E-1,-3.1471133E-1,-5.030351E-1,6.988098E-2,7.498509E-1,-4.467431E-2,-5.6535013E-2,6.2461294E-2,-4.2978942E-1,4.0011874E-1,-6.504674E-2,-9.86008E-4,2.4445418E-1,8.7227456E-2,-1.3675946E-1,7.595777E-2,-5.2271076E-2,5.396701E-2,-6.040444E-2,2.8894462E-3,-8.211402E-3,-6.3887596E-2,1.692464E-2,-6.1658878E-2,-1.4718622E-2,1.03408456E-1,3.7331976E-2,-7.669153E-3,-3.2408323E-2,8.818449E-2,9.873131E-2,-2.3785497E-4,-3.9991923E-2,5.8129635E-2,-6.674319E-2,2.0837123E-3,7.8297146E-2,3.1574287E-2,-6.3129656E-2,3.4112636E-2,7.516035E-2,-1.2521918E-2,6.661066E-2,-4.1281357E-2,4.847445E-2,-6.274135E-2],"categories":[],"categories_nodes":[],"categories_segments":[],"categories_sizes":[],"default_left":[0,0,0,0,0,0,0,0,0,0,0,0,0,0,0,0,0,0,0,0,0,0,0,0,0,0,0,0,0,0,0,0,0,0,0,0,0,0,0,0,0,0,0,0,0,0,0,0,0,0,0,0,0,0,0,0,0,0,0,0,0,0,0,0,0,0,0,0,0,0,0,0,0,0,0,0,0,0,0,0,0,0,0,0,0,0,0],"id":12,"left_children":[1,3,5,7,9,11,13,15,17,19,21,23,25,27,29,31,33,35,37,39,41,-1,43,45,47,-1,-1,49,51,53,55,-1,-1,57,59,61,63,-1,65,67,69,71,73,75,-1,77,-1,-1,-1,79,81,-1,-1,83,-1,85,-1,-1,-1,-1,-1,-1,-1,-1,-1,-1,-1,-1,-1,-1,-1,-1,-1,-1,-1,-1,-1,-1,-1,-1,-1,-1,-1,-1,-1,-1,-1],"loss_changes":[6.1282898E1,1.8064962E1,1.2913067E1,5.9839287E0,6.199337E0,4.735382E0,4.685209E0,2.5136528E0,4.2925086E0,6.823541E0,2.755778E0,3.0748978E0,1.8123041E0,3.374477E0,2.3648162E0,2.2058525E0,2.10281E0,2.6803885E0,5.181471E0,7.161129E0,3.515427E0,0E0,3.082354E0,2.8022232E0,2.1080365E0,0E0,0E0,3.682425E0,4.683566E-1,6.811948E-1,2.554945E0,0E0,0E0,2.2763994E0,1.9615345E0,3.2473662E0,1.8432674E0,0E0,2.3085666E0,4.9196444E0,3.8032808E0,3.284019E0,2.8577623E0,2.1893187E0,0E0,1.9376297E0,0E0,0E0,0E0,1.5330452E0,2.7830203E0,0E0,0E0,1.4653492E0,0E0,3.6934664E0,0E0,0E0,0E0,0E0,0E0,0E0,0E0,0E0,0E0,0E0,0E0,0E0,0E0,0E0,0E0,0E0,0E0,0E0,0E0,0E0,0E0,0E0,0E0,0E0,0E0,0E0,0E0,0E0,0E0,0E0,0E0],"parents":[2147483647,0,0,1,1,2,2,3,3,4,4,5,5,6,6,7,7,8,8,9,9,10,10,11,11,12,12,13,13,14,14,15,15,16,16,17,17,18,18,19,19,20,20,22,22,23,23,24,24,27,27,28,28,29,29,30,30,33,33,34,34,35,35,36,36,38,38,39,39,40,40,41,41,42,42,43,43,45,45,49,49,50,50,53,53,55,55],"right_children":[2,4,6,8,10,12,14,16,18,20,22,24,26,28,30,32,34,36,38,40,42,-1,44,46,48,-1,-1,50,52,54,56,-1,-1,58,60,62,64,-1,66,68,70,72,74,76,-1,78,-1,-1,-1,80,82,-1,-1,84,-1,86,-1,-1,-1,-1,-1,-1,-1,-1,-1,-1,-1,-1,-1,-1,-1,-1,-1,-1,-1,-1,-1,-1,-1,-1,-1,-1,-1,-1,-1,-1,-1],"split_conditions":[8.7E-1,-6E-2,2.9E1,-8.4E-1,3.5E0,6.58E0,1.5E0,3.7E2,8E0,2.79E0,3E0,1.7E1,1.95E1,1E0,1.5E0,3E0,6E0,4.5E0,2E0,6.03E2,1.3E2,7.167937E-2,3.5E0,1.5E1,1.85E1,-5.7785828E-2,4.4124704E-2,3E0,1.85E1,5E-1,3E0,8.331286E-2,-4.443714E-2,1.6E1,6E0,6.59E0,5E-1,-5.762859E-2,1E0,1E0,1.67E2,4E0,3.5E0,6.2E1,6.988098E-2,2E1,-4.467431E-2,-5.6535013E-2,6.2461294E-2,3E0,3E0,-6.504674E-2,-9.86008E-4,3.08E2,8.7227456E-2,1E1,7.595777E-2,-5.2271076E-2,5.396701E-2,-6.040444E-2,2.8894462E-3,-8.211402E-3,-6.3887596E-2,1.692464E-2,-6.1658878E-2,-1.4718622E-2,1.03408456E-1,3.7331976E-2,-7.669153E-3,-3.2408323E-2,8.818449E-2,9.873131E-2,-2.3785497E-4,-3.9991923E-2,5.8129635E-2,-6.674319E-2,2.0837123E-3,7.8297146E-2,3.1574287E-2,-6.3129656E-2,3.4112636E-2,7.516035E-2,-1.2521918E-2,6.661066E-2,-4.1281357E-2,4.847445E-2,-6.274135E-2],"split_indices":[277,277,321,277,228,488,175,256,220,278,220,185,318,180,180,165,320,304,315,259,264,0,170,336,318,0,0,336,164,393,175,0,0,167,310,488,383,0,186,405,262,207,383,338,0,305,0,0,0,170,353,0,0,258,0,319,0,0,0,0,0,0,0,0,0,0,0,0,0,0,0,0,0,0,0,0,0,0,0,0,0,0,0,0,0,0,0],"split_type":[0,0,0,0,0,0,0,0,0,0,0,0,0,0,0,0,0,0,0,0,0,0,0,0,0,0,0,0,0,0,0,0,0,0,0,0,0,0,0,0,0,0,0,0,0,0,0,0,0,0,0,0,0,0,0,0,0,0,0,0,0,0,0,0,0,0,0,0,0,0,0,0,0,0,0,0,0,0,0,0,0,0,0,0,0,0,0],"sum_hessian":[6.5427466E2,4.3510846E2,2.191662E2,2.3315625E2,2.019522E2,1.6200304E2,5.7163174E1,9.403612E1,1.3912013E2,1.747722E2,2.717999E1,1.5655513E2,5.447904E0,3.1292294E1,2.587088E1,3.5641448E0,9.047198E1,1.2764371E2,1.1476427E1,1.2319837E2,5.1573833E1,1.4546102E0,2.572538E1,1.5232867E2,4.226449E0,3.5086002E0,1.9393039E0,2.1044678E1,1.0247616E1,1.2263148E1,1.3607732E1,1.9023768E0,1.6617681E0,6.087983E0,8.4383995E1,1.0376237E2,2.3881344E1,3.1376252E0,8.338802E0,9.718334E1,2.6015036E1,1.8187496E1,3.3386337E1,2.425938E1,1.465999E0,1.5095909E2,1.3695898E0,2.7311075E0,1.4953415E0,7.4823694E0,1.3562308E1,8.922896E0,1.3247194E0,3.2952216E0,8.967927E0,1.0114624E1,3.493108E0,2.8634336E0,3.2245498E0,7.92644E1,5.1195927E0,9.288429E1,1.0878074E1,3.0216403E0,2.0859703E1,1.8297105E0,6.5090914E0,5.448091E1,4.270243E1,2.4170117E0,2.3598022E1,3.3279042E0,1.4859592E1,3.0992682E1,2.3936539E0,1.8256315E1,6.003065E0,1.3951137E2,1.144772E1,6.0754395E0,1.4069302E0,7.867645E0,5.6946635E0,1.9992248E0,1.2959968E0,4.467612E0,5.6470118E0],"tree_param":{"num_deleted":"0","num_feature":"576","num_nodes":"87","size_leaf_vector":"1"}},{"base_weights":[-1.0208582E-1,-1.6619971E-2,-3.103577E-1,5.132741E-2,-2.0444174E-1,-4.8558587E-1,-1.2513515E-1,-3.275305E-1,1.17050596E-1,-2.574322E-1,5.1529396E-1,-5.052773E-1,4.419033E-2,-1.8679291E-1,8.0233976E-2,-4.3873718E-1,2.0588845E-1,1.6525683E-1,-3.265394E-1,-3.5931695E-1,6.952572E-2,9.918838E-2,-2.4718593E-1,-5.252736E-1,4.225736E-2,9.3474604E-2,-3.2943925E-1,-5.084239E-1,8.0472104E-2,7.8667116E-1,-3.5361633E-1,1.9407715E-1,-5.890119E-2,3.4824476E-1,-4.4583485E-1,-2.128451E-1,-5.526566E-1,5.9789884E-1,-2.4017456E-1,7.7256197E-3,-4.261316E-2,-3.7193397E-1,-6.106103E-1,3.355866E-1,-5.857938E-2,3.859852E-2,-5.096212E-1,2.6751934E-2,-5.5522777E-2,1.06323995E-1,4.5620943E-3,-5.0804306E-2,7.5003835E-3,1.4355105E-2,8.86166E-2,-4.0916737E-2,7.915869E-2,1.3982474E-2,-6.0446393E-2,-2.6399283E-2,8.571433E-2,-6.3641466E-2,2.2512201E-2,-4.7859605E-2,1.0152867E-1,4.613109E-2,-6.3147604E-2,-4.686912E-2,2.6941268E-2,9.6052885E-3,-6.286532E-2,-2.622051E-2,6.982477E-2,6.8294406E-2,-3.836464E-2,-5.5781316E-2,1.847789E-2],"categories":[],"categories_nodes":[],"categories_segments":[],"categories_sizes":[],"default_left":[0,0,0,0,0,0,0,0,0,0,0,0,0,0,0,0,0,0,0,0,0,0,0,0,0,0,0,0,0,0,0,0,0,0,0,0,0,0,0,0,0,0,0,0,0,0,0,0,0,0,0,0,0,0,0,0,0,0,0,0,0,0,0,0,0,0,0,0,0,0,0,0,0,0,0,0,0],"id":13,"left_children":[1,3,5,7,9,11,13,15,17,19,21,23,-1,25,-1,27,29,31,33,35,37,-1,39,41,-1,43,45,47,-1,49,51,53,-1,55,57,59,61,63,65,-1,-1,67,69,71,-1,73,75,-1,-1,-1,-1,-1,-1,-1,-1,-1,-1,-1,-1,-1,-1,-1,-1,-1,-1,-1,-1,-1,-1,-1,-1,-1,-1,-1,-1,-1,-1],"loss_changes":[1.0227649E1,5.2258663E0,5.3661785E0,7.5306296E0,4.280894E0,1.7861881E0,4.8753304E0,2.744628E0,5.552864E0,3.421947E0,3.076674E0,1.7853413E0,0E0,3.1608932E0,0E0,3.645245E0,3.0077107E0,5.1708612E0,2.2113826E0,2.088665E0,4.2451644E0,0E0,2.53397E-1,8.580837E-1,0E0,4.6677074E0,3.4750476E0,1.4551048E0,0E0,8.597677E-1,3.6695063E-1,7.733778E0,0E0,1.8009429E0,2.1417203E0,2.7412086E0,2.290166E0,4.776452E0,4.8248014E0,0E0,0E0,2.1250286E0,7.19841E-1,4.6661425E0,0E0,5.174343E0,1.2760429E0,0E0,0E0,0E0,0E0,0E0,0E0,0E0,0E0,0E0,0E0,0E0,0E0,0E0,0E0,0E0,0E0,0E0,0E0,0E0,0E0,0E0,0E0,0E0,0E0,0E0,0E0,0E0,0E0,0E0,0E0],"parents":[2147483647,0,0,1,1,2,2,3,3,4,4,5,5,6,6,7,7,8,8,9,9,10,10,11,11,13,13,15,15,16,16,17,17,18,18,19,19,20,20,22,22,23,23,25,25,26,26,27,27,29,29,30,30,31,31,33,33,34,34,35,35,36,36,37,37,38,38,41,41,42,42,43,43,45,45,46,46],"right_children":[2,4,6,8,10,12,14,16,18,20,22,24,-1,26,-1,28,30,32,34,36,38,-1,40,42,-1,44,46,48,-1,50,52,54,-1,56,58,60,62,64,66,-1,-1,68,70,72,-1,74,76,-1,-1,-1,-1,-1,-1,-1,-1,-1,-1,-1,-1,-1,-1,-1,-1,-1,-1,-1,-1,-1,-1,-1,-1,-1,-1,-1,-1,-1,-1],"split_conditions":[1.5E0,5.5E0,1.5E0,2.1786493E-1,1.9E1,5E1,4.3E1,2.5E0,1E0,5E0,1E0,1.3E1,4.419033E-2,3.84E0,8.0233976E-2,1.5E1,5E-1,7.13E0,5E-1,5E-1,6E0,9.918838E-2,3E0,9E0,4.225736E-2,9E0,6.6E-1,6E1,8.0472104E-2,3E0,3.5E0,6.69E0,-5.890119E-2,1.3E1,1.5E0,2.3E1,2E0,8E0,5E-1,7.7256197E-3,-4.261316E-2,4E0,3.07E0,3.34E0,-5.857938E-2,1.05E1,1.9E1,2.6751934E-2,-5.5522777E-2,1.06323995E-1,4.5620943E-3,-5.0804306E-2,7.5003835E-3,1.4355105E-2,8.86166E-2,-4.0916737E-2,7.915869E-2,1.3982474E-2,-6.0446393E-2,-2.6399283E-2,8.571433E-2,-6.3641466E-2,2.2512201E-2,-4.7859605E-2,1.0152867E-1,4.613109E-2,-6.3147604E-2,-4.686912E-2,2.6941268E-2,9.6052885E-3,-6.286532E-2,-2.622051E-2,6.982477E-2,6.8294406E-2,-3.836464E-2,-5.5781316E-2,1.847789E-2],"split_indices":[175,169,180,281,230,374,321,426,88,209,432,336,0,279,0,319,222,488,175,223,402,0,170,166,0,229,277,269,0,383,383,488,0,90,336,305,248,229,180,0,0,171,279,279,0,185,188,0,0,0,0,0,0,0,0,0,0,0,0,0,0,0,0,0,0,0,0,0,0,0,0,0,0,0,0,0,0],"split_type":[0,0,0,0,0,0,0,0,0,0,0,0,0,0,0,0,0,0,0,0,0,0,0,0,0,0,0,0,0,0,0,0,0,0,0,0,0,0,0,0,0,0,0,0,0,0,0,0,0,0,0,0,0,0,0,0,0,0,0,0,0,0,0,0,0,0,0,0,0,0,0,0,0,0,0,0,0],"sum_hessian":[5.738725E2,4.076643E2,1.6620818E2,2.998983E2,1.07766045E2,8.457504E1,8.1633125E1,4.374559E1,2.5615268E2,1.0097416E2,6.7918844E0,8.326253E1,1.3125147E0,7.7293335E1,4.3397956E0,3.634576E1,7.399831E0,2.3161037E2,2.4542322E1,7.690919E1,2.4064972E1,3.9943447E0,2.79754E0,8.19307E1,1.3318293E0,2.618685E1,5.1106483E1,3.4976692E1,1.3690666E0,3.431656E0,3.968175E0,2.2380168E2,7.8086824E0,3.3987E0,2.1143623E1,4.4953686E1,3.19555E1,8.549048E0,1.5515924E1,1.1964872E0,1.6010528E0,3.1209486E1,5.0721214E1,1.9678715E1,6.508136E0,1.7055298E1,3.4051186E1,1.7214619E0,3.325523E1,2.1823883E0,1.2492677E0,2.7809377E0,1.1872373E0,2.096999E2,1.410177E1,1.2833282E0,2.1153717E0,4.5315723E0,1.6612051E1,4.362175E1,1.3319371E0,2.9012888E1,2.9426117E0,2.3476145E0,6.201434E0,5.491825E0,1.0024098E1,2.7352186E1,3.8572998E0,1.1551508E0,4.9566063E1,7.535155E0,1.214356E1,6.5074778E0,1.0547819E1,3.20253E1,2.0258849E0],"tree_param":{"num_deleted":"0","num_feature":"576","num_nodes":"77","size_leaf_vector":"1"}},{"base_weights":[-1.9688632E-2,3.6271587E-1,-2.8008494E-1,1.4435603E-1,5.8612645E-1,-1.5370932E-1,-5.5191267E-1,7.072524E-2,9.4337136E-2,3.1694183E-1,7.3621756E-1,-1.9563584E-1,5.9448934E-1,-5.671541E-1,4.1530754E-2,5.86361E-1,-3.1310655E-2,5.366819E-1,-1.1497264E-1,-4.9725644E-2,7.723534E-1,-3.3317375E-1,-2.1036068E-2,-4.7132608E-2,8.598369E-1,-5.827187E-1,4.1231617E-2,-4.97696E-2,7.5263E-1,-4.798652E-1,7.492761E-2,7.105366E-1,-2.0330083E-1,-3.75974E-1,5.675048E-1,4.2218837E-1,8.629855E-1,-3.815722E-1,6.829481E-1,-2.9257646E-1,2.1927375E-1,9.8513937E-1,-1.7991563E-3,-2.352323E-1,-6.1155635E-1,9.9462576E-2,3.653108E-2,-6.1154068E-2,2.085143E-2,-1.2164963E-2,3.1428542E-2,8.182224E-2,-4.5804996E-2,4.635444E-2,-5.8670815E-2,1.971273E-2,-6.5301806E-2,8.38694E-2,-6.0799145E-3,-3.791711E-3,9.074893E-2,8.983237E-2,-1.5154949E-2,-4.3296944E-2,8.169624E-3,8.902559E-2,-4.167954E-3,-4.1946676E-2,2.9785067E-2,7.47262E-4,7.6642275E-2,3.3696588E-2,1.0541487E-1,-4.7829922E-2,5.704047E-2,-6.2874116E-2,-6.500978E-3],"categories":[],"categories_nodes":[],"categories_segments":[],"categories_sizes":[],"default_left":[0,0,0,0,0,0,0,0,0,0,0,0,0,0,0,0,0,0,0,0,0,0,0,0,0,0,0,0,0,0,0,0,0,0,0,0,0,0,0,0,0,0,0,0,0,0,0,0,0,0,0,0,0,0,0,0,0,0,0,0,0,0,0,0,0,0,0,0,0,0,0,0,0,0,0,0,0],"id":14,"left_children":[1,3,5,7,9,11,13,15,-1,17,19,21,23,25,-1,27,29,31,33,-1,35,37,39,-1,41,43,-1,-1,45,47,49,51,53,55,57,59,61,63,65,67,69,71,-1,73,75,-1,-1,-1,-1,-1,-1,-1,-1,-1,-1,-1,-1,-1,-1,-1,-1,-1,-1,-1,-1,-1,-1,-1,-1,-1,-1,-1,-1,-1,-1,-1,-1],"loss_changes":[6.016563E1,1.1857067E1,1.2261629E1,7.2943397E0,4.6418953E0,7.856052E0,1.9113541E0,6.1027584E0,0E0,4.3280625E0,3.803463E0,5.621644E0,4.177924E0,1.9528275E0,0E0,3.8270621E0,4.681674E0,4.0001497E0,3.060126E0,0E0,2.0134544E0,6.7051E0,6.8731947E0,0E0,1.2314892E0,9.6837234E-1,0E0,0E0,1.2305498E0,1.8319097E0,3.7876327E0,3.4567652E0,1.9285583E0,2.0597374E0,8.7219894E-1,3.911338E0,2.235653E0,3.029005E0,9.859457E-1,3.8273487E0,6.475643E0,7.752228E-2,0E0,2.2566113E0,9.158516E-1,0E0,0E0,0E0,0E0,0E0,0E0,0E0,0E0,0E0,0E0,0E0,0E0,0E0,0E0,0E0,0E0,0E0,0E0,0E0,0E0,0E0,0E0,0E0,0E0,0E0,0E0,0E0,0E0,0E0,0E0,0E0,0E0],"parents":[2147483647,0,0,1,1,2,2,3,3,4,4,5,5,6,6,7,7,9,9,10,10,11,11,12,12,13,13,15,15,16,16,17,17,18,18,20,20,21,21,22,22,24,24,25,25,28,28,29,29,30,30,31,31,32,32,33,33,34,34,35,35,36,36,37,37,38,38,39,39,40,40,41,41,43,43,44,44],"right_children":[2,4,6,8,10,12,14,16,-1,18,20,22,24,26,-1,28,30,32,34,-1,36,38,40,-1,42,44,-1,-1,46,48,50,52,54,56,58,60,62,64,66,68,70,72,-1,74,76,-1,-1,-1,-1,-1,-1,-1,-1,-1,-1,-1,-1,-1,-1,-1,-1,-1,-1,-1,-1,-1,-1,-1,-1,-1,-1,-1,-1,-1,-1,-1,-1],"split_conditions":[-1E-1,3.11E0,1.5E0,7.01E0,1.855E2,1.5E0,4E0,-1.2E0,9.4337136E-2,1E0,9E0,5E-1,3.5E0,4E0,4.1530754E-2,1.36E2,4E0,1.45E1,5E0,-4.9725644E-2,5E-1,7.03E0,2.5E0,-4.7132608E-2,1.5E1,3.18E0,4.1231617E-2,-4.97696E-2,2.25E1,2.57E0,5E0,1.3E1,1.5E0,4.2E1,5.48E2,7.05E0,1.7E1,3E0,7.64E0,9.5E0,2.78E0,4E-2,-1.7991563E-3,6E0,1.2E1,9.9462576E-2,3.653108E-2,-6.1154068E-2,2.085143E-2,-1.2164963E-2,3.1428542E-2,8.182224E-2,-4.5804996E-2,4.635444E-2,-5.8670815E-2,1.971273E-2,-6.5301806E-2,8.38694E-2,-6.0799145E-3,-3.791711E-3,9.074893E-2,8.983237E-2,-1.5154949E-2,-4.3296944E-2,8.169624E-3,8.902559E-2,-4.167954E-3,-4.1946676E-2,2.9785067E-2,7.47262E-4,7.6642275E-2,3.3696588E-2,1.0541487E-1,-4.7829922E-2,5.704047E-2,-6.2874116E-2,-6.500978E-3],"split_indices":[277,278,175,488,262,180,294,277,0,351,303,394,190,176,0,262,399,185,304,0,379,488,404,0,230,279,0,0,263,278,190,227,208,337,259,488,166,431,503,319,278,277,0,380,235,0,0,0,0,0,0,0,0,0,0,0,0,0,0,0,0,0,0,0,0,0,0,0,0,0,0,0,0,0,0,0,0],"split_type":[0,0,0,0,0,0,0,0,0,0,0,0,0,0,0,0,0,0,0,0,0,0,0,0,0,0,0,0,0,0,0,0,0,0,0,0,0,0,0,0,0,0,0,0,0,0,0,0,0,0,0,0,0,0,0,0,0,0,0,0,0,0,0,0,0,0,0,0,0,0,0,0,0,0,0,0,0],"sum_hessian":[6.0219354E2,2.4378726E2,3.5840625E2,1.24119736E2,1.19667534E2,2.4572946E2,1.126768E2,1.14643616E2,9.476113E0,4.3952137E1,7.57154E1,2.3338962E2,1.2339843E1,1.1133599E2,1.3408107E0,1.815437E1,9.648925E1,2.897056E1,1.4981575E1,1.7918283E0,7.392358E1,1.3004262E2,1.03347E2,2.3050282E0,1.0034815E1,1.0999318E2,1.342812E0,2.1491055E0,1.6005264E1,1.7803446E1,7.868581E1,2.3491224E1,5.479336E0,1.1161979E1,3.8195963E0,1.6362782E1,5.756079E1,1.2472632E2,5.3163E0,4.8418526E1,5.4928474E1,8.674376E0,1.3604386E0,9.130474E0,1.008627E2,8.885599E0,7.1196656E0,1.5038463E1,2.7649827E0,4.3473835E1,3.5211967E1,2.1783669E1,1.7075558E0,1.9239948E0,3.5553412E0,3.7314522E0,7.430527E0,2.4341235E0,1.3854728E0,8.872646E0,7.490135E0,5.5734013E1,1.8267779E0,1.1232936E2,1.2396956E1,3.9559712E0,1.3603284E0,4.0091835E1,8.326692E0,4.0330296E1,1.4598182E1,1.400742E0,7.273634E0,7.3263626E0,1.8041112E0,9.76422E1,3.2205067E0],"tree_param":{"num_deleted":"0","num_feature":"576","num_nodes":"77","size_leaf_vector":"1"}},{"base_weights":[9.950777E-2,-6.886854E-2,5.8579654E-1,-2.8192836E-1,1.23474635E-1,6.573868E-1,-8.648122E-2,-5.3543544E-1,-1.855763E-1,1.6283701E-1,-6.627526E-2,4.2240044E-1,7.652643E-1,7.270444E-2,-3.111839E-1,-1.0957235E-1,-5.956042E-1,-1.3922974E-1,-6.481662E-2,5.6658053E-1,6.274871E-2,4.9934548E-1,-4.8834187E-1,8.054692E-1,8.039016E-2,-5.742402E-1,4.1856775E-1,-5.637556E-2,5.1668894E-1,-6.258637E-1,8.734623E-3,-8.955097E-2,-5.71816E-1,6.9366354E-1,-6.5834984E-2,-7.390966E-2,3.1334162E-1,2.737206E-1,8.030447E-1,-6.108725E-2,-1.375507E-2,8.257584E-1,-1.5877262E-2,-6.049454E-2,7.12619E-2,-6.436819E-2,-3.7941362E-3,-4.6369685E-3,6.3592546E-2,7.841659E-2,-3.9383783E-3,-6.431429E-2,4.264636E-3,-3.8325038E-2,3.7128758E-2,7.514688E-2,-1.565528E-2,-6.288337E-2,5.6437384E-3,-1.9803824E-2,7.885832E-2,-4.9691897E-2,6.1386682E-2,4.284129E-2,-1.8113872E-2,5.9007097E-2,6.7027113E-3,4.2166952E-2,-6.5238796E-2,8.8353574E-2,3.922405E-3,8.5649036E-2,4.194656E-2],"categories":[],"categories_nodes":[],"categories_segments":[],"categories_sizes":[],"default_left":[0,0,0,0,0,0,0,0,0,0,0,0,0,0,0,0,0,0,0,0,0,0,0,0,0,0,0,0,0,0,0,0,0,0,0,0,0,0,0,0,0,0,0,0,0,0,0,0,0,0,0,0,0,0,0,0,0,0,0,0,0,0,0,0,0,0,0,0,0,0,0,0,0],"id":15,"left_children":[1,3,5,7,9,11,13,15,17,19,-1,21,23,-1,25,27,29,31,-1,33,35,37,39,41,43,45,47,-1,49,51,53,55,57,59,61,63,65,67,69,-1,-1,71,-1,-1,-1,-1,-1,-1,-1,-1,-1,-1,-1,-1,-1,-1,-1,-1,-1,-1,-1,-1,-1,-1,-1,-1,-1,-1,-1,-1,-1,-1,-1],"loss_changes":[5.316636E1,1.9822311E1,8.093407E0,5.503763E0,7.982824E0,3.505249E0,3.3254757E0,1.5399284E0,3.506175E0,9.789273E0,0E0,3.7302313E0,2.751461E0,0E0,2.9250019E0,2.84571E0,1.0051117E0,3.252835E0,0E0,3.9173746E0,6.7337437E0,2.95751E0,1.0429633E-1,2.018898E0,3.3696597E0,3.7410283E-1,4.624083E-1,0E0,6.6999555E-1,6.289215E-1,6.528861E-1,7.9555416E0,5.9616184E-1,3.558693E0,2.9345076E0,6.9512753E0,4.686964E0,4.1282015E0,1.148716E0,0E0,0E0,8.2276154E-1,0E0,0E0,0E0,0E0,0E0,0E0,0E0,0E0,0E0,0E0,0E0,0E0,0E0,0E0,0E0,0E0,0E0,0E0,0E0,0E0,0E0,0E0,0E0,0E0,0E0,0E0,0E0,0E0,0E0,0E0,0E0],"parents":[2147483647,0,0,1,1,2,2,3,3,4,4,5,5,6,6,7,7,8,8,9,9,11,11,12,12,14,14,15,15,16,16,17,17,19,19,20,20,21,21,22,22,23,23,24,24,25,25,26,26,28,28,29,29,30,30,31,31,32,32,33,33,34,34,35,35,36,36,37,37,38,38,41,41],"right_children":[2,4,6,8,10,12,14,16,18,20,-1,22,24,-1,26,28,30,32,-1,34,36,38,40,42,44,46,48,-1,50,52,54,56,58,60,62,64,66,68,70,-1,-1,72,-1,-1,-1,-1,-1,-1,-1,-1,-1,-1,-1,-1,-1,-1,-1,-1,-1,-1,-1,-1,-1,-1,-1,-1,-1,-1,-1,-1,-1,-1,-1],"split_conditions":[1.13E0,-6E-2,1.3E1,-1.08E0,6.78E0,3.84E0,3.6E1,3E0,3.17E2,1E0,-6.627526E-2,3E0,6E0,7.270444E-2,5.95E1,2E0,1E0,6.72E0,-6.481662E-2,1.6E1,1E0,1.72E0,2.6E1,6.51E0,2.3E1,2.2E1,3E0,-5.637556E-2,4E0,3.75E-1,2E0,2E1,8E1,8E0,4.6E1,1.62E0,1E0,5E0,1.8E1,-6.108725E-2,-1.375507E-2,1E1,-1.5877262E-2,-6.049454E-2,7.12619E-2,-6.436819E-2,-3.7941362E-3,-4.6369685E-3,6.3592546E-2,7.841659E-2,-3.9383783E-3,-6.431429E-2,4.264636E-3,-3.8325038E-2,3.7128758E-2,7.514688E-2,-1.565528E-2,-6.288337E-2,5.6437384E-3,-1.9803824E-2,7.885832E-2,-4.9691897E-2,6.1386682E-2,4.284129E-2,-1.8113872E-2,5.9007097E-2,6.7027113E-3,4.2166952E-2,-6.5238796E-2,8.8353574E-2,3.922405E-3,8.5649036E-2,4.194656E-2],"split_indices":[277,277,319,277,488,279,337,159,265,446,0,314,171,0,263,396,88,488,0,276,175,277,90,488,90,319,171,0,174,536,228,374,486,90,285,278,180,407,373,0,0,319,0,0,0,0,0,0,0,0,0,0,0,0,0,0,0,0,0,0,0,0,0,0,0,0,0,0,0,0,0,0,0],"split_type":[0,0,0,0,0,0,0,0,0,0,0,0,0,0,0,0,0,0,0,0,0,0,0,0,0,0,0,0,0,0,0,0,0,0,0,0,0,0,0,0,0,0,0,0,0,0,0,0,0,0,0,0,0,0,0,0,0,0,0,0,0,0,0,0,0,0,0,0,0,0,0,0,0],"sum_hessian":[6.478316E2,4.818504E2,1.6598116E2,2.2839262E2,2.5345778E2,1.5002707E2,1.595409E1,6.1644855E1,1.6674777E2,2.4212854E2,1.1329249E1,4.875063E1,1.0127644E2,2.969082E0,1.2985008E1,7.980619E0,5.3664238E1,1.527453E2,1.4002466E1,4.7173965E1,1.9495457E2,4.5369274E1,3.3813555E0,9.5494446E1,5.7819986E0,9.701113E0,3.2838948E0,4.683682E0,3.296937E0,5.107145E1,2.5927868E0,1.3809348E2,1.4651825E1,3.9199944E1,7.9740233E0,1.2661266E2,6.834191E1,2.7121437E1,1.8247835E1,1.9565299E0,1.4248257E0,9.366716E1,1.8272862E0,2.7951798E0,2.9868186E0,8.411709E0,1.2894045E0,1.2967522E0,1.9871426E0,1.9491762E0,1.3477607E0,4.982164E1,1.2498124E0,1.2183949E0,1.3743918E0,9.435952E0,1.2865753E2,1.3431881E1,1.2199442E0,3.6667821E0,3.553316E1,5.0439434E0,2.9300797E0,2.17461E1,1.0486656E2,3.15267E1,3.681521E1,2.3855179E1,3.266258E0,1.6366417E1,1.8814176E0,8.605026E1,7.616896E0],"tree_param":{"num_deleted":"0","num_feature":"576","num_nodes":"73","size_leaf_vector":"1"}},{"base_weights":[-9.4244696E-2,-1.3911131E-2,-2.9451904E-1,5.046651E-2,-1.9410658E-1,-4.6861887E-1,-1.1408932E-1,1.07286185E-1,-3.3658993E-1,-2.4564575E-1,4.8715827E-1,-4.886935E-1,4.3384593E-2,-1.7297794E-1,7.41992E-1,1.525169E-1,-3.193249E-1,3.7965608E-1,-4.3708596E-1,-3.449235E-1,6.786017E-2,9.211584E-2,-2.3634444E-1,-5.0889224E-1,4.037816E-2,-3.2908595E-1,7.9721674E-2,8.4155224E-2,2.7821362E-2,1.7949209E-1,-5.7432592E-2,3.2775307E-1,-4.3552223E-1,9.834545E-2,-1.947768E-1,-5.273639E-1,2.151284E-1,-2.0055906E-1,-5.3830916E-1,5.6150496E-1,-2.2970319E-1,8.580764E-3,-4.1775294E-2,-3.5430273E-1,-5.96097E-1,-1.0746985E-1,-6.123487E-2,-4.9967945E-1,3.5837775E-1,1.3366848E-2,8.0867216E-2,-4.0060483E-2,7.419168E-2,-5.162228E-2,5.2651312E-2,1.1780012E-2,-3.8543787E-2,-5.8776528E-2,5.023256E-2,-4.6494406E-2,8.531932E-2,-2.5073716E-2,8.105533E-2,-6.2286902E-2,2.1786777E-2,-4.612761E-2,9.331501E-2,4.318998E-2,-6.165817E-2,-4.5079734E-2,2.5821421E-2,1.0710328E-2,-6.1469775E-2,-2.0667985E-2,7.144447E-2,1.0400359E-2,-5.873173E-2,-5.090651E-2,5.5069547E-2],"categories":[],"categories_nodes":[],"categories_segments":[],"categories_sizes":[],"default_left":[0,0,0,0,0,0,0,0,0,0,0,0,0,0,0,0,0,0,0,0,0,0,0,0,0,0,0,0,0,0,0,0,0,0,0,0,0,0,0,0,0,0,0,0,0,0,0,0,0,0,0,0,0,0,0,0,0,0,0,0,0,0,0,0,0,0,0,0,0,0,0,0,0,0,0,0,0,0,0],"id":16,"left_children":[1,3,5,7,9,11,13,15,17,19,21,23,-1,25,27,29,31,33,35,37,39,-1,41,43,-1,45,47,-1,-1,49,-1,51,53,-1,55,57,59,61,63,65,67,-1,-1,69,71,73,-1,75,77,-1,-1,-1,-1,-1,-1,-1,-1,-1,-1,-1,-1,-1,-1,-1,-1,-1,-1,-1,-1,-1,-1,-1,-1,-1,-1,-1,-1,-1,-1],"loss_changes":[9.124422E0,4.719638E0,5.0474634E0,6.632199E0,3.8792982E0,1.703371E0,4.215066E0,5.1098504E0,2.9468527E0,3.1423554E0,2.6876416E0,1.6656342E0,0E0,3.0502577E0,1.5504837E-2,4.7660446E0,2.0575323E0,2.025981E0,2.1357403E0,2.0214272E0,3.7919717E0,0E0,2.5471658E-1,8.625374E-1,0E0,2.9210525E0,5.035212E0,0E0,0E0,6.525294E0,0E0,1.6388402E0,1.9812789E0,0E0,2.5667748E-1,2.1896563E0,2.516986E0,2.4998095E0,2.1823368E0,4.105648E0,4.4302864E0,0E0,0E0,1.959938E0,7.1274376E-1,2.4233117E0,0E0,5.9994817E-1,3.7656677E0,0E0,0E0,0E0,0E0,0E0,0E0,0E0,0E0,0E0,0E0,0E0,0E0,0E0,0E0,0E0,0E0,0E0,0E0,0E0,0E0,0E0,0E0,0E0,0E0,0E0,0E0,0E0,0E0,0E0,0E0],"parents":[2147483647,0,0,1,1,2,2,3,3,4,4,5,5,6,6,7,7,8,8,9,9,10,10,11,11,13,13,14,14,15,15,16,16,17,17,18,18,19,19,20,20,22,22,23,23,25,25,26,26,29,29,31,31,32,32,34,34,35,35,36,36,37,37,38,38,39,39,40,40,43,43,44,44,45,45,47,47,48,48],"right_children":[2,4,6,8,10,12,14,16,18,20,22,24,-1,26,28,30,32,34,36,38,40,-1,42,44,-1,46,48,-1,-1,50,-1,52,54,-1,56,58,60,62,64,66,68,-1,-1,70,72,74,-1,76,78,-1,-1,-1,-1,-1,-1,-1,-1,-1,-1,-1,-1,-1,-1,-1,-1,-1,-1,-1,-1,-1,-1,-1,-1,-1,-1,-1,-1,-1,-1],"split_conditions":[1.5E0,5.5E0,1.5E0,4.78E0,1.9E1,5E1,4.3E1,1E0,1.4E1,5E0,1E0,1.3E1,4.3384593E-2,5.15E1,1E0,7.13E0,5E-1,3E0,1.9E1,5E-1,6E0,9.211584E-2,1E1,9E0,4.037816E-2,1.7E0,1E0,8.4155224E-2,2.7821362E-2,6.69E0,-5.7432592E-2,1.3E1,4E0,9.834545E-2,9E0,2.26E2,4.03E0,2.3E1,2E0,8E0,5E-1,8.580764E-3,-4.1775294E-2,4E0,1E0,1.7E1,-6.123487E-2,5.6E1,2E0,1.3366848E-2,8.0867216E-2,-4.0060483E-2,7.419168E-2,-5.162228E-2,5.2651312E-2,1.1780012E-2,-3.8543787E-2,-5.8776528E-2,5.023256E-2,-4.6494406E-2,8.531932E-2,-2.5073716E-2,8.105533E-2,-6.2286902E-2,2.1786777E-2,-4.612761E-2,9.331501E-2,4.318998E-2,-6.165817E-2,-4.5079734E-2,2.5821421E-2,1.0710328E-2,-6.1469775E-2,-2.0667985E-2,7.144447E-2,1.0400359E-2,-5.873173E-2,-5.090651E-2,5.5069547E-2],"split_indices":[175,169,180,278,230,374,321,88,306,209,432,336,0,335,389,488,175,217,188,223,402,0,185,166,0,277,208,0,0,488,0,90,174,0,166,264,279,305,248,229,180,0,0,171,268,305,0,338,429,0,0,0,0,0,0,0,0,0,0,0,0,0,0,0,0,0,0,0,0,0,0,0,0,0,0,0,0,0,0],"split_type":[0,0,0,0,0,0,0,0,0,0,0,0,0,0,0,0,0,0,0,0,0,0,0,0,0,0,0,0,0,0,0,0,0,0,0,0,0,0,0,0,0,0,0,0,0,0,0,0,0,0,0,0,0,0,0,0,0,0,0,0,0,0,0,0,0,0,0,0,0,0,0,0,0,0,0,0,0,0,0],"sum_hessian":[5.6638513E2,4.0500137E2,1.6138373E2,2.989255E2,1.0607588E2,8.131969E1,8.006403E1,2.6129095E2,3.7634552E1,9.920986E1,6.866016E0,7.999867E1,1.3210186E0,7.56576E1,4.4064374E0,2.3682452E2,2.446643E1,4.2889457E0,3.3345604E1,7.527299E1,2.3936872E1,4.120876E0,2.7451403E0,7.8648476E1,1.3501952E0,4.658E1,2.9077599E1,2.9570787E0,1.4493587E0,2.2907591E2,7.748598E0,3.4474816E0,2.1018948E1,1.7438766E0,2.545069E0,2.945934E1,3.8862665E0,4.4265453E1,3.1007536E1,8.668761E0,1.526811E1,1.1787908E0,1.5663495E0,3.019107E1,4.8457405E1,2.6907663E1,1.9672337E1,9.185432E0,1.9892166E1,2.146549E2,1.4421011E1,1.2615786E0,2.185903E0,1.9819767E1,1.1991806E0,1.109031E0,1.4360381E0,2.8232414E1,1.226925E0,2.0125449E0,1.8737216E0,4.2889034E1,1.3764195E0,2.8047413E1,2.9601243E0,2.2461371E0,6.422624E0,5.590831E0,9.677279E0,2.6310236E1,3.8808336E0,1.1261322E0,4.7331272E1,2.4677483E1,2.2301815E0,1.1407523E0,8.044681E0,3.3110018E0,1.6581165E1],"tree_param":{"num_deleted":"0","num_feature":"576","num_nodes":"79","size_leaf_vector":"1"}},{"base_weights":[-1.8641656E-2,3.3319938E-1,-2.6481915E-1,1.4754198E-3,4.6148E-1,-1.4292532E-1,-5.347385E-1,-5.8815956E-2,7.9059795E-2,6.571966E-1,2.9800418E-1,-1.831274E-1,5.5962193E-1,-5.5021805E-1,3.9681952E-2,-2.7926183E-1,2.1780929E-1,7.121814E-1,-1.5379114E-1,1.9968146E-1,6.5672374E-1,-3.1685174E-1,-1.6229527E-2,-4.600434E-2,8.0525404E-1,-5.659785E-1,3.892663E-2,-4.3242043E-1,2.1391095E-1,-6.0013134E-2,3.818331E-1,-1.1954051E-1,7.4956197E-1,6.209099E-2,-5.5947464E-2,3.2720807E-1,-2.4602863E-1,1.00908525E-1,8.333632E-1,-3.6427763E-1,6.511842E-1,-2.779699E-1,2.102915E-1,-3.5303596E-3,9.262717E-1,-6.095763E-1,-3.1763732E-1,3.8056638E-2,-4.879778E-2,4.5865655E-2,-5.1142883E-2,8.930116E-2,2.375314E-3,3.0656919E-2,-4.5238096E-2,7.849792E-2,1.4084995E-3,5.4867066E-2,8.607206E-3,1.2240152E-2,-6.686085E-2,5.9116583E-2,-5.278709E-2,-4.503131E-2,9.894129E-2,-4.1530933E-2,8.40975E-3,-4.3497714E-3,8.475369E-2,-4.023116E-2,2.8219664E-2,9.3645394E-2,6.7071314E-3,3.058512E-2,9.966524E-2,1.5964683E-2,-6.2988654E-2,-4.4853996E-2,4.4346955E-2],"categories":[],"categories_nodes":[],"categories_segments":[],"categories_sizes":[],"default_left":[0,0,0,0,0,0,0,0,0,0,0,0,0,0,0,0,0,0,0,0,0,0,0,0,0,0,0,0,0,0,0,0,0,0,0,0,0,0,0,0,0,0,0,0,0,0,0,0,0,0,0,0,0,0,0,0,0,0,0,0,0,0,0,0,0,0,0,0,0,0,0,0,0,0,0,0,0,0,0],"id":17,"left_children":[1,3,5,7,9,11,13,15,-1,17,19,21,23,25,-1,27,29,31,33,35,37,39,41,-1,43,45,-1,47,49,-1,51,53,55,-1,-1,57,59,61,63,65,67,69,71,-1,73,75,77,-1,-1,-1,-1,-1,-1,-1,-1,-1,-1,-1,-1,-1,-1,-1,-1,-1,-1,-1,-1,-1,-1,-1,-1,-1,-1,-1,-1,-1,-1,-1,-1],"loss_changes":[5.1619537E1,1.044009E1,1.1458492E1,3.349544E0,5.4650116E0,6.9624963E0,1.785862E0,4.050672E0,0E0,3.6632767E0,3.3336468E0,5.1390557E0,3.7248883E0,1.8097687E0,0E0,2.875873E0,4.197435E0,2.415535E0,2.196192E0,4.5446444E0,1.9478416E0,6.1095343E0,6.199844E0,0E0,1.167573E0,9.5386124E-1,0E0,1.470644E0,1.9034894E0,0E0,4.6004086E0,7.173627E-1,1.8574562E0,0E0,0E0,3.2368064E0,2.8910003E0,2.201375E0,3.5639544E0,2.8396492E0,9.006479E-1,3.4906976E0,5.77129E0,0E0,1.226244E-1,1.4920769E0,1.9838357E0,0E0,0E0,0E0,0E0,0E0,0E0,0E0,0E0,0E0,0E0,0E0,0E0,0E0,0E0,0E0,0E0,0E0,0E0,0E0,0E0,0E0,0E0,0E0,0E0,0E0,0E0,0E0,0E0,0E0,0E0,0E0,0E0],"parents":[2147483647,0,0,1,1,2,2,3,3,4,4,5,5,6,6,7,7,9,9,10,10,11,11,12,12,13,13,15,15,16,16,17,17,18,18,19,19,20,20,21,21,22,22,24,24,25,25,27,27,28,28,30,30,31,31,32,32,35,35,36,36,37,37,38,38,39,39,40,40,41,41,42,42,44,44,45,45,46,46],"right_children":[2,4,6,8,10,12,14,16,-1,18,20,22,24,26,-1,28,30,32,34,36,38,40,42,-1,44,46,-1,48,50,-1,52,54,56,-1,-1,58,60,62,64,66,68,70,72,-1,74,76,78,-1,-1,-1,-1,-1,-1,-1,-1,-1,-1,-1,-1,-1,-1,-1,-1,-1,-1,-1,-1,-1,-1,-1,-1,-1,-1,-1,-1,-1,-1,-1,-1],"split_conditions":[-1E-1,2.23E0,1.5E0,7.01E0,-9.2E-1,1.5E0,4E0,1.5E0,7.9059795E-2,1.1E1,4.5E0,5E-1,3.5E0,4E0,3.9681952E-2,1.5E0,1.21E2,3.7E2,6.5E0,5.8E1,1.5E0,7.03E0,2.5E0,-4.600434E-2,9.5E0,1E1,3.892663E-2,2E0,3E0,-6.0013134E-2,5E0,4E0,6E0,6.209099E-2,-5.5947464E-2,6.65E1,1E0,1.2E1,3.41E0,3E0,8.618E3,9.5E0,1.51E2,-3.5303596E-3,1E0,1.7E-1,1.9E1,3.8056638E-2,-4.879778E-2,4.5865655E-2,-5.1142883E-2,8.930116E-2,2.375314E-3,3.0656919E-2,-4.5238096E-2,7.849792E-2,1.4084995E-3,5.4867066E-2,8.607206E-3,1.2240152E-2,-6.686085E-2,5.9116583E-2,-5.278709E-2,-4.503131E-2,9.894129E-2,-4.1530933E-2,8.40975E-3,-4.3497714E-3,8.475369E-2,-4.023116E-2,2.8219664E-2,9.3645394E-2,6.7071314E-3,3.058512E-2,9.966524E-2,1.5964683E-2,-6.2988654E-2,-4.4853996E-2,4.4346955E-2],"split_indices":[277,278,175,488,277,180,294,379,0,210,304,394,190,176,0,175,264,256,319,338,383,488,404,0,263,319,0,263,383,0,207,159,234,0,0,257,388,320,279,431,469,319,262,0,336,277,305,0,0,0,0,0,0,0,0,0,0,0,0,0,0,0,0,0,0,0,0,0,0,0,0,0,0,0,0,0,0,0,0],"split_type":[0,0,0,0,0,0,0,0,0,0,0,0,0,0,0,0,0,0,0,0,0,0,0,0,0,0,0,0,0,0,0,0,0,0,0,0,0,0,0,0,0,0,0,0,0,0,0,0,0,0,0,0,0,0,0,0,0,0,0,0,0,0,0,0,0,0,0,0,0,0,0,0,0,0,0,0,0,0,0],"sum_hessian":[5.939442E2,2.4435477E2,3.4958948E2,6.842483E1,1.7592993E2,2.4188521E2,1.0770427E2,6.442781E1,3.9970152E0,7.869479E1,9.7235146E1,2.2949225E2,1.2392966E1,1.0634648E2,1.3577871E0,3.584944E1,2.8578367E1,7.381218E1,4.8826156E0,7.753889E1,1.9696253E1,1.2690949E2,1.0258275E2,2.236391E0,1.0156575E1,1.0498289E2,1.3635935E0,2.7448336E1,8.401106E0,4.32951E0,2.4248857E1,3.0801716E0,7.073201E1,1.4957585E0,3.386857E0,6.0495724E1,1.7043167E1,5.128895E0,1.4567358E1,1.21576904E2,5.3325863E0,4.7486248E1,5.50965E1,1.3673794E0,8.789195E0,8.8067535E1,1.691535E1,1.3815616E0,2.6066774E1,6.5564737E0,1.8446319E0,9.37362E0,1.4875237E1,1.385436E0,1.6947353E0,6.741815E1,3.3138564E0,3.0869446E1,2.9626276E1,9.484427E0,7.55874E0,2.915505E0,2.21339E0,1.374545E0,1.3192814E1,1.09219826E2,1.2357079E1,1.3466624E0,3.9859242E0,3.9090927E1,8.39532E0,8.164066E0,4.6932434E1,1.4400984E0,7.3490973E0,2.0890045E0,8.597853E1,1.4783425E1,2.1319242E0],"tree_param":{"num_deleted":"0","num_feature":"576","num_nodes":"79","size_leaf_vector":"1"}},{"base_weights":[9.181464E-2,-6.57783E-2,5.477015E-1,-2.6620317E-1,1.1163193E-1,6.400593E-1,8.036964E-2,-5.16133E-1,-1.739952E-1,1.4803152E-1,-6.4263806E-2,4.0223595E-1,7.5391245E-1,-1.6998734E-1,6.6439265E-1,-1.04755305E-1,-5.79799E-1,-1.2923254E-1,-6.326449E-2,5.3020877E-1,5.3434104E-2,6.414365E-1,1.2244268E-1,7.9185927E-1,5.47776E-2,-3.3952114E-1,5.349534E-1,7.90812E-2,-3.2901687E-3,-5.3812582E-2,3.9608625E-1,-6.1166686E-1,3.317041E-2,-1.7580366E-1,2.941632E-1,6.4841753E-1,-6.258212E-2,2.4174272E-1,-1.05804E-1,7.546841E-1,-3.2951757E-2,-2.4378844E-1,5.48694E-1,8.055575E-1,-3.8930438E-3,-5.6608684E-2,6.381833E-2,-6.422928E-2,7.7598274E-2,6.2972546E-2,1.9661969E-2,7.008967E-2,-3.435396E-2,-6.28671E-2,3.7239937E-3,-5.585153E-3,-3.7802625E-2,-4.59799E-2,7.106449E-2,-1.8898556E-2,7.3678695E-2,-6.22404E-2,4.422519E-2,4.1798603E-2,-1.4952152E-2,-1.567956E-2,6.566937E-2,7.3490874E-3,8.339338E-2,5.124286E-2,-5.1801868E-2,7.85313E-2,-3.3881404E-2,8.244579E-2,2.7747542E-2,3.407108E-2,-4.732796E-2],"categories":[],"categories_nodes":[],"categories_segments":[],"categories_sizes":[],"default_left":[0,0,0,0,0,0,0,0,0,0,0,0,0,0,0,0,0,0,0,0,0,0,0,0,0,0,0,0,0,0,0,0,0,0,0,0,0,0,0,0,0,0,0,0,0,0,0,0,0,0,0,0,0,0,0,0,0,0,0,0,0,0,0,0,0,0,0,0,0,0,0,0,0,0,0,0,0],"id":18,"left_children":[1,3,5,7,9,11,13,15,17,19,-1,21,23,25,27,29,31,33,-1,35,37,39,41,43,45,47,49,-1,-1,-1,51,53,-1,55,57,59,61,63,65,67,-1,69,71,73,-1,-1,-1,-1,75,-1,-1,-1,-1,-1,-1,-1,-1,-1,-1,-1,-1,-1,-1,-1,-1,-1,-1,-1,-1,-1,-1,-1,-1,-1,-1,-1,-1],"loss_changes":[4.6097416E1,1.7002121E1,7.0617027E0,5.082073E0,7.0660896E0,3.4188385E0,4.2564425E0,1.5100241E0,3.3149142E0,8.757849E0,0E0,3.0433717E0,2.392517E0,2.6473632E0,7.935333E-1,2.2226565E0,1.7051067E0,3.0486894E0,0E0,3.4116096E0,5.9004292E0,2.9879208E0,3.6828554E0,1.0216217E0,2.4625795E0,2.2275794E0,1.6887188E-2,0E0,0E0,0E0,1.3388957E0,5.786495E-1,0E0,3.315588E0,5.1737137E0,3.113865E0,2.793425E0,6.273571E0,4.2573867E0,1.1594868E0,0E0,2.9449413E0,2.5370736E0,6.2610626E-1,0E0,0E0,0E0,0E0,1.3417466E0,0E0,0E0,0E0,0E0,0E0,0E0,0E0,0E0,0E0,0E0,0E0,0E0,0E0,0E0,0E0,0E0,0E0,0E0,0E0,0E0,0E0,0E0,0E0,0E0,0E0,0E0,0E0,0E0],"parents":[2147483647,0,0,1,1,2,2,3,3,4,4,5,5,6,6,7,7,8,8,9,9,11,11,12,12,13,13,14,14,15,15,16,16,17,17,19,19,20,20,21,21,22,22,23,23,24,24,25,25,26,26,30,30,31,31,33,33,34,34,35,35,36,36,37,37,38,38,39,39,41,41,42,42,43,43,48,48],"right_children":[2,4,6,8,10,12,14,16,18,20,-1,22,24,26,28,30,32,34,-1,36,38,40,42,44,46,48,50,-1,-1,-1,52,54,-1,56,58,60,62,64,66,68,-1,70,72,74,-1,-1,-1,-1,76,-1,-1,-1,-1,-1,-1,-1,-1,-1,-1,-1,-1,-1,-1,-1,-1,-1,-1,-1,-1,-1,-1,-1,-1,-1,-1,-1,-1],"split_conditions":[1.13E0,-6E-2,1E1,-1.08E0,6.78E0,3.84E0,5.95E1,1E0,3.17E2,1E0,-6.4263806E-2,2E0,6E0,2.4E1,3.5E0,2E0,4E0,8E0,-6.326449E-2,1.6E1,2.3E1,3.5E0,1.63E0,6.51E0,2.2E1,4.5E0,6E0,7.90812E-2,-3.2901687E-3,-5.3812582E-2,4.87E0,1.05E1,3.317041E-2,3E0,2E0,8E0,7E0,2.79E0,1.77E2,8E0,-3.2951757E-2,3.5E0,4.65E1,2.4E1,-3.8930438E-3,-5.6608684E-2,6.381833E-2,-6.422928E-2,3.3E1,6.2972546E-2,1.9661969E-2,7.008967E-2,-3.435396E-2,-6.28671E-2,3.7239937E-3,-5.585153E-3,-3.7802625E-2,-4.59799E-2,7.106449E-2,-1.8898556E-2,7.3678695E-2,-6.22404E-2,4.422519E-2,4.1798603E-2,-1.4952152E-2,-1.567956E-2,6.566937E-2,7.3490874E-3,8.339338E-2,5.124286E-2,-5.1801868E-2,7.85313E-2,-3.3881404E-2,8.244579E-2,2.7747542E-2,3.407108E-2,-4.732796E-2],"split_indices":[277,277,319,277,488,279,263,315,265,446,0,383,171,373,233,179,323,220,0,276,321,404,277,488,90,336,191,0,0,0,279,378,0,443,315,90,381,278,269,230,0,319,263,303,0,0,0,0,263,0,0,0,0,0,0,0,0,0,0,0,0,0,0,0,0,0,0,0,0,0,0,0,0,0,0,0,0],"split_type":[0,0,0,0,0,0,0,0,0,0,0,0,0,0,0,0,0,0,0,0,0,0,0,0,0,0,0,0,0,0,0,0,0,0,0,0,0,0,0,0,0,0,0,0,0,0,0,0,0,0,0,0,0,0,0,0,0,0,0,0,0,0,0,0,0,0,0,0,0,0,0,0,0,0,0,0,0],"sum_hessian":[6.401258E2,4.7632382E2,1.6380197E2,2.2342003E2,2.5290381E2,1.3646338E2,2.7338583E1,5.8973843E1,1.6444618E2,2.4202777E2,1.0876046E1,4.5646706E1,9.081668E1,1.9631819E1,7.7067633E0,8.258294E0,5.071555E1,1.5099167E2,1.3454512E1,4.7107346E1,1.9492041E2,2.3911646E1,2.1735058E1,8.60154E1,4.801272E0,1.6243685E1,3.3881345E0,6.410437E0,1.296326E0,4.387454E0,3.87084E0,4.932017E1,1.3953781E0,1.3655606E2,1.44356165E1,3.9197178E1,7.9101677E0,8.907076E1,1.0584965E2,2.161349E1,2.298156E0,1.1920845E1,9.814214E0,8.4650055E1,1.3653538E0,2.3403456E0,2.4609265E0,9.099131E0,7.144554E0,1.9739487E0,1.4141858E0,2.7782476E0,1.0925925E0,4.809116E1,1.2290088E0,8.651453E1,5.004153E1,5.099649E0,9.335967E0,3.6328745E0,3.5564304E1,3.64038E0,4.269788E0,6.1362152E1,2.7708614E1,9.99593E1,5.890357E0,2.4533112E0,1.916018E1,2.9413033E0,8.979542E0,7.839317E0,1.9748964E0,8.118322E1,3.466835E0,5.093357E0,2.051197E0],"tree_param":{"num_deleted":"0","num_feature":"576","num_nodes":"77","size_leaf_vector":"1"}},{"base_weights":[-8.6600795E-2,-1.1293323E-2,-2.7883807E-1,7.010951E-2,-1.4604814E-1,-4.522434E-1,-1.0257564E-1,-2.635228E-2,2.653154E-1,-2.2105889E-1,2.4429971E-1,-4.7257978E-1,4.181842E-2,-1.5961367E-1,7.0429003E-1,-7.224601E-2,3.751672E-1,3.870998E-1,-1.8713963E-1,-2.747593E-1,2.8499666E-1,5.851793E-1,-1.13712914E-1,-4.9301183E-1,3.870788E-2,-2.9694686E-2,-4.4628143E-1,7.9570554E-2,2.6753718E-2,2.6834926E-2,-2.7018812E-1,6.114684E-1,-3.746504E-1,-4.2755447E-2,5.0885147E-1,5.803363E-1,-4.3981096E-1,4.3070868E-1,-3.1283298E-1,8.049086E-1,-1.15762524E-1,8.0170447E-1,-2.3190226E-1,-5.0162446E-1,6.484942E-1,-3.367384E-1,-5.8245456E-1,9.608796E-2,-4.0540788E-1,-5.970579E-2,6.247453E-2,-5.264628E-3,6.0626604E-2,-3.6609393E-2,4.4369306E-2,8.636245E-2,-2.5977809E-2,3.7857261E-3,-5.2918293E-2,3.0011697E-2,-4.7744166E-2,7.7341534E-2,2.6319403E-2,-1.11096315E-2,9.636366E-2,-6.229168E-2,2.8452251E-2,8.4403664E-2,-4.5111675E-2,1.936661E-2,-3.618532E-2,-3.7127014E-2,1.1950133E-1,-5.5373367E-2,6.0604807E-2,2.2175038E-2,1.0673534E-1,5.5801068E-3,-4.092529E-2,-6.0018033E-2,1.0519013E-2,1.02212824E-1,-3.3964124E-2,-4.3368783E-2,2.5332058E-2,1.03877215E-2,-6.0147353E-2,5.2216955E-2,-1.659648E-2,-6.0109593E-2,3.0898083E-2,7.7471174E-2,-3.0523542E-2],"categories":[],"categories_nodes":[],"categories_segments":[],"categories_sizes":[],"default_left":[0,0,0,0,0,0,0,0,0,0,0,0,0,0,0,0,0,0,0,0,0,0,0,0,0,0,0,0,0,0,0,0,0,0,0,0,0,0,0,0,0,0,0,0,0,0,0,0,0,0,0,0,0,0,0,0,0,0,0,0,0,0,0,0,0,0,0,0,0,0,0,0,0,0,0,0,0,0,0,0,0,0,0,0,0,0,0,0,0,0,0,0,0],"id":19,"left_children":[1,3,5,7,9,11,13,15,17,19,21,23,-1,25,27,29,31,33,35,37,39,41,43,45,-1,47,49,-1,-1,51,53,55,57,59,61,63,65,67,69,71,73,75,77,79,81,83,85,87,89,-1,91,-1,-1,-1,-1,-1,-1,-1,-1,-1,-1,-1,-1,-1,-1,-1,-1,-1,-1,-1,-1,-1,-1,-1,-1,-1,-1,-1,-1,-1,-1,-1,-1,-1,-1,-1,-1,-1,-1,-1,-1,-1,-1],"loss_changes":[8.097425E0,4.4319415E0,4.7662964E0,4.751528E0,4.508277E0,1.5974331E0,3.7656052E0,3.1513586E0,4.6691833E0,3.5602708E0,3.1170316E0,1.5563602E0,0E0,2.7782855E0,3.743887E-3,3.00779E0,3.339129E0,3.4788456E0,3.816816E0,3.2597742E0,2.7566361E0,2.4800353E0,4.177542E0,8.714428E-1,0E0,2.52707E0,1.8249235E0,0E0,0E0,4.7693496E0,3.662771E0,3.2399354E0,3.2768315E-1,2.453814E0,3.1470194E0,1.4269178E0,2.0852692E0,2.7055588E0,2.8252707E0,3.0544543E0,2.8940287E0,1.3771405E0,2.0101623E-1,6.132424E-1,2.1305947E0,1.8359163E0,6.7866516E-1,4.581092E0,2.0585713E0,0E0,1.868834E0,0E0,0E0,0E0,0E0,0E0,0E0,0E0,0E0,0E0,0E0,0E0,0E0,0E0,0E0,0E0,0E0,0E0,0E0,0E0,0E0,0E0,0E0,0E0,0E0,0E0,0E0,0E0,0E0,0E0,0E0,0E0,0E0,0E0,0E0,0E0,0E0,0E0,0E0,0E0,0E0,0E0,0E0],"parents":[2147483647,0,0,1,1,2,2,3,3,4,4,5,5,6,6,7,7,8,8,9,9,10,10,11,11,13,13,14,14,15,15,16,16,17,17,18,18,19,19,20,20,21,21,22,22,23,23,25,25,26,26,29,29,30,30,31,31,32,32,33,33,34,34,35,35,36,36,37,37,38,38,39,39,40,40,41,41,42,42,43,43,44,44,45,45,46,46,47,47,48,48,50,50],"right_children":[2,4,6,8,10,12,14,16,18,20,22,24,-1,26,28,30,32,34,36,38,40,42,44,46,-1,48,50,-1,-1,52,54,56,58,60,62,64,66,68,70,72,74,76,78,80,82,84,86,88,90,-1,92,-1,-1,-1,-1,-1,-1,-1,-1,-1,-1,-1,-1,-1,-1,-1,-1,-1,-1,-1,-1,-1,-1,-1,-1,-1,-1,-1,-1,-1,-1,-1,-1,-1,-1,-1,-1,-1,-1,-1,-1,-1,-1],"split_conditions":[1.5E0,4E0,1.5E0,5.35E1,6E0,5E1,4.3E1,2E0,2E0,2E0,1E0,1.3E1,4.181842E-2,1.92E0,1E0,4.845E2,5.4E1,4.3E2,4E0,6E0,3.65E0,1E0,2E0,9E0,3.870788E-2,1.4E1,2.05E1,7.9570554E-2,2.6753718E-2,3E0,4.94E2,8E0,-5.7E-1,1.6E1,7E0,1.26E2,7.5E0,8E0,7E0,3.27E0,4E0,3E1,1.1E1,1.5E0,4.51E2,4E0,1E0,3.84E0,5.08E0,-5.970579E-2,1E0,-5.264628E-3,6.0626604E-2,-3.6609393E-2,4.4369306E-2,8.636245E-2,-2.5977809E-2,3.7857261E-3,-5.2918293E-2,3.0011697E-2,-4.7744166E-2,7.7341534E-2,2.6319403E-2,-1.11096315E-2,9.636366E-2,-6.229168E-2,2.8452251E-2,8.4403664E-2,-4.5111675E-2,1.936661E-2,-3.618532E-2,-3.7127014E-2,1.1950133E-1,-5.5373367E-2,6.0604807E-2,2.2175038E-2,1.0673534E-1,5.5801068E-3,-4.092529E-2,-6.0018033E-2,1.0519013E-2,1.02212824E-1,-3.3964124E-2,-4.3368783E-2,2.5332058E-2,1.03877215E-2,-6.0147353E-2,5.2216955E-2,-1.659648E-2,-6.0109593E-2,3.0898083E-2,7.7471174E-2,-3.0523542E-2],"split_indices":[175,192,180,335,209,374,321,462,170,405,405,336,0,277,389,256,338,259,169,230,279,432,170,166,0,166,303,0,0,423,258,235,277,185,402,264,399,373,90,279,304,374,185,233,256,171,268,279,279,0,219,0,0,0,0,0,0,0,0,0,0,0,0,0,0,0,0,0,0,0,0,0,0,0,0,0,0,0,0,0,0,0,0,0,0,0,0,0,0,0,0,0,0],"split_type":[0,0,0,0,0,0,0,0,0,0,0,0,0,0,0,0,0,0,0,0,0,0,0,0,0,0,0,0,0,0,0,0,0,0,0,0,0,0,0,0,0,0,0,0,0,0,0,0,0,0,0,0,0,0,0,0,0,0,0,0,0,0,0,0,0,0,0,0,0,0,0,0,0,0,0,0,0,0,0,0,0,0,0,0,0,0,0,0,0,0,0,0,0],"sum_hessian":[5.585516E2,4.0209335E2,1.5645822E2,2.5096805E2,1.5112532E2,7.8079056E1,7.8379166E1,1.6854558E2,8.242248E1,1.2712934E2,2.3995977E1,7.6743126E1,1.3359306E0,7.3953514E1,4.4256573E0,1.5199284E2,1.6552732E1,6.5056175E1,1.73663E1,1.1534635E2,1.1782993E1,1.1967075E1,1.2028901E1,7.537807E1,1.3650563E0,5.1649387E1,2.2304125E1,2.9800458E0,1.4456115E0,1.0186715E2,5.012569E1,1.2726539E1,3.8261933E0,1.4502525E1,5.055365E1,3.9801133E0,1.3386188E1,5.378347E0,1.09968E2,4.69005E0,7.092943E0,9.475029E0,2.4920464E0,8.198368E0,3.8305328E0,2.9172684E1,4.6205383E1,3.925253E1,1.2396855E1,1.7071268E1,5.2328563E0,9.0378914E1,1.14882345E1,4.4618618E1,5.5070744E0,9.876756E0,2.8497825E0,1.2484944E0,2.577699E0,8.280555E0,6.22197E0,2.330581E1,