{"learner":{"attributes":{"scikit_learn":"{\"_estimator_type\": \"classifier\"}"},"feature_names":["rolling_goals_scored_3_mean","rolling_goals_scored_10_mean","rolling_goals_conceded_3_mean","rolling_goals_conceded_10_mean","rolling_xg_3_mean","rolling_xg_10_mean","rolling_shots_3_mean","rolling_shots_10_mean","rolling_corners_3_mean","rolling_corners_10_mean"],"feature_types":["float","float","float","float","float","float","float","float","float","float"],"gradient_booster":{"model":{"cats":{"enc":[],"feature_segments":[],"sorted_idx":[]},"gbtree_model_param":{"num_parallel_tree":"1","num_trees":"100"},"iteration_indptr":[0,1,2,3,4,5,6,7,8,9,10,11,12,13,14,15,16,17,18,19,20,21,22,23,24,25,26,27,28,29,30,31,32,33,34,35,36,37,38,39,40,41,42,43,44,45,46,47,48,49,50,51,52,53,54,55,56,57,58,59,60,61,62,63,64,65,66,67,68,69,70,71,72,73,74,75,76,77,78,79,80,81,82,83,84,85,86,87,88,89,90,91,92,93,94,95,96,97,98,99,100],"tree_info":[0,0,0,0,0,0,0,0,0,0,0,0,0,0,0,0,0,0,0,0,0,0,0,0,0,0,0,0,0,0,0,0,0,0,0,0,0,0,0,0,0,0,0,0,0,0,0,0,0,0,0,0,0,0,0,0,0,0,0,0,0,0,0,0,0,0,0,0,0,0,0,0,0,0,0,0,0,0,0,0,0,0,0,0,0,0,0,0,0,0,0,0,0,0,0,0,0,0,0,0],"trees":[{"base_weights":[4.690137E-8,-8.033078E-1,4.5781445E-2,-2.1727088E-1,-1.0464691E-1,1.2010757E0,2.2627192E-3,-3.9772835E-2,6.3369744E-3,1.580497E-1,6.3369744E-3,-9.738138E-2,3.9994898E-1,-1.8149873E-2,4.026035E-2,7.919046E-2,1.9179134E-3],"categories":[],"categories_nodes":[],"categories_segments":[],"categories_sizes":[],"default_left":[0,0,0,0,0,0,0,0,0,0,0,0,0,0,0,0,0],"id":0,"left_children":[1,3,5,7,-1,9,11,-1,-1,-1,-1,13,15,-1,-1,-1,-1],"loss_changes":[4.827372E0,7.8117657E-1,6.2409115E0,1.9422588E-1,0E0,1.8450389E0,4.821088E0,0E0,0E0,0E0,0E0,4.16542E0,3.6226144E0,0E0,0E0,0E0,0E0],"parents":[2147483647,0,0,1,1,2,2,3,3,5,5,6,6,11,11,12,12],"right_children":[2,4,6,8,-1,10,12,-1,-1,-1,-1,14,16,-1,-1,-1,-1],"split_conditions":[2.9682282E-1,1.3333334E0,3.2077023E-1,5E-1,-1.0464691E-1,1.3333334E0,2E0,-3.9772835E-2,6.3369744E-3,1.580497E-1,6.3369744E-3,4.8E0,1.6666666E0,-1.8149873E-2,4.026035E-2,7.919046E-2,1.9179134E-3],"split_indices":[4,3,4,0,0,2,0,0,0,0,0,9,1,0,0,0,0],"split_type":[0,0,0,0,0,0,0,0,0,0,0,0,0,0,0,0,0],"sum_hessian":[1.292622E2,6.0774274E0,1.23184784E2,2.3374722E0,3.7399554E0,3.5062082E0,1.1967857E2,1.1687361E0,1.1687361E0,2.3374722E0,1.1687361E0,9.6303856E1,2.3374722E1,8.298026E1,1.3323591E1,1.0986119E1,1.2388602E1],"tree_param":{"num_deleted":"0","num_feature":"10","num_nodes":"17","size_leaf_vector":"1"}},{"base_weights":[7.8629813E-4,-8.9281626E-2,3.7571616E-2,-6.9972825E-1,7.703917E-2,6.996947E-3,-8.8088095E-1,1.1507527E0,3.0655872E-2,-1.1762022E-1,1.0849585E-2,3.8990326E-2,1.6766416E-1,1.010769E-1,-7.3355116E-4],"categories":[],"categories_nodes":[],"categories_segments":[],"categories_sizes":[],"default_left":[0,0,0,0,0,0,0,0,0,0,0,0,0,0,0],"id":1,"left_children":[1,-1,3,5,7,-1,9,11,13,-1,-1,-1,-1,-1,-1],"loss_changes":[4.312892E0,0E0,3.7203388E0,9.680979E-1,5.9656935E0,0E0,1.6867352E0,1.3318248E0,4.3466315E0,0E0,0E0,0E0,0E0,0E0,0E0],"parents":[2147483647,0,0,2,2,3,3,4,4,6,6,7,7,8,8],"right_children":[2,-1,4,6,8,-1,10,12,14,-1,-1,-1,-1,-1,-1],"split_conditions":[4E-1,-8.9281626E-2,2.9682282E-1,1.1E0,6.2E0,6.996947E-3,3E0,1.5555556E0,3.2077023E-1,-1.1762022E-1,1.0849585E-2,3.8990326E-2,1.6766416E-1,1.010769E-1,-7.3355116E-4],"split_indices":[1,0,4,3,7,0,8,3,4,0,0,0,0,0,0],"split_type":[0,0,0,0,0,0,0,0,0,0,0,0,0,0,0],"sum_hessian":[1.2918431E2,4.1875596E0,1.2499674E2,5.501074E0,1.19495674E2,1.164976E0,4.3360977E0,3.962366E0,1.155333E2,3.1939096E0,1.1421883E0,2.3311312E0,1.6312348E0,3.3557382E0,1.1217757E2],"tree_param":{"num_deleted":"0","num_feature":"10","num_nodes":"15","size_leaf_vector":"1"}},{"base_weights":[1.4571546E-3,-8.3855635E-1,3.5329737E-2,-3.723152E-2,-1.0290855E-1,1.545461E-3,8.176252E-1,1.7104901E-1,-1.7805664E-1,3.140371E-4,1.2730376E-1,2.4177441E-3,1.00444876E-1,1.3936654E-2,-4.255334E-2],"categories":[],"categories_nodes":[],"categories_segments":[],"categories_sizes":[],"default_left":[0,0,0,0,0,0,0,0,0,0,0,0,0,0,0],"id":2,"left_children":[1,3,5,-1,-1,7,9,11,13,-1,-1,-1,-1,-1,-1],"loss_changes":[3.7311394E0,6.8377495E-2,3.3290226E0,0E0,0E0,3.7382193E0,1.930233E0,7.7076497E0,4.7431254E0,0E0,0E0,0E0,0E0,0E0,0E0],"parents":[2147483647,0,0,1,1,2,2,5,5,6,6,7,7,8,8],"right_children":[2,4,6,-1,-1,8,10,12,14,-1,-1,-1,-1,-1,-1],"split_conditions":[4E-1,2.5E-1,1.08E1,-3.723152E-2,-1.0290855E-1,1.2222222E0,1.3333334E0,5.3333335E0,1.1428572E0,3.140371E-4,1.2730376E-1,2.4177441E-3,1.00444876E-1,1.3936654E-2,-4.255334E-2],"split_indices":[1,1,7,0,0,3,2,8,1,0,0,0,0,0,0],"split_type":[0,0,0,0,0,0,0,0,0,0,0,0,0,0,0],"sum_hessian":[1.2909027E2,4.08284E0,1.2500743E2,2.0414207E0,2.041419E0,1.2079283E2,4.2145934E0,6.2168E1,5.8624836E1,1.8725379E0,2.3420556E0,5.3728363E1,8.439638E0,2.5874306E1,3.275053E1],"tree_param":{"num_deleted":"0","num_feature":"10","num_nodes":"15","size_leaf_vector":"1"}},{"base_weights":[1.5823904E-3,-7.1061724E-1,4.0709518E-2,-1.8118465E-1,-9.397394E-2,5.2884907E-1,-3.4733947E-2,-3.7343796E-2,9.560383E-3,1.3188357E0,8.179864E-2,-7.780026E-2,8.6448705E-1,1.5010302E-1,5.197341E-2,-2.9667774E-2,7.534214E-2,-1.2330669E-2,6.1512716E-2,2.9354397E-4,1.3726604E-1],"categories":[],"categories_nodes":[],"categories_segments":[],"categories_sizes":[],"default_left":[0,0,0,0,0,0,0,0,0,0,0,0,0,0,0,0,0,0,0,0,0],"id":3,"left_children":[1,3,5,7,-1,9,11,-1,-1,13,15,17,19,-1,-1,-1,-1,-1,-1,-1,-1],"loss_changes":[3.6521313E0,6.576779E-1,4.5921087E0,2.1133062E-1,0E0,5.785342E0,4.2693734E0,0E0,0E0,8.82206E-2,3.2033298E0,3.3699615E0,2.203378E0,0E0,0E0,0E0,0E0,0E0,0E0,0E0,0E0],"parents":[2147483647,0,0,1,1,2,2,3,3,5,5,6,6,9,9,10,10,11,11,12,12],"right_children":[2,4,6,8,-1,10,12,-1,-1,14,16,18,20,-1,-1,-1,-1,-1,-1,-1,-1],"split_conditions":[2.9682282E-1,1.3333334E0,2.6666667E0,4.376742E-1,-9.397394E-2,3.8751248E-1,1.08E1,-3.7343796E-2,9.560383E-3,4.731952E-1,4.7475168E-1,2.5E0,1.3333334E0,1.5010302E-1,5.197341E-2,-2.9667774E-2,7.534214E-2,-1.2330669E-2,6.1512716E-2,2.9354397E-4,1.3726604E-1],"split_indices":[4,3,8,5,0,4,7,0,0,5,4,2,2,0,0,0,0,0,0,0,0],"split_type":[0,0,0,0,0,0,0,0,0,0,0,0,0,0,0,0,0,0,0,0,0],"sum_hessian":[1.290208E2,5.825326E0,1.2319547E2,2.3004508E0,3.5248752E0,1.5686931E1,1.07508545E2,1.1514726E0,1.1489782E0,4.964333E0,1.0722598E1,1.03466705E2,4.0418415E0,3.3273125E0,1.6370207E0,7.2150197E0,3.5075781E0,9.786189E1,5.6048074E0,1.8726863E0,2.1691554E0],"tree_param":{"num_deleted":"0","num_feature":"10","num_nodes":"21","size_leaf_vector":"1"}},{"base_weights":[3.6457526E-3,-7.5974554E-2,3.4427768E-1,-1.5029518E-1,3.97073E-1,7.1549773E-1,-1.2724178E-2,8.4419854E-2,-3.7384862E-1,-4.0005216E-1,1.0121499E0,-5.7230625E-2,1.5827323E0,4.6587536E-1,-4.600297E-1,3.8362052E-2,-3.122421E-2,-3.3952177E-3,-6.798147E-2,3.2893207E-2,-7.251804E-2,-1.1303752E-2,1.395731E-1,1.10966936E-1,-5.2039873E-2,1.7699686E-1,4.7018375E-2,1.4660268E-1,-2.581722E-2,-7.715205E-2,3.0813208E-2],"categories":[],"categories_nodes":[],"categories_segments":[],"categories_sizes":[],"default_left":[0,0,0,0,0,0,0,0,0,0,0,0,0,0,0,0,0,0,0,0,0,0,0,0,0,0,0,0,0,0,0],"id":4,"left_children":[1,3,5,7,9,11,13,15,17,19,21,23,25,27,29,-1,-1,-1,-1,-1,-1,-1,-1,-1,-1,-1,-1,-1,-1,-1,-1],"loss_changes":[3.5472775E0,3.788135E0,3.2928367E0,4.878709E0,7.599473E0,8.242509E0,3.1286776E0,5.5648127E0,4.9165277E0,1.9232013E0,3.8549032E0,4.5758166E0,3.6904144E-1,5.500807E0,2.041846E0,0E0,0E0,0E0,0E0,0E0,0E0,0E0,0E0,0E0,0E0,0E0,0E0,0E0,0E0,0E0,0E0],"parents":[2147483647,0,0,1,1,2,2,3,3,4,4,5,5,6,6,7,7,8,8,9,9,10,10,11,11,12,12,13,13,14,14],"right_children":[2,4,6,8,10,12,14,16,18,20,22,24,26,28,30,-1,-1,-1,-1,-1,-1,-1,-1,-1,-1,-1,-1,-1,-1,-1,-1],"split_conditions":[2E0,4.8E0,1.6666666E0,3.5E0,8.5E0,5.2928644E-1,8.7E0,1.2222222E0,1.1E0,1E0,5.3957945E-1,4.4953015E-1,2.5E0,8.333333E-1,1.8E0,3.8362052E-2,-3.122421E-2,-3.3952177E-3,-6.798147E-2,3.2893207E-2,-7.251804E-2,-1.1303752E-2,1.395731E-1,1.10966936E-1,-5.2039873E-2,1.7699686E-1,4.7018375E-2,1.4660268E-1,-2.581722E-2,-7.715205E-2,3.0813208E-2],"split_indices":[0,9,1,8,6,5,7,3,1,0,4,4,0,3,3,0,0,0,0,0,0,0,0,0,0,0,0,0,0,0,0],"split_type":[0,0,0,0,0,0,0,0,0,0,0,0,0,0,0,0,0,0,0,0,0,0,0,0,0,0,0,0,0,0,0],"sum_hessian":[1.2882903E2,1.0505105E2,2.377798E1,9.137706E1,1.3673991E1,1.1164574E1,1.2613407E1,4.4879345E1,4.6497715E1,6.1078944E0,7.5660963E0,6.397893E0,4.7666802E0,6.073492E0,6.5399156E0,2.5601274E1,1.9278069E1,2.255378E1,2.3943935E1,1.8802979E0,4.2275968E0,2.102877E0,5.463219E0,1.4212897E0,4.9766035E0,3.5742404E0,1.1924397E0,2.1201253E0,3.9533665E0,4.6499724E0,1.8899431E0],"tree_param":{"num_deleted":"0","num_feature":"10","num_nodes":"31","size_leaf_vector":"1"}},{"base_weights":[5.776381E-3,-7.9258704E-1,3.7378874E-2,-3.3873927E-2,-9.842316E-2,-6.121154E-1,7.077416E-2,-1.5249588E-1,-1.0112891E-1,1.0443786E0,2.7851244E-2,3.307423E-2,-7.728462E-2,3.4570333E-2,1.528469E-1,8.759671E-2,-5.685958E-4],"categories":[],"categories_nodes":[],"categories_segments":[],"categories_sizes":[],"default_left":[0,0,0,0,0,0,0,0,0,0,0,0,0,0,0,0,0],"id":5,"left_children":[1,3,5,-1,-1,7,9,11,-1,13,15,-1,-1,-1,-1,-1,-1],"loss_changes":[3.2981665E0,9.9560976E-2,2.7669525E0,0E0,0E0,9.91431E-1,4.9993343E0,1.4787076E0,0E0,1.1807666E0,3.3121765E0,0E0,0E0,0E0,0E0,0E0,0E0],"parents":[2147483647,0,0,1,1,2,2,5,5,6,6,7,7,9,9,10,10],"right_children":[2,4,6,-1,-1,8,10,12,-1,14,16,-1,-1,-1,-1,-1,-1],"split_conditions":[4E-1,6E0,2.9682282E-1,-3.3873927E-2,-9.842316E-2,2.717237E-1,6.2E0,1.1E0,-1.0112891E-1,1.5555556E0,3.2077023E-1,3.307423E-2,-7.728462E-2,3.4570333E-2,1.528469E-1,8.759671E-2,-5.685958E-4],"split_indices":[1,6,4,0,0,4,7,1,0,3,4,0,0,0,0,0,0],"split_type":[0,0,0,0,0,0,0,0,0,0,0,0,0,0,0,0,0],"sum_hessian":[1.2854836E2,3.977831E0,1.2457052E2,2.0026784E0,1.9751525E0,5.244403E0,1.1932612E2,3.0800164E0,2.1643865E0,4.0533776E0,1.15272736E2,1.993766E0,1.0862504E0,2.3605645E0,1.692813E0,3.4293485E0,1.1184339E2],"tree_param":{"num_deleted":"0","num_feature":"10","num_nodes":"17","size_leaf_vector":"1"}},{"base_weights":[5.0691795E-3,-6.948486E-2,3.2218117E-1,-1.3769442E-1,3.6030725E-1,6.616955E-1,-8.372398E-3,7.6728344E-2,-3.4393576E-1,-3.7118173E-1,9.107173E-1,-4.3697193E-2,1.4321519E0,4.2967144E-1,-4.2520756E-1,3.4689855E-2,-2.8779266E-2,-3.0924822E-3,-6.2999204E-2,2.2568237E-2,-7.671755E-2,-1.0522191E-2,1.2490716E-1,1.0304258E-1,-4.8189536E-2,1.731426E-1,5.455586E-2,1.3346481E-1,-2.4289155E-2,-6.603022E-2,4.3721348E-2],"categories":[],"categories_nodes":[],"categories_segments":[],"categories_sizes":[],"default_left":[0,0,0,0,0,0,0,0,0,0,0,0,0,0,0,0,0,0,0,0,0,0,0,0,0,0,0,0,0,0,0],"id":6,"left_children":[1,3,5,7,9,11,13,15,17,19,21,23,25,27,29,-1,-1,-1,-1,-1,-1,-1,-1,-1,-1,-1,-1,-1,-1,-1,-1],"loss_changes":[3.082465E0,3.1459243E0,2.790506E0,4.089409E0,6.2737427E0,6.7224407E0,2.6588476E0,4.616467E0,4.190079E0,1.8372014E0,3.1227841E0,3.9643416E0,6.173248E-1,4.651531E0,1.7994634E0,0E0,0E0,0E0,0E0,0E0,0E0,0E0,0E0,0E0,0E0,0E0,0E0,0E0,0E0,0E0,0E0],"parents":[2147483647,0,0,1,1,2,2,3,3,4,4,5,5,6,6,7,7,8,8,9,9,10,10,11,11,12,12,13,13,14,14],"right_children":[2,4,6,8,10,12,14,16,18,20,22,24,26,28,30,-1,-1,-1,-1,-1,-1,-1,-1,-1,-1,-1,-1,-1,-1,-1,-1],"split_conditions":[2E0,4.8E0,1.6666666E0,3.5E0,8.5E0,5.2928644E-1,8.7E0,1.2222222E0,1.1E0,5.296309E-1,5.3957945E-1,4.4953015E-1,1.3333334E0,8.333333E-1,3.5E0,3.4689855E-2,-2.8779266E-2,-3.0924822E-3,-6.2999204E-2,2.2568237E-2,-7.671755E-2,-1.0522191E-2,1.2490716E-1,1.0304258E-1,-4.8189536E-2,1.731426E-1,5.455586E-2,1.3346481E-1,-2.4289155E-2,-6.603022E-2,4.3721348E-2],"split_indices":[0,9,1,8,6,5,7,3,1,4,4,4,3,3,0,0,0,0,0,0,0,0,0,0,0,0,0,0,0,0,0],"split_type":[0,0,0,0,0,0,0,0,0,0,0,0,0,0,0,0,0,0,0,0,0,0,0,0,0,0,0,0,0,0,0],"sum_hessian":[1.2843408E2,1.0461877E2,2.3815323E1,9.087604E1,1.3742728E1,1.12542305E1,1.2561092E1,4.486218E1,4.6013855E1,6.040541E0,7.7021866E0,6.3676248E0,4.8866053E0,6.109717E0,6.4513755E0,2.5793375E1,1.9068804E1,2.250087E1,2.3512985E1,2.5807605E0,3.459781E0,2.096444E0,5.6057425E0,1.4534307E0,4.914194E0,2.9409685E0,1.9456369E0,2.1851015E0,3.9246156E0,5.2536116E0,1.1977639E0],"tree_param":{"num_deleted":"0","num_feature":"10","num_nodes":"31","size_leaf_vector":"1"}},{"base_weights":[7.1056387E-3,-6.249568E-1,4.4211812E-2,-8.834666E-1,2.496147E-2,-6.613519E-1,7.1989514E-2,-3.1048445E-2,-1.0977548E-1,1.0490144E-2,-1.0992122E-1,4.9353942E-1,5.6089885E-3,-5.9245504E-2,6.510084E-2,4.447353E-2,-6.7499015E-3],"categories":[],"categories_nodes":[],"categories_segments":[],"categories_sizes":[],"default_left":[0,0,0,0,0,0,0,0,0,0,0,0,0,0,0,0,0],"id":7,"left_children":[1,3,5,7,-1,9,11,-1,-1,-1,-1,13,15,-1,-1,-1,-1],"loss_changes":[3.0524652E0,1.8523464E0,2.4534643E0,3.702407E-1,0E0,1.7082813E0,3.3273532E0,0E0,0E0,0E0,0E0,3.152426E0,3.363266E0,0E0,0E0,0E0,0E0],"parents":[2147483647,0,0,1,1,2,2,3,3,5,5,6,6,11,11,12,12],"right_children":[2,4,6,8,-1,10,12,-1,-1,-1,-1,14,16,-1,-1,-1,-1],"split_conditions":[4.2857143E-1,5E-1,2.4E0,2.5E-1,2.496147E-2,2.25E0,2.6666667E0,-3.1048445E-2,-1.0977548E-1,1.0490144E-2,-1.0992122E-1,6.5555553E0,4.227522E-1,-5.9245504E-2,6.510084E-2,4.447353E-2,-6.7499015E-3],"split_indices":[1,0,9,1,0,9,8,0,0,0,0,7,5,0,0,0,0],"split_type":[0,0,0,0,0,0,0,0,0,0,0,0,0,0,0,0,0],"sum_hessian":[1.2797202E2,6.2177176E0,1.217543E2,4.79131E0,1.4264082E0,3.7478864E0,1.1800642E2,1.9707257E0,2.820584E0,1.639388E0,2.1084986E0,1.517874E1,1.0282768E2,1.5723777E0,1.3606362E1,1.3950449E1,8.887723E1],"tree_param":{"num_deleted":"0","num_feature":"10","num_nodes":"17","size_leaf_vector":"1"}},{"base_weights":[4.9056695E-3,-6.443719E-1,3.9429285E-2,-8.0264443E-1,-1.546855E-3,4.03105E-1,-3.8383633E-2,4.9984897E-3,-1.0609933E-1,5.590981E-1,-5.6592923E-1,-3.1381226E-1,1.0583686E-1,3.1916745E-2,1.053514E-1,-9.060399E-2,7.410141E-3,9.0598345E-2,-3.8271286E-2,6.6126026E-2,-4.446633E-4],"categories":[],"categories_nodes":[],"categories_segments":[],"categories_sizes":[],"default_left":[0,0,0,0,0,0,0,0,0,0,0,0,0,0,0,0,0,0,0,0,0],"id":8,"left_children":[1,3,5,7,-1,9,11,-1,-1,13,15,17,19,-1,-1,-1,-1,-1,-1,-1,-1],"loss_changes":[2.915642E0,6.4130497E-1,3.506739E0,1.2045021E0,0E0,3.616507E0,4.10638E0,0E0,0E0,1.9541016E0,8.342582E-1,3.3296676E0,4.1711793E0,0E0,0E0,0E0,0E0,0E0,0E0,0E0,0E0],"parents":[2147483647,0,0,1,1,2,2,3,3,5,5,6,6,9,9,10,10,11,11,12,12],"right_children":[2,4,6,8,-1,10,12,-1,-1,14,16,18,20,-1,-1,-1,-1,-1,-1,-1,-1],"split_conditions":[2.9682282E-1,3E0,6.3333335E0,1.1E0,-1.546855E-3,5E0,7.6666665E0,4.9984897E-3,-1.0609933E-1,6E0,1.1111112E0,6.25E0,4.6218303E-1,3.1916745E-2,1.053514E-1,-9.060399E-2,7.410141E-3,9.0598345E-2,-3.8271286E-2,6.6126026E-2,-4.446633E-4],"split_indices":[4,8,6,3,0,8,6,0,0,6,1,7,4,0,0,0,0,0,0,0,0],"split_type":[0,0,0,0,0,0,0,0,0,0,0,0,0,0,0,0,0,0,0,0,0],"sum_hessian":[1.27939644E2,5.56754E0,1.223721E2,4.2273955E0,1.3401448E0,2.0831427E1,1.0154068E2,1.170596E0,3.0567994E0,1.8307379E1,2.5240483E0,3.449228E1,6.70484E1,1.3433768E1,4.8736105E0,1.3768005E0,1.1472478E0,1.1945833E0,3.3297695E1,1.0279831E1,5.6768566E1],"tree_param":{"num_deleted":"0","num_feature":"10","num_nodes":"21","size_leaf_vector":"1"}},{"base_weights":[4.72939E-3,-5.881604E-1,3.884699E-2,-8.570283E-2,2.3289165E-2,-1.217922E-2,4.2585322E-1,-5.2676648E-2,6.335835E-1,7.9686993E-1,-1.3805068E-1,2.8237088E-2,-1.3613993E-2,1.0086904E-1,-1.1082261E-2,1.0266602E-1,-3.92044E-2,7.846796E-2,-5.359279E-2],"categories":[],"categories_nodes":[],"categories_segments":[],"categories_sizes":[],"default_left":[0,0,0,0,0,0,0,0,0,0,0,0,0,0,0,0,0,0,0],"id":9,"left_children":[1,3,5,-1,-1,7,9,11,13,15,17,-1,-1,-1,-1,-1,-1,-1,-1],"loss_changes":[2.6282322E0,1.7604303E0,2.4288034E0,0E0,0E0,2.8945296E0,3.1069765E0,2.9431617E0,1.9360068E0,2.8032947E0,2.820472E0,0E0,0E0,0E0,0E0,0E0,0E0,0E0,0E0],"parents":[2147483647,0,0,1,1,2,2,5,5,6,6,7,7,8,8,9,9,10,10],"right_children":[2,4,6,-1,-1,8,10,12,14,16,18,-1,-1,-1,-1,-1,-1,-1,-1],"split_conditions":[4.2857143E-1,1.7142857E0,5.6666665E0,-8.570283E-2,2.3289165E-2,2.5E0,1.4285715E0,6.3333335E0,1.2222222E0,6.0897607E-1,4.8836613E-1,2.8237088E-2,-1.3613993E-2,1.0086904E-1,-1.1082261E-2,1.0266602E-1,-3.92044E-2,7.846796E-2,-5.359279E-2],"split_indices":[1,3,8,0,0,2,3,6,1,5,5,0,0,0,0,0,0,0,0],"split_type":[0,0,0,0,0,0,0,0,0,0,0,0,0,0,0,0,0,0,0],"sum_hessian":[1.27801025E2,6.070457E0,1.2173057E2,4.5399528E0,1.5305045E0,1.0840594E2,1.33246355E1,1.0287294E2,5.5329976E0,7.7876644E0,5.536971E0,2.0040594E1,8.2832344E1,3.4430265E0,2.089971E0,6.6406484E0,1.1470158E0,1.3753008E0,4.16167E0],"tree_param":{"num_deleted":"0","num_feature":"10","num_nodes":"19","size_leaf_vector":"1"}},{"base_weights":[5.091642E-3,-6.2222755E-1,3.7970334E-2,-2.4164213E-1,-9.6656725E-2,8.5515356E-1,5.5254535E-3,-8.32577E-2,3.236795E-2,1.2118433E-1,-8.597643E-3,-2.0621061E-2,9.673751E-2,-9.378129E-3,2.7412696E-2],"categories":[],"categories_nodes":[],"categories_segments":[],"categories_sizes":[],"default_left":[0,0,0,0,0,0,0,0,0,0,0,0,0,0,0],"id":10,"left_children":[1,3,5,7,-1,9,11,-1,-1,-1,-1,13,-1,-1,-1],"loss_changes":[2.6772432E0,6.1365604E-1,3.2615337E0,1.7407665E0,0E0,1.681226E0,3.0251255E0,0E0,0E0,0E0,0E0,2.555396E0,0E0,0E0,0E0],"parents":[2147483647,0,0,1,1,2,2,3,3,5,5,6,6,11,11],"right_children":[2,4,6,8,-1,10,12,-1,-1,-1,-1,14,-1,-1,-1],"split_conditions":[2.9682282E-1,2.717237E-1,3.2077023E-1,2.667651E-1,-9.6656725E-2,1.3333334E0,2.142857E0,-8.32577E-2,3.236795E-2,1.2118433E-1,-8.597643E-3,2E0,9.673751E-2,-9.378129E-3,2.7412696E-2],"split_indices":[4,4,4,5,0,2,3,0,0,0,0,0,0,0,0],"split_type":[0,0,0,0,0,0,0,0,0,0,0,0,0,0,0],"sum_hessian":[1.27657524E2,5.464821E0,1.221927E2,3.4041262E0,2.0606947E0,3.697875E0,1.1849483E2,1.4332209E0,1.9709053E0,2.472969E0,1.2249061E0,1.1631162E2,2.183205E0,9.372877E1,2.2582853E1],"tree_param":{"num_deleted":"0","num_feature":"10","num_nodes":"15","size_leaf_vector":"1"}},{"base_weights":[5.127231E-3,-5.942266E-1,3.6007296E-2,-2.3123425E-1,-9.275874E-2,7.9316264E-1,5.90415E-3,-8.011618E-2,3.00135E-2,1.1385681E-1,-1.0210385E-2,-1.8446354E-2,8.946263E-2,-8.35752E-3,2.6264085E-2],"categories":[],"categories_nodes":[],"categories_segments":[],"categories_sizes":[],"default_left":[0,0,0,0,0,0,0,0,0,0,0,0,0,0,0],"id":11,"left_children":[1,3,5,7,-1,9,11,-1,-1,-1,-1,13,-1,-1,-1],"loss_changes":[2.3989825E0,5.540867E-1,2.801345E0,1.5646852E0,0E0,1.5696306E0,2.6006455E0,0E0,0E0,0E0,0E0,2.1676228E0,0E0,0E0,0E0],"parents":[2147483647,0,0,1,1,2,2,3,3,5,5,6,6,11,11],"right_children":[2,4,6,8,-1,10,12,-1,-1,-1,-1,14,-1,-1,-1],"split_conditions":[2.9682282E-1,2.717237E-1,3.2077023E-1,2.667651E-1,-9.275874E-2,1.4E0,2.142857E0,-8.011618E-2,3.00135E-2,1.1385681E-1,-1.0210385E-2,5.3333335E0,8.946263E-2,-8.35752E-3,2.6264085E-2],"split_indices":[4,4,4,5,0,3,3,0,0,0,0,8,0,0,0],"split_type":[0,0,0,0,0,0,0,0,0,0,0,0,0,0,0],"sum_hessian":[1.27462E2,5.351486E0,1.2211051E2,3.3726718E0,1.9788144E0,3.6999931E0,1.1841052E2,1.3823172E0,1.9903548E0,2.4738033E0,1.2261899E0,1.1620579E2,2.2047315E0,9.4916084E1,2.1289701E1],"tree_param":{"num_deleted":"0","num_feature":"10","num_nodes":"15","size_leaf_vector":"1"}},{"base_weights":[5.0854995E-3,-6.5230703E-1,3.148126E-2,-6.2244423E-3,-1.02248244E-1,1.0017074E-3,7.496141E-1,3.9229685E-1,-6.0974244E-2,2.687392E-3,1.1537876E-1,7.800838E-2,-8.172061E-3,2.990583E-2,-1.2330683E-2],"categories":[],"categories_nodes":[],"categories_segments":[],"categories_sizes":[],"default_left":[0,0,0,0,0,0,0,0,0,0,0,0,0,0,0],"id":12,"left_children":[1,3,5,-1,-1,7,9,11,13,-1,-1,-1,-1,-1,-1],"loss_changes":[2.2461114E0,1.0278504E0,2.7191117E0,0E0,0E0,2.9389434E0,1.4464684E0,3.1095898E0,2.3850207E0,0E0,0E0,0E0,0E0,0E0,0E0],"parents":[2147483647,0,0,1,1,2,2,5,5,6,6,7,7,8,8],"right_children":[2,4,6,-1,-1,8,10,12,14,-1,-1,-1,-1,-1,-1],"split_conditions":[2.4E0,2.25E0,1.08E1,-6.2244423E-3,-1.02248244E-1,2.6666667E0,1.3333334E0,1.125E0,4.227522E-1,2.687392E-3,1.1537876E-1,7.800838E-2,-8.172061E-3,2.990583E-2,-1.2330683E-2],"split_indices":[9,9,7,0,0,8,2,3,5,0,0,0,0,0,0],"split_type":[0,0,0,0,0,0,0,0,0,0,0,0,0,0,0],"sum_hessian":[1.27257706E2,3.9970746E0,1.2326063E2,1.991213E0,2.0058615E0,1.1920273E2,4.0579E0,1.5569891E1,1.03632835E2,1.8378896E0,2.2200103E0,8.208746E0,7.361145E0,1.4733643E1,8.889919E1],"tree_param":{"num_deleted":"0","num_feature":"10","num_nodes":"15","size_leaf_vector":"1"}},{"base_weights":[5.2641244E-3,-9.360335E-2,1.8361284E-1,7.020416E-2,-3.0903366E-1,9.2310435E-1,5.3187374E-2,-6.728982E-1,1.6480799E-1,3.4151457E-2,-5.6431013E-1,1.573252E-1,-2.3735598E-1,-5.125246E-1,2.0409441E-1,-8.917081E-2,4.4054314E-3,6.585508E-2,1.7504544E-5,-3.2729115E-2,6.463533E-2,1.43266665E-2,-7.3818274E-2,4.4753816E-2,-8.245427E-2,7.999058E-2,-9.364187E-2,1.0426452E-2,1.18058935E-1],"categories":[],"categories_nodes":[],"categories_segments":[],"categories_sizes":[],"default_left":[0,0,0,0,0,0,0,0,0,0,0,0,0,0,0,0,0,0,0,0,0,0,0,0,0,0,0,0,0],"id":13,"left_children":[1,3,5,7,9,11,13,15,17,19,21,-1,23,25,27,-1,-1,-1,-1,-1,-1,-1,-1,-1,-1,-1,-1,-1,-1],"loss_changes":[2.2749898E0,2.952133E0,4.387932E0,3.4844134E0,3.1778302E0,5.5311294E0,3.5337365E0,9.2030525E-1,3.525366E0,3.8231642E0,2.6563654E0,0E0,1.7056471E0,5.6133003E0,3.037755E0,0E0,0E0,0E0,0E0,0E0,0E0,0E0,0E0,0E0,0E0,0E0,0E0,0E0,0E0],"parents":[2147483647,0,0,1,1,2,2,3,3,4,4,5,5,6,6,7,7,8,8,9,9,10,10,12,12,13,13,14,14],"right_children":[2,4,6,8,10,12,14,16,18,20,22,-1,24,26,28,-1,-1,-1,-1,-1,-1,-1,-1,-1,-1,-1,-1,-1,-1],"split_conditions":[5.359821E-1,1.1666666E0,6.25E-1,4.2857143E-1,4.6963528E-1,5.898143E-1,3.9E0,4.858902E-1,5E-1,7.6666665E0,6.3333335E0,1.573252E-1,8.7E0,3E0,2E0,-8.917081E-2,4.4054314E-3,6.585508E-2,1.7504544E-5,-3.2729115E-2,6.463533E-2,1.43266665E-2,-7.3818274E-2,4.4753816E-2,-8.245427E-2,7.999058E-2,-9.364187E-2,1.0426452E-2,1.18058935E-1],"split_indices":[5,1,3,1,5,5,9,5,0,6,6,0,7,8,3,0,0,0,0,0,0,0,0,0,0,0,0,0,0],"split_type":[0,0,0,0,0,0,0,0,0,0,0,0,0,0,0,0,0,0,0,0,0,0,0,0,0,0,0,0,0],"sum_hessian":[1.27045E2,8.204086E1,4.5004128E1,4.698718E1,3.5053688E1,5.836195E0,3.9167934E1,4.6160254E0,4.2371155E1,1.53217945E1,1.9731892E1,3.5125666E0,2.3236284E0,7.743444E0,3.1424488E1,3.349905E0,1.2661206E0,9.845094E0,3.2526062E1,9.926562E0,5.3952327E0,3.9269888E0,1.5804903E1,1.182356E0,1.1412724E0,1.673874E0,6.0695696E0,2.9513966E1,1.9105238E0],"tree_param":{"num_deleted":"0","num_feature":"10","num_nodes":"29","size_leaf_vector":"1"}},{"base_weights":[5.8524515E-3,-5.7680553E-1,3.5379685E-2,-2.2251546E-1,-9.031706E-2,7.220018E-1,8.1289895E-3,-7.6250814E-2,2.681227E-2,1.0456963E-1,-1.0453348E-2,-2.8057912E-2,5.57901E-1,-8.759516E-3,3.9092477E-2,9.444581E-2,-2.0732401E-2],"categories":[],"categories_nodes":[],"categories_segments":[],"categories_sizes":[],"default_left":[0,0,0,0,0,0,0,0,0,0,0,0,0,0,0,0,0],"id":14,"left_children":[1,3,5,7,-1,9,11,-1,-1,-1,-1,13,15,-1,-1,-1,-1],"loss_changes":[2.218378E0,5.182183E-1,2.286919E0,1.3461419E0,0E0,1.3577385E0,2.3805413E0,0E0,0E0,0E0,0E0,2.8401191E0,2.3814902E0,0E0,0E0,0E0,0E0],"parents":[2147483647,0,0,1,1,2,2,3,3,5,5,6,6,11,11,12,12],"right_children":[2,4,6,8,-1,10,12,-1,-1,-1,-1,14,16,-1,-1,-1,-1],"split_conditions":[2.9682282E-1,2.717237E-1,3.2077023E-1,2.667651E-1,-9.031706E-2,1.3333334E0,2.5E0,-7.6250814E-2,2.681227E-2,1.0456963E-1,-1.0453348E-2,5.6666665E0,1.2222222E0,-8.759516E-3,3.9092477E-2,9.444581E-2,-2.0732401E-2],"split_indices":[4,4,4,5,0,2,2,0,0,0,0,8,1,0,0,0,0],"split_type":[0,0,0,0,0,0,0,0,0,0,0,0,0,0,0,0,0],"sum_hessian":[1.26757225E2,5.219845E0,1.21537384E2,3.3092468E0,1.9105983E0,3.666237E0,1.1787115E2,1.3115975E0,1.9976493E0,2.4439583E0,1.222279E0,1.1148217E2,6.3889756E0,9.830413E1,1.3178039E1,4.0891166E0,2.299859E0],"tree_param":{"num_deleted":"0","num_feature":"10","num_nodes":"17","size_leaf_vector":"1"}},{"base_weights":[5.657245E-3,-5.6652762E-2,2.6623565E-1,-1.4114463E-1,2.048029E-1,5.838626E-1,-4.2613838E-2,6.803866E-2,-3.805466E-1,-4.579463E-1,4.2377454E-1,-6.2188767E-2,1.2842973E0,3.6146128E-1,-4.2687732E-1,2.214893E-2,-4.9292933E-2,4.740613E-2,-4.6194937E-2,6.0308757E-3,-1.05884686E-1,1.1016362E-1,2.0910762E-3,8.8146724E-2,-4.530345E-2,1.5489411E-1,4.9328923E-2,1.1506076E-1,-2.361518E-2,-7.703865E-2,1.0733062E-2],"categories":[],"categories_nodes":[],"categories_segments":[],"categories_sizes":[],"default_left":[0,0,0,0,0,0,0,0,0,0,0,0,0,0,0,0,0,0,0,0,0,0,0,0,0,0,0,0,0,0,0],"id":15,"left_children":[1,3,5,7,9,11,13,15,17,19,21,23,25,27,29,-1,-1,-1,-1,-1,-1,-1,-1,-1,-1,-1,-1,-1,-1,-1,-1],"loss_changes":[2.0855227E0,2.320466E0,2.4560852E0,3.981633E0,3.9299898E0,5.6394906E0,2.2500262E0,3.8109999E0,2.792027E0,2.2044992E0,5.4029875E0,3.1083193E0,4.7960186E-1,3.6297696E0,1.436351E0,0E0,0E0,0E0,0E0,0E0,0E0,0E0,0E0,0E0,0E0,0E0,0E0,0E0,0E0,0E0,0E0],"parents":[2147483647,0,0,1,1,2,2,3,3,4,4,5,5,6,6,7,7,8,8,9,9,10,10,11,11,12,12,13,13,14,14],"right_children":[2,4,6,8,10,12,14,16,18,20,22,24,26,28,30,-1,-1,-1,-1,-1,-1,-1,-1,-1,-1,-1,-1,-1,-1,-1,-1],"split_conditions":[2E0,4.4E0,1.6666666E0,3.5E0,7.4444447E0,5.2928644E-1,8.7E0,8.333333E0,6.25E-1,7.1E0,1E0,4.4953015E-1,1.3333334E0,8.333333E-1,1.5E0,2.214893E-2,-4.9292933E-2,4.740613E-2,-4.6194937E-2,6.0308757E-3,-1.05884686E-1,1.1016362E-1,2.0910762E-3,8.8146724E-2,-4.530345E-2,1.5489411E-1,4.9328923E-2,1.1506076E-1,-2.361518E-2,-7.703865E-2,1.0733062E-2],"split_indices":[0,9,1,8,7,5,7,6,3,7,0,4,3,3,2,0,0,0,0,0,0,0,0,0,0,0,0,0,0,0,0],"split_type":[0,0,0,0,0,0,0,0,0,0,0,0,0,0,0,0,0,0,0,0,0,0,0,0,0,0,0,0,0,0,0],"sum_hessian":[1.2651649E2,1.0273329E2,2.3783194E1,7.799019E1,2.4743107E1,1.1286001E1,1.2497191E1,4.2003983E1,3.5986202E1,5.873814E0,1.8869293E1,6.3449254E0,4.9410763E0,6.1204877E0,6.376704E0,3.345709E1,8.546892E0,2.7101374E0,3.3276066E1,3.6368225E0,2.236992E0,6.38736E0,1.2481934E1,1.4906428E0,4.8542824E0,2.9844103E0,1.9566661E0,2.2388086E0,3.881679E0,3.611992E0,2.764712E0],"tree_param":{"num_deleted":"0","num_feature":"10","num_nodes":"31","size_leaf_vector":"1"}},{"base_weights":[6.8833004E-3,-5.645506E-1,3.559944E-2,-7.1489215E-1,-6.191039E-4,3.1332698E-1,-2.5058975E-2,6.319452E-3,-9.692887E-2,4.62024E-1,-5.927209E-1,-2.678037E-1,1.0013469E-1,2.4241759E-2,9.138485E-2,-9.216202E-2,5.097492E-3,8.469565E-2,-3.3326607E-2,5.679037E-2,4.4987325E-4],"categories":[],"categories_nodes":[],"categories_segments":[],"categories_sizes":[],"default_left":[0,0,0,0,0,0,0,0,0,0,0,0,0,0,0,0,0,0,0,0,0],"id":16,"left_children":[1,3,5,7,-1,9,11,-1,-1,13,15,17,19,-1,-1,-1,-1,-1,-1,-1,-1],"loss_changes":[2.105118E0,5.109148E-1,2.0618408E0,1.0169194E0,0E0,3.2283874E0,3.0960293E0,0E0,0E0,1.7034202E0,7.9425526E-1,2.80982E0,3.0107331E0,0E0,0E0,0E0,0E0,0E0,0E0,0E0,0E0],"parents":[2147483647,0,0,1,1,2,2,3,3,5,5,6,6,9,9,10,10,11,11,12,12],"right_children":[2,4,6,8,-1,10,12,-1,-1,14,16,18,20,-1,-1,-1,-1,-1,-1,-1,-1],"split_conditions":[2.9682282E-1,3E0,6.3333335E0,1.1E0,-6.191039E-4,5E0,7.6666665E0,6.319452E-3,-9.692887E-2,6E0,5.481092E-1,6.25E0,4.6218303E-1,2.4241759E-2,9.138485E-2,-9.216202E-2,5.097492E-3,8.469565E-2,-3.3326607E-2,5.679037E-2,4.4987325E-4],"split_indices":[4,8,6,3,0,8,6,0,0,6,4,7,4,0,0,0,0,0,0,0,0],"split_type":[0,0,0,0,0,0,0,0,0,0,0,0,0,0,0,0,0,0,0,0,0],"sum_hessian":[1.26062744E2,5.13905E0,1.2092369E2,3.827996E0,1.3110542E0,2.0929861E1,9.999383E1,1.1283776E0,2.6996183E0,1.8400166E1,2.529696E0,3.3636024E1,6.63578E1,1.34159565E1,4.984209E0,1.3884816E0,1.1412144E0,1.2035011E0,3.243252E1,1.0425759E1,5.5932045E1],"tree_param":{"num_deleted":"0","num_feature":"10","num_nodes":"21","size_leaf_vector":"1"}},{"base_weights":[6.4003137E-3,-6.089962E-1,3.072147E-2,-2.9932219E-3,-9.8031536E-2,3.2151467E-3,6.737613E-1,9.8550245E-2,-2.0112206E-1,2.1836949E-3,1.0370976E-1,5.156506E-3,1.0895628E-1,-3.4152046E-2,5.490638E-2],"categories":[],"categories_nodes":[],"categories_segments":[],"categories_sizes":[],"default_left":[0,0,0,0,0,0,0,0,0,0,0,0,0,0,0],"id":17,"left_children":[1,3,5,-1,-1,7,9,11,13,-1,-1,-1,-1,-1,-1],"loss_changes":[1.917116E0,1.017842E0,2.1728492E0,0E0,0E0,2.3366084E0,1.1710353E0,3.751023E0,4.2071075E0,0E0,0E0,0E0,0E0,0E0,0E0],"parents":[2147483647,0,0,1,1,2,2,5,5,6,6,7,7,8,8],"right_children":[2,4,6,-1,-1,8,10,12,14,-1,-1,-1,-1,-1,-1],"split_conditions":[2.4E0,2.25E0,1.08E1,-2.9932219E-3,-9.8031536E-2,1.4444444E0,1.3333334E0,6.3333335E0,2.5E0,2.1836949E-3,1.0370976E-1,5.156506E-3,1.0895628E-1,-3.4152046E-2,5.490638E-2],"split_indices":[9,9,7,0,0,3,2,8,2,0,0,0,0,0,0],"split_type":[0,0,0,0,0,0,0,0,0,0,0,0,0,0,0],"sum_hessian":[1.2583819E2,3.8702312E0,1.2196796E2,1.9343171E0,1.9359142E0,1.17928505E2,4.0394464E0,8.0764786E1,3.7163727E1,1.8249999E0,2.2144463E0,7.811336E1,2.651423E0,3.1763828E1,5.399896E0],"tree_param":{"num_deleted":"0","num_feature":"10","num_nodes":"15","size_leaf_vector":"1"}},{"base_weights":[6.7899674E-3,-5.0871694E-1,3.5103187E-2,-7.5640684E-1,2.6841415E-2,7.08152E-1,1.1911885E-2,-2.0340806E-2,-9.866831E-2,-3.0977005E-2,1.1923076E-1,1.6159168E-1,-9.4915606E-2,-9.489754E-3,3.61792E-2,-2.8103864E-2,1.9678958E-2],"categories":[],"categories_nodes":[],"categories_segments":[],"categories_sizes":[],"default_left":[0,0,0,0,0,0,0,0,0,0,0,0,0,0,0,0,0],"id":18,"left_children":[1,3,5,7,-1,9,11,-1,-1,-1,-1,13,15,-1,-1,-1,-1],"loss_changes":[1.8653377E0,1.4839619E0,1.879033E0,4.7525644E-1,0E0,2.3459687E0,1.9007405E0,0E0,0E0,0E0,0E0,2.5749278E0,3.8251543E0,0E0,0E0,0E0,0E0],"parents":[2147483647,0,0,1,1,2,2,3,3,5,5,6,6,11,11,12,12],"right_children":[2,4,6,8,-1,10,12,-1,-1,-1,-1,14,16,-1,-1,-1,-1],"split_conditions":[4.2857143E-1,5E-1,3.3333334E-1,2.5E-1,2.6841415E-2,8.333333E-1,1.1666666E0,-2.0340806E-2,-9.866831E-2,-3.0977005E-2,1.1923076E-1,7.3333335E0,5.481092E-1,-9.489754E-3,3.61792E-2,-2.8103864E-2,1.9678958E-2],"split_indices":[1,0,0,1,0,1,1,0,0,0,0,7,4,0,0,0,0],"split_type":[0,0,0,0,0,0,0,0,0,0,0,0,0,0,0,0,0],"sum_hessian":[1.2557736E2,5.654619E0,1.19922745E2,4.3081713E0,1.3464478E0,3.0107484E0,1.16911995E2,1.8202466E0,2.4879248E0,1.0865325E0,1.9242159E0,4.847679E1,6.84352E1,2.1481491E1,2.6995302E1,4.180073E1,2.6634468E1],"tree_param":{"num_deleted":"0","num_feature":"10","num_nodes":"17","size_leaf_vector":"1"}},{"base_weights":[6.097463E-3,-5.124211E-2,2.4578625E-1,-7.501646E-2,6.6704E-1,5.522121E-1,-5.1508874E-2,6.700332E-2,-2.4180493E-1,2.1041008E-2,8.205696E-2,-4.4693124E-2,1.189405E0,3.386504E-1,-4.2185226E-1,-1.9897277E-2,3.213268E-2,6.6399956E-3,-5.671388E-2,5.1392283E-2,-6.4408645E-2,1.3680857E-1,2.779759E-2,1.0559346E-1,-2.1214668E-2,-7.4762486E-2,8.710756E-3],"categories":[],"categories_nodes":[],"categories_segments":[],"categories_sizes":[],"default_left":[0,0,0,0,0,0,0,0,0,0,0,0,0,0,0,0,0,0,0,0,0,0,0,0,0,0,0],"id":19,"left_children":[1,3,5,7,9,11,13,15,17,-1,-1,19,21,23,25,-1,-1,-1,-1,-1,-1,-1,-1,-1,-1,-1,-1],"loss_changes":[1.7499857E0,1.8061731E0,2.2672918E0,2.3954024E0,6.5414906E-2,4.688589E0,2.0774083E0,3.7865329E0,4.691162E0,0E0,0E0,2.7606943E0,5.8560085E-1,3.0190082E0,1.2778213E0,0E0,0E0,0E0,0E0,0E0,0E0,0E0,0E0,0E0,0E0,0E0,0E0],"parents":[2147483647,0,0,1,1,2,2,3,3,4,4,5,5,6,6,7,7,8,8,11,11,12,12,13,13,14,14],"right_children":[2,4,6,8,10,12,14,16,18,-1,-1,20,22,24,26,-1,-1,-1,-1,-1,-1,-1,-1,-1,-1,-1,-1],"split_conditions":[2E0,1.075E1,1.6666666E0,1.1428572E0,1.4E0,5.2928644E-1,8.7E0,7.375E0,1.2222222E0,2.1041008E-2,8.205696E-2,4.9643525E-1,2.5E0,8.333333E-1,1.5E0,-1.9897277E-2,3.213268E-2,6.6399956E-3,-5.671388E-2,5.1392283E-2,-6.4408645E-2,1.3680857E-1,2.779759E-2,1.0559346E-1,-2.1214668E-2,-7.4762486E-2,8.710756E-3],"split_indices":[0,7,1,1,1,5,7,7,3,0,0,4,0,3,2,0,0,0,0,0,0,0,0,0,0,0,0],"split_type":[0,0,0,0,0,0,0,0,0,0,0,0,0,0,0,0,0,0,0,0,0,0,0,0,0,0,0],"sum_hessian":[1.2541408E2,1.01838066E2,2.3576008E1,9.94422E1,2.3958669E0,1.1187478E1,1.2388531E1,5.403223E1,4.5409973E1,1.1993192E0,1.1965476E0,6.2564564E0,4.9310217E0,6.0745397E0,6.313991E0,2.6517445E1,2.7514784E1,2.3727571E1,2.1682402E1,3.3121915E0,2.9442647E0,3.703865E0,1.2271566E0,2.2401571E0,3.8343825E0,3.5639002E0,2.750091E0],"tree_param":{"num_deleted":"0","num_feature":"10","num_nodes":"27","size_leaf_vector":"1"}},{"base_weights":[7.2063883E-3,-5.177494E-1,3.275561E-2,-1.702639E-1,-8.508565E-2,3.9072856E-1,-1.625385E-2,-7.008704E-2,2.8060287E-2,7.0285314E-1,-1.9275635E-1,-5.408555E-2,5.642835E-1,-6.545624E-3,8.198248E-2,-7.9404645E-2,4.038541E-2,-1.367219E-2,2.7515603E-2,1.038947E-1,-1.398876E-2],"categories":[],"categories_nodes":[],"categories_segments":[],"categories_sizes":[],"default_left":[0,0,0,0,0,0,0,0,0,0,0,0,0,0,0,0,0,0,0,0,0],"id":20,"left_children":[1,3,5,7,-1,9,11,-1,-1,13,15,17,19,-1,-1,-1,-1,-1,-1,-1,-1],"loss_changes":[1.7058057E0,5.38453E-1,2.1294475E0,1.1869788E0,0E0,2.796757E0,2.3893666E0,0E0,0E0,9.285836E-1,2.429114E0,2.8058023E0,2.3708417E0,0E0,0E0,0E0,0E0,0E0,0E0,0E0,0E0],"parents":[2147483647,0,0,1,1,2,2,3,3,5,5,6,6,9,9,10,10,11,11,12,12],"right_children":[2,4,6,8,-1,10,12,-1,-1,14,16,18,20,-1,-1,-1,-1,-1,-1,-1,-1],"split_conditions":[2.9682282E-1,2.717237E-1,3.854655E-1,2.667651E-1,-8.508565E-2,3.5E0,2.5E0,-7.008704E-2,2.8060287E-2,3.5236585E-1,4.3333335E0,5.3333335E0,4.5E0,-6.545624E-3,8.198248E-2,-7.9404645E-2,4.038541E-2,-1.367219E-2,2.7515603E-2,1.038947E-1,-1.398876E-2],"split_indices":[4,4,4,5,0,8,2,0,0,5,8,8,8,0,0,0,0,0,0,0,0],"split_type":[0,0,0,0,0,0,0,0,0,0,0,0,0,0,0,0,0,0,0,0,0],"sum_hessian":[1.2491857E2,4.9034467E0,1.2001512E2,3.1395342E0,1.7639124E0,1.3612768E1,1.0640236E2,1.1875087E0,1.9520255E0,8.735366E0,4.877402E0,1.0074403E2,5.6583204E0,1.2123893E0,7.5229764E0,2.264356E0,2.6130462E0,8.099887E1,1.9745169E1,3.0959811E0,2.5623393E0],"tree_param":{"num_deleted":"0","num_feature":"10","num_nodes":"21","size_leaf_vector":"1"}},{"base_weights":[6.4829593E-3,-4.7853822E-1,3.26565E-2,-7.1435755E-1,2.4067633E-2,5.518518E-1,5.0365035E-3,-1.6861124E-2,-9.508969E-2,-2.7431378E-2,8.1397116E-1,9.4154246E-2,-2.064704E-1,2.0864777E-2,1.3098793E-1,-1.2013707E-2,2.2598028E-2,-3.16013E-2,4.354305E-2],"categories":[],"categories_nodes":[],"categories_segments":[],"categories_sizes":[],"default_left":[0,0,0,0,0,0,0,0,0,0,0,0,0,0,0,0,0,0,0],"id":21,"left_children":[1,3,5,7,-1,9,11,-1,-1,-1,13,15,17,-1,-1,-1,-1,-1,-1],"loss_changes":[1.6107006E0,1.2738812E0,1.7202117E0,5.038235E-1,0E0,1.5355381E0,2.1888046E0,0E0,0E0,0E0,1.1832707E0,2.3339891E0,2.5586467E0,0E0,0E0,0E0,0E0,0E0,0E0],"parents":[2147483647,0,0,1,1,2,2,3,3,5,5,6,6,10,10,11,11,12,12],"right_children":[2,4,6,8,-1,10,12,-1,-1,-1,14,16,18,-1,-1,-1,-1,-1,-1],"split_conditions":[4.2857143E-1,5E-1,6.2E0,2.5E-1,2.4067633E-2,2.9340577E-1,1.4444444E0,-1.6861124E-2,-9.508969E-2,-2.7431378E-2,1.5555556E0,7.4444447E0,9.666667E0,2.0864777E-2,1.3098793E-1,-1.2013707E-2,2.2598028E-2,-3.16013E-2,4.354305E-2],"split_indices":[1,0,7,1,0,4,3,0,0,0,3,7,7,0,0,0,0,0,0],"split_type":[0,0,0,0,0,0,0,0,0,0,0,0,0,0,0,0,0,0,0],"sum_hessian":[1.2464854E2,5.4971786E0,1.1915136E2,4.144887E0,1.3522913E0,5.059712E0,1.14091644E2,1.7711934E0,2.3736937E0,1.207454E0,3.8522582E0,8.066046E1,3.3431183E1,2.3745434E0,1.4777147E0,3.0754995E1,4.9905468E1,2.8991394E1,4.4397883E0],"tree_param":{"num_deleted":"0","num_feature":"10","num_nodes":"19","size_leaf_vector":"1"}},{"base_weights":[6.200525E-3,-5.60135E-1,2.8063903E-2,-1.908749E-3,-9.15851E-2,3.4266827E-1,-2.0166855E-2,-6.2374737E-2,4.8260763E-1,-4.853667E-2,5.655401E-1,7.298736E-2,-2.5045509E-2,2.9021353E-2,-1.0783228E-2,-4.4148025E-4,8.97E-2],"categories":[],"categories_nodes":[],"categories_segments":[],"categories_sizes":[],"default_left":[0,0,0,0,0,0,0,0,0,0,0,0,0,0,0,0,0],"id":22,"left_children":[1,3,5,-1,-1,7,9,-1,11,13,15,-1,-1,-1,-1,-1,-1],"loss_changes":[1.5687058E0,8.8894045E-1,1.8537376E0,0E0,0E0,2.496586E0,1.7967386E0,0E0,2.8554864E0,2.089754E0,9.4821656E-1,0E0,0E0,0E0,0E0,0E0,0E0],"parents":[2147483647,0,0,1,1,2,2,5,5,6,6,8,8,9,9,10,10],"right_children":[2,4,6,-1,-1,8,10,-1,12,14,16,-1,-1,-1,-1,-1,-1],"split_conditions":[2.4E0,2.25E0,2.6666667E0,-1.908749E-3,-9.15851E-2,6.5555553E0,1.08E1,-6.2374737E-2,8.1E0,4.227522E-1,1.3333334E0,7.298736E-2,-2.5045509E-2,2.9021353E-2,-1.0783228E-2,-4.4148025E-4,8.97E-2],"split_indices":[9,9,8,0,0,7,7,0,7,5,2,0,0,0,0,0,0],"split_type":[0,0,0,0,0,0,0,0,0,0,0,0,0,0,0,0,0],"sum_hessian":[1.244228E2,3.7096817E0,1.2071312E2,1.8894575E0,1.8202243E0,1.5234598E1,1.05478516E2,1.4896774E0,1.3744921E1,1.0148026E2,3.9982555E0,1.0281325E1,3.4635954E0,1.4537063E1,8.69432E1,1.8330147E0,2.1652408E0],"tree_param":{"num_deleted":"0","num_feature":"10","num_nodes":"17","size_leaf_vector":"1"}},{"base_weights":[5.5146646E-3,-5.080464E-1,3.0132404E-2,-6.6702116E-1,3.3446425E-3,2.9276097E-1,-2.7351452E-2,3.0099566E-3,-9.038241E-2,4.3240422E-1,-5.702457E-1,-1.5561628E-1,1.5786055E-1,2.2330714E-2,8.593135E-2,-8.87184E-2,5.4051164E-3,1.2260023E-2,-3.6568385E-2,7.324602E-2,4.6894145E-3],"categories":[],"categories_nodes":[],"categories_segments":[],"categories_sizes":[],"default_left":[0,0,0,0,0,0,0,0,0,0,0,0,0,0,0,0,0,0,0,0,0],"id":23,"left_children":[1,3,5,7,-1,9,11,-1,-1,13,15,17,19,-1,-1,-1,-1,-1,-1,-1,-1],"loss_changes":[1.5982773E0,5.2016103E-1,1.826047E0,7.731242E-1,0E0,2.8629842E0,2.393392E0,0E0,0E0,1.5269687E0,7.3156893E-1,3.5174637E0,2.5987546E0,0E0,0E0,0E0,0E0,0E0,0E0,0E0,0E0],"parents":[2147483647,0,0,1,1,2,2,3,3,5,5,6,6,9,9,10,10,11,11,12,12],"right_children":[2,4,6,8,-1,10,12,-1,-1,14,16,18,20,-1,-1,-1,-1,-1,-1,-1,-1],"split_conditions":[2.9682282E-1,3E0,6.3333335E0,1.1E0,3.3446425E-3,5E0,5.359821E-1,3.0099566E-3,-9.038241E-2,6E0,1.1111112E0,4.6604794E-1,6.25E-1,2.2330714E-2,8.593135E-2,-8.87184E-2,5.4051164E-3,1.2260023E-2,-3.6568385E-2,7.324602E-2,4.6894145E-3],"split_indices":[4,8,6,3,0,8,5,0,0,6,1,5,3,0,0,0,0,0,0,0,0],"split_type":[0,0,0,0,0,0,0,0,0,0,0,0,0,0,0,0,0,0,0,0,0],"sum_hessian":[1.2420801E2,4.7833395E0,1.1942467E2,3.518529E0,1.2648107E0,2.0710577E1,9.871409E1,1.1134756E0,2.4050534E0,1.8255592E1,2.4549842E0,5.8417812E1,4.029628E1,1.3276122E1,4.9794707E0,1.3490272E0,1.1059572E0,2.5311405E1,3.3106407E1,5.6158557E0,3.4680424E1],"tree_param":{"num_deleted":"0","num_feature":"10","num_nodes":"21","size_leaf_vector":"1"}},{"base_weights":[4.773662E-3,-4.8294133E-1,2.7689176E-2,-1.4660083E-1,-8.113936E-2,6.3473856E-1,3.7386334E-3,-6.580742E-2,2.6930261E-2,9.2284806E-2,-9.348654E-3,-2.6064642E-2,4.5217082E-1,-7.736642E-3,3.3288896E-2,7.674696E-2,-1.8251223E-2],"categories":[],"categories_nodes":[],"categories_segments":[],"categories_sizes":[],"default_left":[0,0,0,0,0,0,0,0,0,0,0,0,0,0,0,0,0],"id":24,"left_children":[1,3,5,7,-1,9,11,-1,-1,-1,-1,13,15,-1,-1,-1,-1],"loss_changes":[1.409748E0,5.064535E-1,1.7464012E0,1.0318464E0,0E0,1.0428945E0,1.5717293E0,0E0,0E0,0E0,0E0,2.0586245E0,1.6066045E0,0E0,0E0,0E0,0E0],"parents":[2147483647,0,0,1,1,2,2,3,3,5,5,6,6,11,11,12,12],"right_children":[2,4,6,8,-1,10,12,-1,-1,-1,-1,14,16,-1,-1,-1,-1],"split_conditions":[2.9682282E-1,2.717237E-1,3.2077023E-1,2.667651E-1,-8.113936E-2,1.3333334E0,2.5E0,-6.580742E-2,2.6930261E-2,9.2284806E-2,-9.348654E-3,5.6666665E0,1.2222222E0,-7.736642E-3,3.3288896E-2,7.674696E-2,-1.8251223E-2],"split_indices":[4,4,4,5,0,2,2,0,0,0,0,8,1,0,0,0,0],"split_type":[0,0,0,0,0,0,0,0,0,0,0,0,0,0,0,0,0],"sum_hessian":[1.23941475E2,4.661212E0,1.19280266E2,3.0175402E0,1.6436718E0,3.559492E0,1.1572077E2,1.0921501E0,1.92539E0,2.3589559E0,1.2005361E0,1.0939232E2,6.3284526E0,9.639935E1,1.2992965E1,4.0882626E0,2.2401903E0],"tree_param":{"num_deleted":"0","num_feature":"10","num_nodes":"17","size_leaf_vector":"1"}},{"base_weights":[4.642335E-3,-4.579223E-1,2.9191306E-2,-7.989546E-1,9.3989536E-2,6.713893E-1,7.1618035E-3,-9.10589E-2,-2.4131535E-2,6.003179E-2,-4.1804764E-2,-2.4254855E-2,1.07193165E-1,1.3661519E-1,-8.622056E-2,5.9382476E-2,2.0536948E-3,-8.50543E-2,-2.6164758E-3],"categories":[],"categories_nodes":[],"categories_segments":[],"categories_sizes":[],"default_left":[0,0,0,0,0,0,0,0,0,0,0,0,0,0,0,0,0,0,0],"id":25,"left_children":[1,3,5,7,9,11,13,-1,-1,-1,-1,-1,-1,15,17,-1,-1,-1,-1],"loss_changes":[1.4289577E0,1.2688698E0,1.6832321E0,3.0849934E-2,1.1109358E0,1.7046942E0,1.4185658E0,0E0,0E0,0E0,0E0,0E0,0E0,2.5965292E0,3.1090894E0,0E0,0E0,0E0,0E0],"parents":[2147483647,0,0,1,1,2,2,3,3,4,4,5,5,6,6,13,13,14,14],"right_children":[2,4,6,8,10,12,14,-1,-1,-1,-1,-1,-1,16,18,-1,-1,-1,-1],"split_conditions":[4.2857143E-1,4.858902E-1,3.3333334E-1,4.8451337E-1,6E0,8.333333E-1,1.1666666E0,-9.10589E-2,-2.4131535E-2,6.003179E-2,-4.1804764E-2,-2.4254855E-2,1.07193165E-1,5E-1,5E-1,5.9382476E-2,2.0536948E-3,-8.50543E-2,-2.6164758E-3],"split_indices":[1,5,0,4,6,1,1,0,0,0,0,0,0,0,0,0,0,0,0],"split_type":[0,0,0,0,0,0,0,0,0,0,0,0,0,0,0,0,0,0,0],"sum_hessian":[1.23661354E2,5.342461E0,1.1831889E2,3.025413E0,2.317048E0,2.9465005E0,1.1537239E2,1.9934138E0,1.0319993E0,1.07833E0,1.238718E0,1.018039E0,1.9284616E0,4.8154366E1,6.7218025E1,8.916862E0,3.9237507E1,3.9379325E0,6.3280094E1],"tree_param":{"num_deleted":"0","num_feature":"10","num_nodes":"19","size_leaf_vector":"1"}},{"base_weights":[3.7517664E-3,-4.7184482E-2,2.155402E-1,9.658925E-3,-3.5391703E-1,3.856239E-1,-2.668746E-1,-1.6559392E-1,1.5002517E-1,-5.221539E-1,6.6848956E-2,6.6958168E-3,7.925017E-1,3.781646E-2,-5.867089E-1,2.3017546E-2,-4.5240015E-2,7.3392436E-2,2.8131788E-3,8.515453E-3,-9.531665E-2,3.0239925E-2,-9.451245E-2,1.0873218E-1,6.0561225E-3,-1.039268E-1,2.1524262E-2],"categories":[],"categories_nodes":[],"categories_segments":[],"categories_sizes":[],"default_left":[0,0,0,0,0,0,0,0,0,0,0,0,0,0,0,0,0,0,0,0,0,0,0,0,0,0,0],"id":26,"left_children":[1,3,5,7,9,11,13,15,17,19,-1,21,23,-1,25,-1,-1,-1,-1,-1,-1,-1,-1,-1,-1,-1,-1],"loss_changes":[1.3534659E0,1.7679071E0,2.0985003E0,2.1490412E0,3.0751262E0,2.83011E0,1.65172E0,4.517192E0,3.4293082E0,3.7904563E0,0E0,3.2497916E0,1.8459973E0,0E0,2.0475192E0,0E0,0E0,0E0,0E0,0E0,0E0,0E0,0E0,0E0,0E0,0E0,0E0],"parents":[2147483647,0,0,1,1,2,2,3,3,4,4,5,5,6,6,7,7,8,8,9,9,11,11,12,12,14,14],"right_children":[2,4,6,8,10,12,14,16,18,20,-1,22,24,-1,26,-1,-1,-1,-1,-1,-1,-1,-1,-1,-1,-1,-1],"split_conditions":[2E0,1.6666666E0,5.9484386E-1,7.5E0,6E0,5.2928644E-1,9E0,6.714286E0,7.625E0,3.5E0,6.6848956E-2,5.014487E-1,4.625E0,3.781646E-2,1.06E1,2.3017546E-2,-4.5240015E-2,7.3392436E-2,2.8131788E-3,8.515453E-3,-9.531665E-2,3.0239925E-2,-9.451245E-2,1.0873218E-1,6.0561225E-3,-1.039268E-1,2.1524262E-2],"split_indices":[0,0,5,7,8,5,6,7,7,8,0,5,9,0,7,0,0,0,0,0,0,0,0,0,0,0,0],"split_type":[0,0,0,0,0,0,0,0,0,0,0,0,0,0,0,0,0,0,0,0,0,0,0,0,0,0,0],"sum_hessian":[1.2352096E2,1.0019962E2,2.3321335E1,8.535097E1,1.4848656E1,1.7390612E1,5.930723E0,3.7878468E1,4.74725E1,1.3170707E1,1.6779486E0,9.530887E0,7.8597245E0,1.9054502E0,4.025273E0,1.5998829E1,2.1879637E1,7.331549E0,4.0140953E1,5.800324E0,7.3703833E0,7.792327E0,1.7385601E0,5.2567945E0,2.6029305E0,2.3840032E0,1.6412699E0],"tree_param":{"num_deleted":"0","num_feature":"10","num_nodes":"27","size_leaf_vector":"1"}},{"base_weights":[3.4272047E-3,-5.228436E-1,2.3362132E-2,-4.7375332E-4,-8.9953884E-2,3.0375165E-1,-1.9528834E-2,-6.1921027E-2,4.3794793E-1,-1.5985349E-1,8.086292E-2,6.563135E-2,-2.2034235E-2,-2.1719493E-2,1.0333464E-1,1.8117685E-2,-3.130534E-2],"categories":[],"categories_nodes":[],"categories_segments":[],"categories_sizes":[],"default_left":[0,0,0,0,0,0,0,0,0,0,0,0,0,0,0,0,0],"id":27,"left_children":[1,3,5,-1,-1,7,9,-1,11,13,15,-1,-1,-1,-1,-1,-1],"loss_changes":[1.3147506E0,8.8845384E-1,1.4560647E0,0E0,0E0,2.260149E0,1.4994737E0,0E0,2.2441535E0,3.258492E0,2.5137088E0,0E0,0E0,0E0,0E0,0E0,0E0],"parents":[2147483647,0,0,1,1,2,2,5,5,6,6,8,8,9,9,10,10],"right_children":[2,4,6,-1,-1,8,10,-1,12,14,16,-1,-1,-1,-1,-1,-1],"split_conditions":[2.4E0,6.5555553E0,2.6666667E0,-4.7375332E-4,-8.9953884E-2,6.5555553E0,7.6666665E0,-6.1921027E-2,8.1E0,6.47152E-1,6.4100033E-1,6.563135E-2,-2.2034235E-2,-2.1719493E-2,1.0333464E-1,1.8117685E-2,-3.130534E-2],"split_indices":[9,7,8,0,0,7,6,0,7,4,4,0,0,0,0,0,0],"split_type":[0,0,0,0,0,0,0,0,0,0,0,0,0,0,0,0,0],"sum_hessian":[1.2315543E2,3.5740855E0,1.1958135E2,1.930902E0,1.6431834E0,1.5058437E1,1.0452291E2,1.4527367E0,1.36057005E1,4.3344685E1,6.117823E1,1.0218921E1,3.3867798E0,4.2137653E1,1.2070309E0,4.9191326E1,1.1986901E1],"tree_param":{"num_deleted":"0","num_feature":"10","num_nodes":"17","size_leaf_vector":"1"}},{"base_weights":[2.6765727E-3,-4.7394687E-1,2.4729231E-2,-6.3829094E-1,5.27685E-3,5.975511E-1,2.2937949E-3,1.1595088E-3,-8.618044E-2,8.790832E-2,-9.579742E-3,-2.546956E-2,4.2034736E-1,-7.1380916E-3,2.9338608E-2,1.1076315E-1,9.701238E-3],"categories":[],"categories_nodes":[],"categories_segments":[],"categories_sizes":[],"default_left":[0,0,0,0,0,0,0,0,0,0,0,0,0,0,0,0,0],"id":28,"left_children":[1,3,5,7,-1,9,11,-1,-1,-1,-1,13,15,-1,-1,-1,-1],"loss_changes":[1.314902E0,5.12589E-1,1.5337721E0,6.33608E-1,0E0,9.622897E-1,1.356534E0,0E0,0E0,0E0,0E0,1.6264968E0,1.5099277E0,0E0,0E0,0E0,0E0],"parents":[2147483647,0,0,1,1,2,2,3,3,5,5,6,6,11,11,12,12],"right_children":[2,4,6,8,-1,10,12,-1,-1,-1,-1,14,16,-1,-1,-1,-1],"split_conditions":[2.9682282E-1,3E0,3.2077023E-1,1.1E0,5.27685E-3,1.3333334E0,2.5E0,1.1595088E-3,-8.618044E-2,8.790832E-2,-9.579742E-3,5.6666665E0,4.731952E-1,-7.1380916E-3,2.9338608E-2,1.1076315E-1,9.701238E-3],"split_indices":[4,8,4,3,0,2,2,0,0,0,0,8,5,0,0,0,0],"split_type":[0,0,0,0,0,0,0,0,0,0,0,0,0,0,0,0,0],"sum_hessian":[1.2298484E2,4.5324984E0,1.1845235E2,3.2931478E0,1.2393508E0,3.4983435E0,1.14954E2,1.0853925E0,2.2077553E0,2.2975497E0,1.2007937E0,1.08675804E2,6.278193E0,9.567579E1,1.3000021E1,1.2325742E0,5.045619E0],"tree_param":{"num_deleted":"0","num_feature":"10","num_nodes":"17","size_leaf_vector":"1"}},{"base_weights":[3.5222468E-3,-4.1435444E-1,2.8079767E-2,-8.189257E-1,1.4408238E-1,5.147954E-1,2.2136648E-3,-9.325489E-2,-2.3990251E-2,5.8333457E-2,-2.4244845E-2,4.5284446E-2,9.554022E-2,-6.808644E-1,2.2175934E-2,-5.2015997E-2,5.5153944E-2,-2.1043329E-2,-7.986629E-2,2.8306106E-2,-4.930612E-3],"categories":[],"categories_nodes":[],"categories_segments":[],"categories_sizes":[],"default_left":[0,0,0,0,0,0,0,0,0,0,0,0,0,0,0,0,0,0,0,0,0],"id":29,"left_children":[1,3,5,7,9,11,13,-1,-1,-1,-1,15,-1,17,19,-1,-1,-1,-1,-1,-1],"loss_changes":[1.2810102E0,1.6835117E0,1.4814829E0,5.048275E-2,7.8006697E-1,1.1852295E0,1.5536067E0,0E0,0E0,0E0,0E0,1.4103708E0,0E0,1.1218309E-2,2.0763702E0,0E0,0E0,0E0,0E0,0E0,0E0],"parents":[2147483647,0,0,1,1,2,2,3,3,4,4,5,5,6,6,11,11,13,13,14,14],"right_children":[2,4,6,8,10,12,14,-1,-1,-1,-1,16,-1,18,20,-1,-1,-1,-1,-1,-1],"split_conditions":[5E-1,4.858902E-1,6.2E0,4.8451337E-1,5.1004446E-1,4.000292E-1,2.4E0,-9.325489E-2,-2.3990251E-2,5.8333457E-2,-2.4244845E-2,1.5555556E0,9.554022E-2,1.1E0,1E0,-5.2015997E-2,5.5153944E-2,-2.1043329E-2,-7.986629E-2,2.8306106E-2,-4.930612E-3],"split_indices":[1,5,7,4,5,5,9,0,0,0,0,3,0,3,1,0,0,0,0,0,0],"split_type":[0,0,0,0,0,0,0,0,0,0,0,0,0,0,0,0,0,0,0,0,0],"sum_hessian":[1.2269648E2,5.929298E0,1.1676718E2,3.1678338E0,2.7614644E0,4.9384947E0,1.1182869E2,2.1377773E0,1.0300565E0,1.0542567E0,1.7072076E0,2.924704E0,2.0137906E0,2.2352233E0,1.0959346E2,1.3686123E0,1.5560918E0,1.0056238E0,1.2295995E0,2.2933634E1,8.665983E1],"tree_param":{"num_deleted":"0","num_feature":"10","num_nodes":"21","size_leaf_vector":"1"}},{"base_weights":[2.5877042E-3,-4.5874596E-1,2.3578215E-2,-1.3260534E-1,-7.7882595E-2,2.5053015E-1,-2.6167333E-2,-6.2425684E-2,2.5801618E-2,3.888553E-1,-5.935349E-1,-1.3541128E-1,1.5992145E-1,-2.991123E-2,4.8840057E-2,-8.784753E-2,1.0335261E-3,1.0739004E-2,-3.0057237E-2,6.776245E-2,4.6308273E-3],"categories":[],"categories_nodes":[],"categories_segments":[],"categories_sizes":[],"default_left":[0,0,0,0,0,0,0,0,0,0,0,0,0,0,0,0,0,0,0,0,0],"id":30,"left_children":[1,3,5,7,-1,9,11,-1,-1,13,15,17,19,-1,-1,-1,-1,-1,-1,-1,-1],"loss_changes":[1.207473E0,4.6323478E-1,1.3517231E0,9.0874875E-1,0E0,2.742844E0,2.0267715E0,0E0,0E0,1.4534545E0,5.9846056E-1,2.5462308E0,2.141527E0,0E0,0E0,0E0,0E0,0E0,0E0,0E0,0E0],"parents":[2147483647,0,0,1,1,2,2,3,3,5,5,6,6,9,9,10,10,11,11,12,12],"right_children":[2,4,6,8,-1,10,12,-1,-1,14,16,18,20,-1,-1,-1,-1,-1,-1,-1,-1],"split_conditions":[2.9682282E-1,2.717237E-1,6.3333335E0,2.667651E-1,-7.7882595E-2,5E0,5.405791E-1,-6.2425684E-2,2.5801618E-2,5E-1,1.1111112E0,4.6604794E-1,6.25E-1,-2.991123E-2,4.8840057E-2,-8.784753E-2,1.0335261E-3,1.0739004E-2,-3.0057237E-2,6.776245E-2,4.6308273E-3],"split_indices":[4,4,6,5,0,8,5,0,0,2,1,5,3,0,0,0,0,0,0,0,0],"split_type":[0,0,0,0,0,0,0,0,0,0,0,0,0,0,0,0,0,0,0,0,0],"sum_hessian":[1.2257522E2,4.4268174E0,1.181484E2,2.893162E0,1.5336553E0,2.0515446E1,9.763295E1,1.0161208E0,1.8770411E0,1.8090145E1,2.4253013E0,6.1689995E1,3.5942955E1,2.0332637E0,1.605688E1,1.3388252E0,1.0864761E0,2.5116428E1,3.6573566E1,5.5749907E0,3.0367966E1],"tree_param":{"num_deleted":"0","num_feature":"10","num_nodes":"21","size_leaf_vector":"1"}},{"base_weights":[1.1646192E-3,-4.205332E-1,2.3054866E-2,-8.7902285E-2,-1.3864457E-2,6.3108265E-1,2.340464E-3,3.5807233E-2,-4.7510646E-2,-4.0615606E-3,9.446351E-2,7.2947666E-2,-1.5559323E-1,2.2602857E-4,3.3234682E-2,-4.2734664E-2,9.909947E-3],"categories":[],"categories_nodes":[],"categories_segments":[],"categories_sizes":[],"default_left":[0,0,0,0,0,0,0,0,0,0,0,0,0,0,0,0,0],"id":31,"left_children":[1,3,5,-1,7,9,11,-1,-1,-1,-1,13,15,-1,-1,-1,-1],"loss_changes":[1.1480658E0,1.1321815E0,1.4870158E0,0E0,9.02416E-1,8.57623E-1,1.2970011E0,0E0,0E0,0E0,0E0,1.4726324E0,2.5297766E0,0E0,0E0,0E0,0E0],"parents":[2147483647,0,0,1,1,2,2,4,4,5,5,6,6,11,11,12,12],"right_children":[2,4,6,-1,8,10,12,-1,-1,-1,-1,14,16,-1,-1,-1,-1],"split_conditions":[4.2857143E-1,3.375E0,3.3333334E-1,-8.7902285E-2,4.25E0,4.8663658E-1,1.4285715E0,3.5807233E-2,-4.7510646E-2,-4.0615606E-3,9.446351E-2,4.4E0,5.5550313E-1,2.2602857E-4,3.3234682E-2,-4.2734664E-2,9.909947E-3],"split_indices":[1,9,0,0,9,5,1,0,0,0,0,9,5,0,0,0,0],"split_type":[0,0,0,0,0,0,0,0,0,0,0,0,0,0,0,0,0],"sum_hessian":[1.2231945E2,5.137559E0,1.1718189E2,1.8689418E0,3.2686174E0,2.889872E0,1.14292015E2,1.9333106E0,1.3353069E0,1.1967138E0,1.6931581E0,7.9353615E1,3.49384E1,6.3152897E1,1.6200722E1,1.657511E1,1.8363293E1],"tree_param":{"num_deleted":"0","num_feature":"10","num_nodes":"17","size_leaf_vector":"1"}},{"base_weights":[8.9058856E-4,-4.62278E-2,1.966853E-1,6.4767543E-3,-3.3261687E-1,3.6394218E-1,-2.7864635E-1,4.9337843E-1,-3.6329195E-2,-4.86427E-1,5.854375E-2,1.7145082E-2,7.297563E-1,3.0625949E-2,-5.613861E-1,1.0011353E-1,-9.038744E-3,-8.2093365E-2,1.9113005E-3,6.8378276E-3,-8.939453E-2,-6.0483273E-2,4.8426848E-2,1.0041758E-1,4.9470365E-3,-1.0026347E-1,1.9933729E-2],"categories":[],"categories_nodes":[],"categories_segments":[],"categories_sizes":[],"default_left":[0,0,0,0,0,0,0,0,0,0,0,0,0,0,0,0,0,0,0,0,0,0,0,0,0,0,0],"id":32,"left_children":[1,3,5,7,9,11,13,15,17,19,-1,21,23,-1,25,-1,-1,-1,-1,-1,-1,-1,-1,-1,-1,-1,-1],"loss_changes":[1.1452824E0,1.5127288E0,2.0157804E0,1.800019E0,2.48391E0,2.3021686E0,1.3020928E0,2.158903E0,3.4750698E0,3.2005045E0,0E0,3.311688E0,1.6034489E0,0E0,1.864746E0,0E0,0E0,0E0,0E0,0E0,0E0,0E0,0E0,0E0,0E0,0E0,0E0],"parents":[2147483647,0,0,1,1,2,2,3,3,4,4,5,5,6,6,7,7,8,8,9,9,11,11,12,12,14,14],"right_children":[2,4,6,8,10,12,14,16,18,20,-1,22,24,-1,26,-1,-1,-1,-1,-1,-1,-1,-1,-1,-1,-1,-1],"split_conditions":[2E0,1.6666666E0,5.9484386E-1,3.8882735E-1,6E0,5.2928644E-1,9E0,1.5E0,4.1304997E-1,3.5E0,5.854375E-2,1.125E0,4.625E0,3.0625949E-2,1.06E1,1.0011353E-1,-9.038744E-3,-8.2093365E-2,1.9113005E-3,6.8378276E-3,-8.939453E-2,-6.0483273E-2,4.8426848E-2,1.0041758E-1,4.9470365E-3,-1.0026347E-1,1.9933729E-2],"split_indices":[0,0,5,5,8,5,6,2,5,8,0,3,9,0,7,0,0,0,0,0,0,0,0,0,0,0,0],"split_type":[0,0,0,0,0,0,0,0,0,0,0,0,0,0,0,0,0,0,0,0,0,0,0,0,0,0,0],"sum_hessian":[1.2215713E2,9.907776E1,2.3079365E1,8.45038E1,1.457396E1,1.7245472E1,5.833894E0,5.97819E0,7.852561E1,1.2885318E1,1.6886418E0,9.390248E0,7.8552237E0,1.8739842E0,3.9599097E0,2.8148694E0,3.1633208E0,4.2713594E0,7.425425E1,5.8090057E0,7.0763125E0,3.9011023E0,5.4891458E0,5.2580705E0,2.597153E0,2.3049495E0,1.6549602E0],"tree_param":{"num_deleted":"0","num_feature":"10","num_nodes":"27","size_leaf_vector":"1"}},{"base_weights":[8.527628E-4,-4.4155657E-1,2.0761397E-2,-6.003454E-1,4.9475767E-3,1.4817554E-1,-6.35873E-2,1.8472174E-3,-8.217323E-2,5.7527286E-1,2.8304791E-2,-5.5009663E-1,4.6798658E-2,2.8247172E-2,9.5038556E-2,2.8809825E-2,-2.8206175E-2,5.912761E-4,-8.5626565E-2,-2.1554502E-2,2.305136E-2],"categories":[],"categories_nodes":[],"categories_segments":[],"categories_sizes":[],"default_left":[0,0,0,0,0,0,0,0,0,0,0,0,0,0,0,0,0,0,0,0,0],"id":33,"left_children":[1,3,5,7,-1,9,11,-1,-1,13,15,17,19,-1,-1,-1,-1,-1,-1,-1,-1],"loss_changes":[1.0910343E0,4.4562304E-1,1.2829316E0,5.778285E-1,0E0,2.4155238E0,3.8922663E0,0E0,0E0,8.691976E-1,3.156656E0,2.285008E0,2.9223921E0,0E0,0E0,0E0,0E0,0E0,0E0,0E0,0E0],"parents":[2147483647,0,0,1,1,2,2,3,3,5,5,6,6,9,9,10,10,11,11,12,12],"right_children":[2,4,6,8,-1,10,12,-1,-1,14,16,18,20,-1,-1,-1,-1,-1,-1,-1,-1],"split_conditions":[2.9682282E-1,3E0,3.5E0,1.1E0,4.9475767E-3,3.8751248E-1,3.5714285E0,1.8472174E-3,-8.217323E-2,7.888889E0,7.625E0,7.3333335E0,8E0,2.8247172E-2,9.5038556E-2,2.8809825E-2,-2.8206175E-2,5.912761E-4,-8.5626565E-2,-2.1554502E-2,2.305136E-2],"split_indices":[4,8,8,3,0,4,9,0,0,7,7,6,7,0,0,0,0,0,0,0,0],"split_type":[0,0,0,0,0,0,0,0,0,0,0,0,0,0,0,0,0,0,0,0,0],"sum_hessian":[1.21831024E2,4.334336E0,1.1749669E2,3.1069872E0,1.2273487E0,4.64995E1,7.0997185E1,1.0601718E0,2.0468156E0,9.358001E0,3.71415E1,1.2393098E1,5.860409E1,6.24016E0,3.1178405E0,2.0257029E1,1.6884472E1,4.749178E0,7.64392E0,2.4065485E1,3.4538605E1],"tree_param":{"num_deleted":"0","num_feature":"10","num_nodes":"21","size_leaf_vector":"1"}},{"base_weights":[3.0049146E-4,-4.5671913E-1,2.0118238E-2,1.3212517E-2,-8.304582E-2,4.4806203E-1,-1.7132323E-2,-5.1461583E-1,1.024448E0,1.3788049E-1,-1.2769851E-1,1.5052815E-2,-8.212613E-2,1.2930678E-1,-1.1427643E-2,5.04253E-2,4.05965E-4,-6.912078E-2,-4.9843397E-3],"categories":[],"categories_nodes":[],"categories_segments":[],"categories_sizes":[],"default_left":[0,0,0,0,0,0,0,0,0,0,0,0,0,0,0,0,0,0,0],"id":34,"left_children":[1,3,5,-1,-1,7,9,11,13,15,17,-1,-1,-1,-1,-1,-1,-1,-1],"loss_changes":[1.1187462E0,1.2395142E0,1.8946823E0,0E0,0E0,5.8071566E0,1.9004773E0,9.8623776E-1,2.0706558E0,2.2638884E0,2.8014722E0,0E0,0E0,0E0,0E0,0E0,0E0,0E0,0E0],"parents":[2147483647,0,0,1,1,2,2,5,5,6,6,7,7,8,8,9,9,10,10],"right_children":[2,4,6,-1,-1,8,10,12,14,16,18,-1,-1,-1,-1,-1,-1,-1,-1],"split_conditions":[5E-1,3E-1,6.25E-1,1.3212517E-2,-8.304582E-2,4.4052866E-1,3.5E0,7E0,5.8949786E-1,1E0,9E-1,1.5052815E-2,-8.212613E-2,1.2930678E-1,-1.1427643E-2,5.04253E-2,4.05965E-4,-6.912078E-2,-4.9843397E-3],"split_indices":[3,3,3,0,0,4,8,6,5,3,3,0,0,0,0,0,0,0,0],"split_type":[0,0,0,0,0,0,0,0,0,0,0,0,0,0,0,0,0,0,0],"sum_hessian":[1.21506966E2,4.1336794E0,1.1737328E2,1.8559759E0,2.2777038E0,8.5156E0,1.0885769E2,3.2292638E0,5.286337E0,4.5216923E1,6.3640762E1,1.1796346E0,2.0496292E0,4.167664E0,1.118673E0,1.1356678E1,3.3860245E1,6.7690167E0,5.6871746E1],"tree_param":{"num_deleted":"0","num_feature":"10","num_nodes":"19","size_leaf_vector":"1"}},{"base_weights":[-1.827633E-4,-4.9029538E-1,1.8038392E-2,5.582563E-3,-8.62854E-2,4.121092E-1,-6.834871E-3,-1.10579714E-1,8.142016E-1,-5.703278E-1,2.6575506E-2,2.617999E-2,-4.839628E-2,4.647901E-3,1.3051929E-1,6.458062E-3,-1.0831755E-1,6.3310266E-2,-2.057877E-3],"categories":[],"categories_nodes":[],"categories_segments":[],"categories_sizes":[],"default_left":[0,0,0,0,0,0,0,0,0,0,0,0,0,0,0,0,0,0,0],"id":35,"left_children":[1,3,5,-1,-1,7,9,11,13,15,17,-1,-1,-1,-1,-1,-1,-1,-1],"loss_changes":[1.1011087E0,9.4739246E-1,1.1681433E0,0E0,0E0,1.5769591E0,2.1390471E0,6.7682403E-1,1.4917178E0,2.1405249E0,3.0862722E0,0E0,0E0,0E0,0E0,0E0,0E0,0E0,0E0],"parents":[2147483647,0,0,1,1,2,2,5,5,6,6,7,7,8,8,9,9,10,10],"right_children":[2,4,6,-1,-1,8,10,12,14,16,18,-1,-1,-1,-1,-1,-1,-1,-1],"split_conditions":[2.4E0,2.25E0,3.8882735E-1,5.582563E-3,-8.62854E-2,3.4345248E-1,4.1007444E-1,1.1E0,7.3333335E0,3.5E0,4.227522E-1,2.617999E-2,-4.839628E-2,4.647901E-3,1.3051929E-1,6.458062E-3,-1.0831755E-1,6.3310266E-2,-2.057877E-3],"split_indices":[9,9,5,0,0,4,5,1,6,8,5,0,0,0,0,0,0,0,0],"split_type":[0,0,0,0,0,0,0,0,0,0,0,0,0,0,0,0,0,0,0],"sum_hessian":[1.2130832E2,3.4196105E0,1.1788871E2,1.7315484E0,1.6880621E0,6.074894E0,1.1181381E2,2.9565706E0,3.1183236E0,5.3590326E0,1.0645478E2,1.6298972E0,1.3266733E0,1.6433758E0,1.4749477E0,2.7851164E0,2.5739162E0,6.782891E0,9.967189E1],"tree_param":{"num_deleted":"0","num_feature":"10","num_nodes":"19","size_leaf_vector":"1"}},{"base_weights":[-3.2331469E-4,-6.884524E-2,1.3278396E-1,8.6575747E-4,-6.11341E-1,4.3928596E-1,-1.1321783E-1,-4.171803E-2,6.710483E-1,-7.932298E-1,3.5640147E-2,9.0274975E-2,8.783117E-1,-8.212228E-1,7.3196344E-2,-3.05714E-4,-7.693993E-2,1.0516588E-1,-1.39645785E-2,-5.4629645E-3,-9.325102E-2,1.2872188E-1,-1.701557E-2,1.18834175E-1,-1.0668075E-2,-1.11160174E-1,1.06426E-2,5.7480793E-2,-2.2708848E-2],"categories":[],"categories_nodes":[],"categories_segments":[],"categories_sizes":[],"default_left":[0,0,0,0,0,0,0,0,0,0,0,0,0,0,0,0,0,0,0,0,0,0,0,0,0,0,0,0,0],"id":36,"left_children":[1,3,5,7,9,11,13,15,17,19,-1,21,23,25,27,-1,-1,-1,-1,-1,-1,-1,-1,-1,-1,-1,-1,-1,-1],"loss_changes":[1.1230425E0,3.0744615E0,3.2048936E0,2.1120627E0,1.9121239E0,2.8069484E0,3.2288644E0,1.9558065E0,1.5111189E0,7.825656E-1,0E0,3.8376982E0,2.6393957E0,1.4882545E0,3.1314895E0,0E0,0E0,0E0,0E0,0E0,0E0,0E0,0E0,0E0,0E0,0E0,0E0,0E0,0E0],"parents":[2147483647,0,0,1,1,2,2,3,3,4,4,5,5,6,6,7,7,8,8,9,9,11,11,12,12,13,13,14,14],"right_children":[2,4,6,8,10,12,14,16,18,20,-1,22,24,26,28,-1,-1,-1,-1,-1,-1,-1,-1,-1,-1,-1,-1,-1,-1],"split_conditions":[5.481092E-1,5.296309E-1,9E0,5.7330376E-1,1E1,8.333333E0,5.128438E-1,5.6179696E-1,1.3333334E0,4.614629E-1,3.5640147E-2,3E0,1.5E0,6.203085E-1,6.100362E-1,-3.05714E-4,-7.693993E-2,1.0516588E-1,-1.39645785E-2,-5.4629645E-3,-9.325102E-2,1.2872188E-1,-1.701557E-2,1.18834175E-1,-1.0668075E-2,-1.11160174E-1,1.06426E-2,5.7480793E-2,-2.2708848E-2],"split_indices":[4,4,6,5,6,6,5,5,3,5,0,9,2,4,4,0,0,0,0,0,0,0,0,0,0,0,0,0,0],"split_type":[0,0,0,0,0,0,0,0,0,0,0,0,0,0,0,0,0,0,0,0,0,0,0,0,0,0,0,0,0],"sum_hessian":[1.2112799E2,8.028241E1,4.084558E1,7.20255E1,8.256912E0,1.7836622E1,2.3008957E1,6.86041E1,3.4213932E0,7.1023445E0,1.1545681E0,1.0608689E1,7.2279334E0,4.085766E0,1.8923191E1,6.6096664E1,2.5074403E0,2.1260211E0,1.2953721E0,1.3477088E0,5.754636E0,1.1912106E0,9.417479E0,5.3405333E0,1.8874003E0,2.9606903E0,1.1250757E0,6.743794E0,1.2179399E1],"tree_param":{"num_deleted":"0","num_feature":"10","num_nodes":"29","size_leaf_vector":"1"}},{"base_weights":[3.2071816E-4,-1.5063338E-2,5.9438597E-2,2.6015062E-3,-6.3374203E-1,-2.1183196E-2,7.1080834E-1,-9.241814E-2,-4.76034E-3,1.3961403E-3,-3.47364E-2,1.3645081E-1,-4.6939425E-2],"categories":[],"categories_nodes":[],"categories_segments":[],"categories_sizes":[],"default_left":[0,0,0,0,0,0,0,0,0,0,0,0,0],"id":37,"left_children":[1,3,-1,5,7,9,11,-1,-1,-1,-1,-1,-1],"loss_changes":[1.1220618E0,1.3097973E0,0E0,1.9920918E0,5.223626E-1,1.317731E0,3.605092E0,0E0,0E0,0E0,0E0,0E0,0E0],"parents":[2147483647,0,0,1,1,3,3,4,4,5,5,6,6],"right_children":[2,4,-1,6,8,10,12,-1,-1,-1,-1,-1,-1],"split_conditions":[2.142857E0,1.2333333E1,5.9438597E-2,1.1666667E1,5.3333335E0,1.0333333E1,6.70735E-1,-9.241814E-2,-4.76034E-3,1.3961403E-3,-3.47364E-2,1.3645081E-1,-4.6939425E-2],"split_indices":[3,6,0,6,8,6,4,0,0,0,0,0,0],"split_type":[0,0,0,0,0,0,0,0,0,0,0,0,0],"sum_hessian":[1.2079584E2,1.1869668E2,2.0991542E0,1.1636982E2,2.3268583E0,1.1352717E2,2.8426533E0,1.1702538E0,1.1566044E0,1.0334895E2,1.0178216E1,1.7288822E0,1.113771E0],"tree_param":{"num_deleted":"0","num_feature":"10","num_nodes":"13","size_leaf_vector":"1"}},{"base_weights":[4.1677942E-4,-3.4581947E-1,2.545716E-2,-8.887915E-1,3.6112997E-1,5.55437E-1,5.363985E-3,-3.321339E-2,-1.11295454E-1,8.534425E-2,-4.5313265E-2,1.0867601E-1,-2.9776844E-3,-1.1419166E-1,1.0200496E-1,-1.5759481E-2,9.165926E-2,6.057733E-2,-5.208027E-4],"categories":[],"categories_nodes":[],"categories_segments":[],"categories_sizes":[],"default_left":[0,0,0,0,0,0,0,0,0,0,0,0,0,0,0,0,0,0,0],"id":38,"left_children":[1,3,5,7,9,11,13,-1,-1,-1,-1,-1,-1,15,17,-1,-1,-1,-1],"loss_changes":[1.064084E0,3.4983988E0,1.2156917E0,2.5061035E-1,2.1132584E0,1.3291386E0,1.2972547E0,0E0,0E0,0E0,0E0,0E0,0E0,2.390805E0,3.3550324E0,0E0,0E0,0E0,0E0],"parents":[2147483647,0,0,1,1,2,2,3,3,4,4,5,5,6,6,13,13,14,14],"right_children":[2,4,6,8,10,12,14,-1,-1,-1,-1,-1,-1,16,18,-1,-1,-1,-1],"split_conditions":[2.7E0,4.4052866E-1,2.8E0,4.000292E-1,4.6604794E-1,5.5E0,7.6666665E0,-3.321339E-2,-1.11295454E-1,8.534425E-2,-4.5313265E-2,1.0867601E-1,-2.9776844E-3,6.47152E-1,4.6290278E-1,-1.5759481E-2,9.165926E-2,6.057733E-2,-5.208027E-4],"split_indices":[9,4,9,5,5,6,6,0,0,0,0,0,0,4,5,0,0,0,0],"split_type":[0,0,0,0,0,0,0,0,0,0,0,0,0,0,0,0,0,0,0],"sum_hessian":[1.2071789E2,7.277708E0,1.13440186E2,3.9707532E0,3.3069549E0,3.170542E0,1.1026964E2,1.852401E0,2.1183522E0,2.0309203E0,1.2760346E0,1.2125877E0,1.9579543E0,4.9209904E1,6.105974E1,4.8034435E1,1.1754701E0,9.898562E0,5.1161175E1],"tree_param":{"num_deleted":"0","num_feature":"10","num_nodes":"19","size_leaf_vector":"1"}},{"base_weights":[1.4303649E-3,-4.4311935E-1,2.0540241E-2,9.482174E-3,-7.819711E-2,3.9635056E-1,-1.2374224E-2,-2.9733476E-1,1.0929416E0,-8.3510585E-2,6.2608225E-3,2.2266185E-2,-6.848826E-2,1.4660032E-1,-1.0526535E-2,-1.4439591E-3,7.686945E-2],"categories":[],"categories_nodes":[],"categories_segments":[],"categories_sizes":[],"default_left":[0,0,0,0,0,0,0,0,0,0,0,0,0,0,0,0,0],"id":39,"left_children":[1,3,5,-1,-1,7,9,11,13,-1,15,-1,-1,-1,-1,-1,-1],"loss_changes":[1.041355E0,9.9509746E-1,1.4577947E0,0E0,0E0,4.9102015E0,1.6758798E0,1.2690495E0,2.366303E0,0E0,1.7084749E0,0E0,0E0,0E0,0E0,0E0,0E0],"parents":[2147483647,0,0,1,1,2,2,5,5,6,6,7,7,8,8,10,10],"right_children":[2,4,6,-1,-1,8,10,12,14,-1,16,-1,-1,-1,-1,-1,-1],"split_conditions":[5E-1,3E-1,6.25E-1,9.482174E-3,-7.819711E-2,5.087604E-1,7E-1,7E0,5.8949786E-1,-8.3510585E-2,2.4285715E0,2.2266185E-2,-6.848826E-2,1.4660032E-1,-1.0526535E-2,-1.4439591E-3,7.686945E-2],"split_indices":[3,3,3,0,0,5,3,6,5,0,1,0,0,0,0,0,0],"split_type":[0,0,0,0,0,0,0,0,0,0,0,0,0,0,0,0,0],"sum_hessian":[1.2050887E2,4.052327E0,1.1645654E2,1.8444128E0,2.207914E0,8.48901E0,1.0796754E2,4.540554E0,3.948456E0,1.4209136E0,1.0654662E2,2.1206324E0,2.4199216E0,2.840553E0,1.107903E0,1.04685425E2,1.8611945E0],"tree_param":{"num_deleted":"0","num_feature":"10","num_nodes":"17","size_leaf_vector":"1"}},{"base_weights":[1.3702794E-3,-4.040205E-1,2.0899896E-2,2.2352623E-2,-6.092823E-1,5.9001565E-1,1.1540076E-3,4.45145E-4,-8.9027815E-2,1.3202454E-2,8.533874E-2,-2.4667447E-2,3.890213E-1,1.0807308E-3,-3.5327047E-2,6.429629E-2,-2.8988693E-2],"categories":[],"categories_nodes":[],"categories_segments":[],"categories_sizes":[],"default_left":[0,0,0,0,0,0,0,0,0,0,0,0,0,0,0,0,0],"id":40,"left_children":[1,3,5,-1,7,9,11,-1,-1,-1,-1,13,15,-1,-1,-1,-1],"loss_changes":[9.6884114E-1,8.606904E-1,1.3105536E0,0E0,7.8116167E-1,3.5904193E-1,1.1490479E0,0E0,0E0,0E0,0E0,1.2582419E0,1.4209554E0,0E0,0E0,0E0,0E0],"parents":[2147483647,0,0,1,1,2,2,4,4,5,5,6,6,11,11,12,12],"right_children":[2,4,6,-1,8,10,12,-1,-1,-1,-1,14,16,-1,-1,-1,-1],"split_conditions":[3.019717E-1,1E0,3.2077023E-1,2.2352623E-2,3.3910182E-1,1.1E0,2.5E0,4.45145E-4,-8.9027815E-2,1.3202454E-2,8.533874E-2,1.7142857E0,5.3333335E0,1.0807308E-3,-3.5327047E-2,6.429629E-2,-2.8988693E-2],"split_indices":[4,3,4,0,5,1,2,0,0,0,0,3,8,0,0,0,0],"split_type":[0,0,0,0,0,0,0,0,0,0,0,0,0,0,0,0,0],"sum_hessian":[1.2030628E2,4.6245008E0,1.1568178E2,1.117867E0,3.5066338E0,2.9106493E0,1.1277113E2,1.4103632E0,2.0962706E0,1.610811E0,1.2998383E0,1.0661018E2,6.160948E0,9.709525E1,9.514929E0,4.5223393E0,1.6386085E0],"tree_param":{"num_deleted":"0","num_feature":"10","num_nodes":"17","size_leaf_vector":"1"}},{"base_weights":[1.4690831E-3,-1.2545489E-2,5.4702472E-2,-4.5724458E-1,9.743947E-3,-8.390774E-2,-7.483386E-2,4.936083E-1,-1.4413807E-2,3.728359E-2,-6.7010805E-2,6.846762E-3,9.259691E-2,3.238424E-3,-4.3512307E-2],"categories":[],"categories_nodes":[],"categories_segments":[],"categories_sizes":[],"default_left":[0,0,0,0,0,0,0,0,0,0,0,0,0,0,0],"id":41,"left_children":[1,3,-1,5,7,-1,9,11,13,-1,-1,-1,-1,-1,-1],"loss_changes":[9.326967E-1,1.184356E0,0E0,7.6986957E-1,1.3435733E0,0E0,1.3016642E0,9.4119084E-1,2.1772277E0,0E0,0E0,0E0,0E0,0E0,0E0],"parents":[2147483647,0,0,1,1,3,3,4,4,6,6,7,7,8,8],"right_children":[2,4,-1,6,8,-1,10,12,14,-1,-1,-1,-1,-1,-1],"split_conditions":[2.142857E0,4.2857143E-1,5.4702472E-2,3.375E0,6.2E0,-8.390774E-2,4.3333335E0,4E0,1.7142857E0,3.728359E-2,-6.7010805E-2,6.846762E-3,9.259691E-2,3.238424E-3,-4.3512307E-2],"split_indices":[3,1,0,9,7,0,8,8,3,0,0,0,0,0,0],"split_type":[0,0,0,0,0,0,0,0,0,0,0,0,0,0,0],"sum_hessian":[1.20091675E2,1.1803648E2,2.0551903E0,4.7024956E0,1.13333984E2,1.7554849E0,2.9470105E0,4.4652467E0,1.08868744E2,1.8953248E0,1.0516858E0,2.8354774E0,1.6297692E0,9.8801476E1,1.0067264E1],"tree_param":{"num_deleted":"0","num_feature":"10","num_nodes":"15","size_leaf_vector":"1"}},{"base_weights":[1.2630918E-3,-4.2451474E-1,1.945091E-2,7.9495525E-3,-7.429897E-2,3.614097E-1,-1.0370198E-2,-2.4209213E-1,1.0746019E-1,-8.051612E-2,7.333459E-3,1.4058257E-2,-6.619369E-2,-1.2105174E-3,7.217646E-2],"categories":[],"categories_nodes":[],"categories_segments":[],"categories_sizes":[],"default_left":[0,0,0,0,0,0,0,0,0,0,0,0,0,0,0],"id":42,"left_children":[1,3,5,-1,-1,7,9,11,-1,-1,13,-1,-1,-1,-1],"loss_changes":[9.4465876E-1,8.6123836E-1,1.1960764E0,0E0,0E0,4.308812E0,1.5328034E0,1.0427701E0,0E0,0E0,1.4966869E0,0E0,0E0,0E0,0E0],"parents":[2147483647,0,0,1,1,2,2,5,5,6,6,7,7,10,10],"right_children":[2,4,6,-1,-1,8,10,12,-1,-1,14,-1,-1,-1,-1],"split_conditions":[5E-1,3E-1,6.25E-1,7.9495525E-3,-7.429897E-2,7.888889E0,7E-1,1.3333334E0,1.0746019E-1,-8.051612E-2,2.4285715E0,1.4058257E-2,-6.619369E-2,-1.2105174E-3,7.217646E-2],"split_indices":[3,3,3,0,0,7,3,0,0,0,1,0,0,0,0],"split_type":[0,0,0,0,0,0,0,0,0,0,0,0,0,0,0],"sum_hessian":[1.1992009E2,3.9975119E0,1.15922585E2,1.8384367E0,2.1590753E0,8.406456E0,1.0751613E2,4.911178E0,3.4952776E0,1.3735117E0,1.0614262E2,2.9173057E0,1.9938726E0,1.0428814E2,1.8544724E0],"tree_param":{"num_deleted":"0","num_feature":"10","num_nodes":"15","size_leaf_vector":"1"}},{"base_weights":[9.455865E-4,-3.1367287E-1,2.3541573E-2,-8.281393E-1,3.356078E-1,1.5511215E-1,-6.000143E-2,-2.9924328E-2,-1.0425295E-1,7.824876E-2,-4.2120524E-2,5.615548E-1,6.665198E-2,-5.254818E-1,3.9213937E-2,7.779979E-2,-3.7713405E-2,-5.55177E-3,5.258746E-2,9.298386E-3,-8.204845E-2,-2.4289249E-2,1.6648108E-2],"categories":[],"categories_nodes":[],"categories_segments":[],"categories_sizes":[],"default_left":[0,0,0,0,0,0,0,0,0,0,0,0,0,0,0,0,0,0,0,0,0,0,0],"id":43,"left_children":[1,3,5,7,9,11,13,-1,-1,-1,-1,15,17,19,21,-1,-1,-1,-1,-1,-1,-1,-1],"loss_changes":[8.657344E-1,3.0037365E0,1.2577456E0,2.3697352E-1,1.7903244E0,1.5585432E0,3.2621677E0,0E0,0E0,0E0,0E0,1.8780708E0,2.138094E0,2.338948E0,2.1511028E0,0E0,0E0,0E0,0E0,0E0,0E0,0E0,0E0],"parents":[2147483647,0,0,1,1,2,2,3,3,4,4,5,5,6,6,11,11,12,12,13,13,14,14],"right_children":[2,4,6,8,10,12,14,-1,-1,-1,-1,16,18,20,22,-1,-1,-1,-1,-1,-1,-1,-1],"split_conditions":[2.7E0,4.4052866E-1,3.5E0,4.000292E-1,4.6604794E-1,6.8E0,3.5714285E0,-2.9924328E-2,-1.0425295E-1,7.824876E-2,-4.2120524E-2,4.9643525E-1,5.440031E-1,4.4953015E-1,7.5E0,7.779979E-2,-3.7713405E-2,-5.55177E-3,5.258746E-2,9.298386E-3,-8.204845E-2,-2.4289249E-2,1.6648108E-2],"split_indices":[9,4,8,5,5,7,9,0,0,0,0,4,5,4,6,0,0,0,0,0,0,0,0],"split_type":[0,0,0,0,0,0,0,0,0,0,0,0,0,0,0,0,0,0,0,0,0,0,0],"sum_hessian":[1.1973937E2,7.160288E0,1.1257908E2,3.8411934E0,3.3190944E0,4.338929E1,6.918979E1,1.7989672E0,2.0422263E0,2.0655265E0,1.2535678E0,6.7995763E0,3.6589714E1,1.140158E1,5.778821E1,5.6646147E0,1.1349616E0,2.9595387E1,6.994328E0,3.9032717E0,7.498308E0,1.7682909E1,4.0105305E1],"tree_param":{"num_deleted":"0","num_feature":"10","num_nodes":"23","size_leaf_vector":"1"}},{"base_weights":[-7.670773E-5,-3.902738E-1,1.8420031E-2,2.0491485E-2,-5.8748543E-1,5.661992E-1,-3.6498817E-4,-6.274101E-4,-8.577092E-2,1.2865635E-2,8.178895E-2,-1.00418545E-1,1.0366149E-1,-2.253007E-2,1.9076644E-2,8.932641E-2,1.4440832E-3],"categories":[],"categories_nodes":[],"categories_segments":[],"categories_sizes":[],"default_left":[0,0,0,0,0,0,0,0,0,0,0,0,0,0,0,0,0],"id":44,"left_children":[1,3,5,-1,7,9,11,-1,-1,-1,-1,13,15,-1,-1,-1,-1],"loss_changes":[8.7647146E-1,7.655069E-1,1.1933057E0,0E0,6.836029E-1,3.1820345E-1,1.1875998E0,0E0,0E0,0E0,0E0,2.1578925E0,3.9281607E0,0E0,0E0,0E0,0E0],"parents":[2147483647,0,0,1,1,2,2,4,4,5,5,6,6,11,11,12,12],"right_children":[2,4,6,-1,8,10,12,-1,-1,-1,-1,14,16,-1,-1,-1,-1],"split_conditions":[3.019717E-1,1E0,3.2077023E-1,2.0491485E-2,3.3910182E-1,1.1E0,1.3333334E0,-6.274101E-4,-8.577092E-2,1.2865635E-2,8.178895E-2,1.2E0,1E0,-2.253007E-2,1.9076644E-2,8.932641E-2,1.4440832E-3],"split_indices":[4,3,4,0,5,1,2,0,0,0,0,3,3,0,0,0,0],"split_type":[0,0,0,0,0,0,0,0,0,0,0,0,0,0,0,0,0],"sum_hessian":[1.19443054E2,4.496104E0,1.1494695E2,1.1092634E0,3.3868403E0,2.844985E0,1.1210197E2,1.39964E0,1.9872005E0,1.590756E0,1.2542291E0,5.7159832E1,5.4942135E1,4.0161716E1,1.6998117E1,4.662974E0,5.027916E1],"tree_param":{"num_deleted":"0","num_feature":"10","num_nodes":"17","size_leaf_vector":"1"}},{"base_weights":[8.1685616E-4,-4.489463E-1,1.5639346E-2,-1.7201623E-3,-7.175772E-2,5.290134E-1,-1.1771153E-2,5.3900797E-2,9.4038084E-2,-3.8573614E-1,1.8596712E-2,-4.7596544E-2,5.161332E-2,-1.2469221E-3,-9.929563E-2,5.264939E-2,-1.8569541E-3],"categories":[],"categories_nodes":[],"categories_segments":[],"categories_sizes":[],"default_left":[0,0,0,0,0,0,0,0,0,0,0,0,0,0,0,0,0],"id":45,"left_children":[1,3,5,-1,-1,7,9,11,-1,13,15,-1,-1,-1,-1,-1,-1],"loss_changes":[8.0894357E-1,4.3666893E-1,1.6585131E0,0E0,0E0,1.1167647E0,1.2841531E0,1.184366E0,0E0,1.9122097E0,1.9909432E0,0E0,0E0,0E0,0E0,0E0,0E0],"parents":[2147483647,0,0,1,1,2,2,5,5,6,6,7,7,9,9,10,10],"right_children":[2,4,6,-1,-1,8,10,12,-1,14,16,-1,-1,-1,-1,-1,-1],"split_conditions":[4E-1,6E0,6.2E0,-1.7201623E-3,-7.175772E-2,4.000292E-1,6.6E0,1.5555556E0,9.4038084E-2,4.6573853E-1,6.8E0,-4.7596544E-2,5.161332E-2,-1.2469221E-3,-9.929563E-2,5.264939E-2,-1.8569541E-3],"split_indices":[1,6,7,0,0,5,7,3,0,5,7,0,0,0,0,0,0],"split_type":[0,0,0,0,0,0,0,0,0,0,0,0,0,0,0,0,0],"sum_hessian":[1.1928939E2,2.8714662E0,1.1641792E2,1.5094714E0,1.3619946E0,4.973275E0,1.1144465E2,2.8326774E0,2.140598E0,7.4912734E0,1.0395338E2,1.3059409E0,1.5267364E0,5.271402E0,2.2198713E0,6.1905265E0,9.776285E1],"tree_param":{"num_deleted":"0","num_feature":"10","num_nodes":"17","size_leaf_vector":"1"}},{"base_weights":[4.6128896E-4,-4.3294138E-1,1.6232414E-2,6.5688523E-3,-7.93945E-2,2.5315306E-1,-1.972443E-2,-6.1735816E-2,3.7846708E-1,-3.6465573E-1,1.4019152E-2,5.8172137E-2,-2.3027347E-2,1.7526245E-2,-8.4452555E-2,9.9761024E-2,-1.9317785E-3],"categories":[],"categories_nodes":[],"categories_segments":[],"categories_sizes":[],"default_left":[0,0,0,0,0,0,0,0,0,0,0,0,0,0,0,0,0],"id":46,"left_children":[1,3,5,-1,-1,7,9,-1,11,13,15,-1,-1,-1,-1,-1,-1],"loss_changes":[8.2804364E-1,8.1782174E-1,1.0005267E0,0E0,0E0,1.9213418E0,1.1968571E0,0E0,1.8839929E0,2.5215402E0,3.1090472E0,0E0,0E0,0E0,0E0,0E0,0E0],"parents":[2147483647,0,0,1,1,2,2,5,5,6,6,8,8,9,9,10,10],"right_children":[2,4,6,-1,-1,8,10,-1,12,14,16,-1,-1,-1,-1,-1,-1],"split_conditions":[2.4E0,2.25E0,2.6666667E0,6.5688523E-3,-7.93945E-2,6.5555553E0,3.5924077E-1,-6.1735816E-2,8.1E0,1.3333334E0,3.8200784E-1,5.8172137E-2,-2.3027347E-2,1.7526245E-2,-8.4452555E-2,9.9761024E-2,-1.9317785E-3],"split_indices":[9,9,8,0,0,7,4,0,7,2,4,0,0,0,0,0,0],"split_type":[0,0,0,0,0,0,0,0,0,0,0,0,0,0,0,0,0],"sum_hessian":[1.1911502E2,3.253546E0,1.1586148E2,1.7098644E0,1.5436816E0,1.4471025E1,1.0139045E2,1.3269181E0,1.3144108E1,8.160997E0,9.3229454E1,9.887218E0,3.2568886E0,4.1389227E0,4.022075E0,2.1080265E0,9.112143E1],"tree_param":{"num_deleted":"0","num_feature":"10","num_nodes":"17","size_leaf_vector":"1"}},{"base_weights":[-2.3971623E-4,-2.0873515E-2,3.2272413E-1,-5.027632E-1,2.4851046E-3,5.3819764E-1,-2.624375E-2,-7.0931995E-1,3.5287698E-3,4.5041052E-1,-2.3087205E-2,8.401696E-1,-2.1022469E-2,-2.4076065E-2,-8.1874155E-2,-4.469753E-3,1.0086983E-1,6.0716835E-3,-2.5586877E-2,7.692107E-3,1.17585145E-1],"categories":[],"categories_nodes":[],"categories_segments":[],"categories_sizes":[],"default_left":[0,0,0,0,0,0,0,0,0,0,0,0,0,0,0,0,0,0,0,0,0],"id":47,"left_children":[1,3,5,7,9,11,-1,13,-1,15,17,19,-1,-1,-1,-1,-1,-1,-1,-1,-1],"loss_changes":[8.057619E-1,1.2804259E0,1.0567786E0,6.094799E-1,1.2633181E0,1.4500935E0,0E0,1.3530254E-4,0E0,1.691456E0,2.052685E0,9.894693E-1,0E0,0E0,0E0,0E0,0E0,0E0,0E0,0E0,0E0],"parents":[2147483647,0,0,1,1,2,2,3,3,4,4,5,5,7,7,9,9,10,10,11,11],"right_children":[2,4,6,8,10,12,-1,14,-1,16,18,20,-1,-1,-1,-1,-1,-1,-1,-1,-1],"split_conditions":[2.5E0,4.2857143E-1,5.3333335E0,5.196347E-1,6.25E0,1.2222222E0,-2.624375E-2,1.1E0,3.5287698E-3,4.5182198E-1,1.4444444E0,4.317732E-1,-2.1022469E-2,-2.4076065E-2,-8.1874155E-2,-4.469753E-3,1.0086983E-1,6.0716835E-3,-2.5586877E-2,7.692107E-3,1.17585145E-1],"split_indices":[2,1,8,4,7,1,0,3,0,4,3,4,0,0,0,0,0,0,0,0,0],"split_type":[0,0,0,0,0,0,0,0,0,0,0,0,0,0,0,0,0,0,0,0,0],"sum_hessian":[1.18902306E2,1.1264116E2,6.2611485E0,4.258772E0,1.08382385E2,4.634755E0,1.6263933E0,2.8473616E0,1.4114105E0,4.9562006E0,1.03426186E2,3.2149897E0,1.4197655E0,1.1449254E0,1.7024362E0,3.1142862E0,1.8419144E0,7.659152E1,2.6834663E1,1.3575169E0,1.8574728E0],"tree_param":{"num_deleted":"0","num_feature":"10","num_nodes":"21","size_leaf_vector":"1"}},{"base_weights":[1.8811936E-4,-8.024082E-2,8.578748E-2,2.8703338E-1,-1.6467391E-1,5.94585E-1,-4.8777077E-2,6.695831E-1,-5.0559825E-1,-8.1915754E-1,-3.2649964E-2,-5.309218E-2,7.819238E-1,-1.5756612E-1,4.0648985E-1,-4.632392E-2,8.986436E-2,-6.8594567E-3,-7.274466E-2,-1.4576304E-2,-1.0898818E-1,9.071356E-3,-3.2296296E-2,9.3648575E-2,-1.7342933E-2,-2.4735857E-2,4.9628172E-2,1.3028751E-1,-7.905924E-3],"categories":[],"categories_nodes":[],"categories_segments":[],"categories_sizes":[],"default_left":[0,0,0,0,0,0,0,0,0,0,0,0,0,0,0,0,0,0,0,0,0,0,0,0,0,0,0,0,0],"id":48,"left_children":[1,3,5,7,9,11,13,15,17,19,21,-1,23,25,27,-1,-1,-1,-1,-1,-1,-1,-1,-1,-1,-1,-1,-1,-1],"loss_changes":[8.305033E-1,1.9759389E0,4.029891E0,3.9741719E0,4.3977456E0,3.0082293E0,2.3986943E0,2.6263766E0,3.83734E-1,1.4005289E0,1.5926203E0,0E0,1.7789631E0,2.3987966E0,4.181535E0,0E0,0E0,0E0,0E0,0E0,0E0,0E0,0E0,0E0,0E0,0E0,0E0,0E0,0E0],"parents":[2147483647,0,0,1,1,2,2,3,3,4,4,5,5,6,6,7,7,8,8,9,9,10,10,12,12,13,13,14,14],"right_children":[2,4,6,8,10,12,14,16,18,20,22,-1,24,26,28,-1,-1,-1,-1,-1,-1,-1,-1,-1,-1,-1,-1,-1,-1],"split_conditions":[1.3333334E0,4.227522E-1,1.1111112E0,1.5E0,4.543299E-1,4.1566932E-1,2E0,7.5E-1,4.1973615E-1,3.854655E-1,8.833333E0,-5.309218E-2,5.904242E-1,5.1E0,1.5555556E0,-4.632392E-2,8.986436E-2,-6.8594567E-3,-7.274466E-2,-1.4576304E-2,-1.0898818E-1,9.071356E-3,-3.2296296E-2,9.3648575E-2,-1.7342933E-2,-2.4735857E-2,4.9628172E-2,1.3028751E-1,-7.905924E-3],"split_indices":[2,5,3,0,5,5,0,1,4,4,7,0,5,9,1,0,0,0,0,0,0,0,0,0,0,0,0,0,0],"split_type":[0,0,0,0,0,0,0,0,0,0,0,0,0,0,0,0,0,0,0,0,0,0,0,0,0,0,0,0,0],"sum_hessian":[1.1863101E2,6.1194973E1,5.7436043E1,1.0990039E1,5.0204937E1,1.12982025E1,4.613784E1,7.5172234E0,3.4728153E0,7.5537996E0,4.2651134E1,1.3505076E0,9.947695E0,3.7767056E1,8.370783E0,1.0923994E0,6.424824E0,1.6101964E0,1.8626188E0,2.607176E0,4.9466233E0,3.0414536E1,1.2236602E1,8.579421E0,1.3682736E0,3.375341E1,4.0136437E0,2.3496776E0,6.021106E0],"tree_param":{"num_deleted":"0","num_feature":"10","num_nodes":"29","size_leaf_vector":"1"}},{"base_weights":[-1.4565658E-4,-3.9848372E-1,1.6894208E-2,-9.183921E-2,-7.136189E-2,2.0829359E-1,-2.4853341E-2,2.357436E-2,-3.7501533E-2,3.3034775E-1,-5.5270076E-1,-1.9956604E-1,6.1691895E-2,-2.9663393E-2,4.502573E-2,-7.6768026E-2,-5.0018653E-3,5.285842E-3,-4.668693E-2,4.3777775E-2,-2.2623893E-3],"categories":[],"categories_nodes":[],"categories_segments":[],"categories_sizes":[],"default_left":[0,0,0,0,0,0,0,0,0,0,0,0,0,0,0,0,0,0,0,0,0],"id":49,"left_children":[1,3,5,7,-1,9,11,-1,-1,13,15,17,19,-1,-1,-1,-1,-1,-1,-1,-1],"loss_changes":[8.162163E-1,4.11157E-1,9.2668253E-1,4.2679715E-1,0E0,2.1105433E0,1.4573653E0,0E0,0E0,1.5254533E0,3.1207246E-1,2.176731E0,2.0607224E0,0E0,0E0,0E0,0E0,0E0,0E0,0E0,0E0],"parents":[2147483647,0,0,1,1,2,2,3,3,5,5,6,6,9,9,10,10,11,11,12,12],"right_children":[2,4,6,8,-1,10,12,-1,-1,14,16,18,20,-1,-1,-1,-1,-1,-1,-1,-1],"split_conditions":[2.9682282E-1,2.717237E-1,6.3333335E0,1E0,-7.136189E-2,5E0,7.6666665E0,2.357436E-2,-3.7501533E-2,7.1428573E-1,1.1111112E0,1.2222222E0,4.6290278E-1,-2.9663393E-2,4.502573E-2,-7.6768026E-2,-5.0018653E-3,5.285842E-3,-4.668693E-2,4.3777775E-2,-2.2623893E-3],"split_indices":[4,4,6,1,0,8,6,0,0,3,1,1,5,0,0,0,0,0,0,0,0],"split_type":[0,0,0,0,0,0,0,0,0,0,0,0,0,0,0,0,0,0,0,0,0],"sum_hessian":[1.1825879E2,3.9329724E0,1.1432582E2,2.647871E0,1.2851014E0,1.975697E1,9.456885E1,1.3053372E0,1.342534E0,1.751386E1,2.2431083E0,3.0894613E1,6.3674236E1,2.5751464E0,1.4938714E1,1.2019209E0,1.0411875E0,1.6302143E1,1.459247E1,1.0893275E1,5.278096E1],"tree_param":{"num_deleted":"0","num_feature":"10","num_nodes":"21","size_leaf_vector":"1"}},{"base_weights":[-1.5078547E-3,-7.268386E-2,1.0034927E-1,1.3274139E-2,-4.0789074E-1,6.1079705E-1,1.9269641E-2,1.10020034E-1,-4.0433845E-1,-5.3585213E-1,5.877505E-2,1.1019788E-1,-3.141909E-1,4.994281E-1,-6.57326E-2,2.6931681E-3,1.20790385E-1,3.3583734E-2,-8.0442004E-2,7.433628E-3,-7.5598836E-2,2.6712513E-2,-7.472374E-2,9.100988E-2,-3.8931385E-2,-6.486009E-2,7.123656E-3],"categories":[],"categories_nodes":[],"categories_segments":[],"categories_sizes":[],"default_left":[0,0,0,0,0,0,0,0,0,0,0,0,0,0,0,0,0,0,0,0,0,0,0,0,0,0,0],"id":50,"left_children":[1,3,5,7,9,11,13,15,17,19,-1,-1,21,23,25,-1,-1,-1,-1,-1,-1,-1,-1,-1,-1,-1,-1],"loss_changes":[8.7041265E-1,2.0414531E0,2.032425E0,2.3558517E0,2.1563592E0,3.4073465E0,1.8145777E0,4.2762604E0,3.5199869E0,1.846803E0,0E0,0E0,9.8376036E-1,2.7931643E0,3.0777469E0,0E0,0E0,0E0,0E0,0E0,0E0,0E0,0E0,0E0,0E0,0E0,0E0],"parents":[2147483647,0,0,1,1,2,2,3,3,4,4,5,5,6,6,7,7,8,8,9,9,12,12,13,13,14,14],"right_children":[2,4,6,8,10,12,14,16,18,20,-1,-1,22,24,26,-1,-1,-1,-1,-1,-1,-1,-1,-1,-1,-1,-1],"split_conditions":[5.204865E-1,4.9769643E-1,6.25E-1,8.5E0,6.203085E-1,5.898143E-1,3E0,4.9274936E-1,4.7943664E-1,1E0,5.877505E-2,1.1019788E-1,8.7E0,1.625E0,3.9E0,2.6931681E-3,1.20790385E-1,3.3583734E-2,-8.0442004E-2,7.433628E-3,-7.5598836E-2,2.6712513E-2,-7.472374E-2,9.100988E-2,-3.8931385E-2,-6.486009E-2,7.123656E-3],"split_indices":[5,5,3,6,4,5,8,5,4,2,0,0,7,3,9,0,0,0,0,0,0,0,0,0,0,0,0],"split_type":[0,0,0,0,0,0,0,0,0,0,0,0,0,0,0,0,0,0,0,0,0,0,0,0,0,0,0],"sum_hessian":[1.1805444E2,6.966215E1,4.8392296E1,5.620878E1,1.3453367E1,5.73754E0,4.265476E1,4.623446E1,9.97432E0,1.2330441E1,1.1229258E0,3.6225634E0,2.1149764E0,5.6821437E0,3.6972614E1,4.393404E1,2.300418E0,3.556027E0,6.4182935E0,3.4446487E0,8.885793E0,1.0664871E0,1.0484893E0,3.8699043E0,1.8122393E0,6.3243113E0,3.0648302E1],"tree_param":{"num_deleted":"0","num_feature":"10","num_nodes":"27","size_leaf_vector":"1"}},{"base_weights":[-5.316707E-4,-8.167726E-2,8.586348E-2,-2.0029996E-1,1.7514497E-1,7.695265E-1,6.8250154E-3,3.4680715E-1,-3.1983677E-1,9.60039E-1,-8.529233E-2,-2.3231843E-2,1.2203525E0,-5.306423E-1,7.713474E-2,-2.9336572E-2,7.150882E-2,-4.6179987E-2,2.8609907E-2,-4.1175015E-2,1.509429E-1,5.837136E-2,-3.0292911E-2,1.4253752E-1,4.511063E-2,3.4950044E-2,-8.097441E-2,5.3387195E-2,-5.3260913E-3],"categories":[],"categories_nodes":[],"categories_segments":[],"categories_sizes":[],"default_left":[0,0,0,0,0,0,0,0,0,0,0,0,0,0,0,0,0,0,0,0,0,0,0,0,0,0,0,0,0],"id":51,"left_children":[1,3,5,7,9,11,13,15,17,19,21,-1,23,25,27,-1,-1,-1,-1,-1,-1,-1,-1,-1,-1,-1,-1,-1,-1],"loss_changes":[8.3833504E-1,1.9135721E0,3.1245072E0,2.8999052E0,4.173335E0,2.9904318E0,2.040996E0,2.1257308E0,3.1874664E0,4.441205E0,2.4987211E0,0E0,3.4104824E-2,1.818237E0,2.867927E0,0E0,0E0,0E0,0E0,0E0,0E0,0E0,0E0,0E0,0E0,0E0,0E0,0E0,0E0],"parents":[2147483647,0,0,1,1,2,2,3,3,4,4,5,5,6,6,7,7,8,8,9,9,10,10,12,12,13,13,14,14],"right_children":[2,4,6,8,10,12,14,16,18,20,22,-1,24,26,28,-1,-1,-1,-1,-1,-1,-1,-1,-1,-1,-1,-1,-1,-1],"split_conditions":[1.3333334E0,1.2E0,1E0,2.6666667E0,1.2222222E0,7.1E0,3.5924077E-1,2.3333333E0,5.3333335E0,3.3333333E0,4.2175052E-1,-2.3231843E-2,8.333333E0,2.3333333E0,4.6290278E-1,-2.9336572E-2,7.150882E-2,-4.6179987E-2,2.8609907E-2,-4.1175015E-2,1.509429E-1,5.837136E-2,-3.0292911E-2,1.4253752E-1,4.511063E-2,3.4950044E-2,-8.097441E-2,5.3387195E-2,-5.3260913E-3],"split_indices":[2,3,3,8,3,7,4,8,8,9,5,0,6,8,5,0,0,0,0,0,0,0,0,0,0,0,0,0,0],"split_type":[0,0,0,0,0,0,0,0,0,0,0,0,0,0,0,0,0,0,0,0,0,0,0,0,0,0,0,0,0],"sum_hessian":[1.17580956E2,6.066072E1,5.692024E1,4.1645374E1,1.9015348E1,4.9933033E0,5.1926933E1,7.1265697E0,3.4518803E1,4.0682836E0,1.4947065E1,1.7000537E0,3.2932496E0,5.2496824E0,4.667725E1,2.6768658E0,4.449704E0,2.8159307E1,6.3594956E0,1.2350299E0,2.8332536E0,3.2560515E0,1.1691013E1,1.9267691E0,1.3664806E0,1.203195E0,4.0464873E0,9.679298E0,3.699795E1],"tree_param":{"num_deleted":"0","num_feature":"10","num_nodes":"29","size_leaf_vector":"1"}},{"base_weights":[2.12072E-3,-5.842811E-2,1.1862215E-1,1.5936786E-4,-5.2812475E-1,3.8542032E-1,-9.901958E-2,-6.90469E-2,3.7058663E-1,-7.046689E-1,3.533503E-2,1.9583584E-1,1.0629158E0,-2.4800454E-1,5.465397E-1,-5.4534E-2,5.9828797E-4,7.1149945E-2,-3.02131E-2,-9.4727986E-2,-1.8170627E-2,5.490715E-2,-8.920433E-3,1.3841389E-1,1.8311378E-2,-3.5243437E-3,-9.256361E-2,9.470624E-2,-1.3410418E-2],"categories":[],"categories_nodes":[],"categories_segments":[],"categories_sizes":[],"default_left":[0,0,0,0,0,0,0,0,0,0,0,0,0,0,0,0,0,0,0,0,0,0,0,0,0,0,0,0,0],"id":52,"left_children":[1,3,5,7,9,11,13,15,17,19,-1,21,23,25,27,-1,-1,-1,-1,-1,-1,-1,-1,-1,-1,-1,-1,-1,-1],"loss_changes":[8.3971477E-1,2.1562483E0,2.4017148E0,1.8371189E0,1.6013012E0,2.1669245E0,2.3681266E0,2.1611207E0,2.8020885E0,7.8881097E-1,0E0,1.627153E0,8.2534266E-1,2.7856975E0,1.3986862E0,0E0,0E0,0E0,0E0,0E0,0E0,0E0,0E0,0E0,0E0,0E0,0E0,0E0,0E0],"parents":[2147483647,0,0,1,1,2,2,3,3,4,4,5,5,6,6,7,7,8,8,9,9,11,11,12,12,13,13,14,14],"right_children":[2,4,6,8,10,12,14,16,18,20,-1,22,24,26,28,-1,-1,-1,-1,-1,-1,-1,-1,-1,-1,-1,-1,-1,-1],"split_conditions":[5.481092E-1,5.296309E-1,9E0,5.42009E-1,1E1,8.428572E0,1.0666667E1,6.666667E-1,1.4285715E0,1.5E0,3.533503E-2,7.3333335E0,5.8218247E-1,5.919207E-1,6.7745644E-1,-5.4534E-2,5.9828797E-4,7.1149945E-2,-3.02131E-2,-9.4727986E-2,-1.8170627E-2,5.490715E-2,-8.920433E-3,1.3841389E-1,1.8311378E-2,-3.5243437E-3,-9.256361E-2,9.470624E-2,-1.3410418E-2],"split_indices":[4,4,6,5,6,7,7,2,3,2,0,7,5,5,4,0,0,0,0,0,0,0,0,0,0,0,0,0,0],"split_type":[0,0,0,0,0,0,0,0,0,0,0,0,0,0,0,0,0,0,0,0,0,0,0,0,0,0,0,0,0],"sum_hessian":[1.1705796E2,7.735371E1,3.9704258E1,6.9663864E1,7.6898417E0,1.7491385E1,2.2212875E1,5.9383034E1,1.0280826E1,6.573803E0,1.1160386E0,1.4674155E1,2.8172302E0,1.8548096E1,3.6647794E0,7.2284064E0,5.215463E1,6.7848306E0,3.495995E0,3.9363112E0,2.637492E0,6.139497E0,8.534658E0,1.6438193E0,1.1734109E0,1.491662E1,3.6314745E0,2.060729E0,1.6040504E0],"tree_param":{"num_deleted":"0","num_feature":"10","num_nodes":"29","size_leaf_vector":"1"}},{"base_weights":[2.5657786E-3,-9.923871E-2,6.7989394E-2,-2.592186E-1,2.4992664E-1,5.6123805E-1,1.5651813E-2,1.0641501E-1,-5.2299225E-1,4.1738442E-1,-5.899567E-2,-2.8495217E-2,9.8626375E-1,-1.9745511E-1,1.4134979E-1,5.494029E-2,-4.0407073E-2,-2.8777985E-2,-1.1353576E-1,-2.4069062E-2,7.341192E-2,1.1564308E-2,1.1945786E-1,3.1017665E-2,-3.757553E-2,2.7975727E-2,-3.3087954E-2],"categories":[],"categories_nodes":[],"categories_segments":[],"categories_sizes":[],"default_left":[0,0,0,0,0,0,0,0,0,0,0,0,0,0,0,0,0,0,0,0,0,0,0,0,0,0,0],"id":53,"left_children":[1,3,5,7,9,11,13,15,17,19,-1,-1,21,23,25,-1,-1,-1,-1,-1,-1,-1,-1,-1,-1,-1,-1],"loss_changes":[7.905151E-1,2.6591227E0,1.855903E0,3.1748235E0,2.3703194E0,2.7627885E0,1.8047277E0,3.4749453E0,2.4037375E0,2.9233506E0,0E0,0E0,7.355623E-1,2.3817015E0,2.8576086E0,0E0,0E0,0E0,0E0,0E0,0E0,0E0,0E0,0E0,0E0,0E0,0E0],"parents":[2147483647,0,0,1,1,2,2,3,3,4,4,5,5,6,6,7,7,8,8,9,9,12,12,13,13,14,14],"right_children":[2,4,6,8,10,12,14,16,18,20,-1,-1,22,24,26,-1,-1,-1,-1,-1,-1,-1,-1,-1,-1,-1,-1],"split_conditions":[7.4444447E0,1.6666666E0,4.4780082E-1,6.8E0,8.333333E0,4.1007444E-1,5.204865E-1,4.3404475E-1,4.3333335E0,4.1566932E-1,-5.899567E-2,-2.8495217E-2,3.25E0,5E-1,1.75E0,5.494029E-2,-4.0407073E-2,-2.8777985E-2,-1.1353576E-1,-2.4069062E-2,7.341192E-2,1.1564308E-2,1.1945786E-1,3.1017665E-2,-3.757553E-2,2.7975727E-2,-3.3087954E-2],"split_indices":[7,2,5,7,6,5,5,5,8,5,0,0,9,0,1,0,0,0,0,0,0,0,0,0,0,0,0],"split_type":[0,0,0,0,0,0,0,0,0,0,0,0,0,0,0,0,0,0,0,0,0,0,0,0,0,0,0],"sum_hessian":[1.166755E2,4.5444023E1,7.1231476E1,3.1341597E1,1.41024275E1,5.9004097E0,6.533106E1,1.3384728E1,1.795687E1,1.2177497E1,1.9249312E0,2.0829659E0,3.817444E0,2.4026293E1,4.130477E1,7.125311E0,6.2594175E0,1.4035656E1,3.9212124E0,4.0347157E0,8.14278E0,1.037308E0,2.780136E0,6.053103E0,1.797319E1,3.2257797E1,9.046976E0],"tree_param":{"num_deleted":"0","num_feature":"10","num_nodes":"27","size_leaf_vector":"1"}},{"base_weights":[1.666309E-3,-3.8651302E-2,1.6795737E-1,2.1270702E-2,-2.856316E-1,3.4450957E-1,-1.7777973E-1,5.574391E-2,-4.125878E-1,-8.7275565E-1,3.2945226E-3,3.4528993E-2,8.29977E-1,-6.952471E-1,1.8976234E-1,1.9911104E-3,9.238793E-2,3.1080091E-2,-8.604464E-2,-2.5134921E-2,-1.06018044E-1,-3.2893345E-2,9.549132E-2,-4.335195E-2,3.7921704E-2,-9.913882E-3,1.0808255E-1,-5.7028616E-3,-9.257483E-2,7.440559E-2,-2.8253395E-2],"categories":[],"categories_nodes":[],"categories_segments":[],"categories_sizes":[],"default_left":[0,0,0,0,0,0,0,0,0,0,0,0,0,0,0,0,0,0,0,0,0,0,0,0,0,0,0,0,0,0,0],"id":54,"left_children":[1,3,5,7,9,11,13,15,17,19,21,23,25,27,29,-1,-1,-1,-1,-1,-1,-1,-1,-1,-1,-1,-1,-1,-1,-1,-1],"loss_changes":[7.927104E-1,1.4149529E0,1.4695005E0,1.1827394E0,3.167657E0,2.3207831E0,1.7406328E0,2.2435782E0,2.155137E0,4.505806E-1,4.582072E0,1.8699493E0,1.515027E0,4.9550664E-1,1.7105955E0,0E0,0E0,0E0,0E0,0E0,0E0,0E0,0E0,0E0,0E0,0E0,0E0,0E0,0E0,0E0,0E0],"parents":[2147483647,0,0,1,1,2,2,3,3,4,4,5,5,6,6,7,7,8,8,9,9,10,10,11,11,12,12,13,13,14,14],"right_children":[2,4,6,8,10,12,14,16,18,20,22,24,26,28,30,-1,-1,-1,-1,-1,-1,-1,-1,-1,-1,-1,-1,-1,-1,-1,-1],"split_conditions":[2E0,1.4285715E0,2.5E0,6.4100033E-1,7.888889E0,1.3333334E0,4.5E0,6.28288E-1,5.2732486E-1,3.3333333E0,5E0,5.204865E-1,7.285714E0,4.5963803E-1,1E1,1.9911104E-3,9.238793E-2,3.1080091E-2,-8.604464E-2,-2.5134921E-2,-1.06018044E-1,-3.2893345E-2,9.549132E-2,-4.335195E-2,3.7921704E-2,-9.913882E-3,1.0808255E-1,-5.7028616E-3,-9.257483E-2,7.440559E-2,-2.8253395E-2],"split_indices":[0,1,0,4,7,3,8,4,5,8,8,5,7,5,6,0,0,0,0,0,0,0,0,0,0,0,0,0,0,0,0],"split_type":[0,0,0,0,0,0,0,0,0,0,0,0,0,0,0,0,0,0,0,0,0,0,0,0,0,0,0,0,0,0,0],"sum_hessian":[1.1626803E2,9.419727E1,2.2070755E1,7.654091E1,1.7656368E1,1.4612412E1,7.458343E0,7.171421E1,4.826699E0,5.1567326E0,1.2499636E1,9.571772E0,5.040641E0,2.727146E0,4.731197E0,6.985388E1,1.8603256E0,1.9626396E0,2.8640592E0,1.7374122E0,3.41932E0,9.750052E0,2.7495835E0,3.9501655E0,5.6216063E0,1.2001605E0,3.8404803E0,1.0545864E0,1.6725594E0,1.9119294E0,2.8192677E0],"tree_param":{"num_deleted":"0","num_feature":"10","num_nodes":"31","size_leaf_vector":"1"}},{"base_weights":[1.4097855E-3,-1.1343353E-2,5.0550707E-2,4.7776643E-3,-5.7096106E-1,-1.565838E-2,6.0203E-1,-4.8360648E-4,-8.516904E-2,-3.972311E-3,3.9194696E-2,1.1498638E-1,-4.273836E-2],"categories":[],"categories_nodes":[],"categories_segments":[],"categories_sizes":[],"default_left":[0,0,0,0,0,0,0,0,0,0,0,0,0],"id":55,"left_children":[1,3,-1,5,7,9,11,-1,-1,-1,-1,-1,-1],"loss_changes":[7.5718933E-1,1.0400534E0,0E0,1.3856487E0,5.0887966E-1,1.0945365E0,2.609507E0,0E0,0E0,0E0,0E0,0E0,0E0],"parents":[2147483647,0,0,1,1,3,3,4,4,5,5,6,6],"right_children":[2,4,-1,6,8,10,12,-1,-1,-1,-1,-1,-1],"split_conditions":[2.142857E0,1.2333333E1,5.0550707E-2,1.1666667E1,1.1E0,6.789818E-1,6.70735E-1,-4.8360648E-4,-8.516904E-2,-3.972311E-3,3.9194696E-2,1.1498638E-1,-4.273836E-2],"split_indices":[3,6,0,6,1,4,4,0,0,0,0,0,0],"split_type":[0,0,0,0,0,0,0,0,0,0,0,0,0],"sum_hessian":[1.1588848E2,1.13982346E2,1.9061377E0,1.1175447E2,2.2278705E0,1.0899867E2,2.7558E0,1.0757384E0,1.1521319E0,1.03774445E2,5.224224E0,1.7222457E0,1.0335543E0],"tree_param":{"num_deleted":"0","num_feature":"10","num_nodes":"13","size_leaf_vector":"1"}},{"base_weights":[1.8894115E-3,-3.792885E-1,1.7959604E-2,-5.5883473E-1,1.0928064E-2,4.7352606E-1,8.8462577E-4,-7.575398E-2,-2.243987E-3,6.953927E-2,-8.504694E-3,4.5702246E-1,-2.074841E-2,-2.111088E-2,9.45079E-2,-1.1595082E-2,7.5217797E-3],"categories":[],"categories_nodes":[],"categories_segments":[],"categories_sizes":[],"default_left":[0,0,0,0,0,0,0,0,0,0,0,0,0,0,0,0,0],"id":56,"left_children":[1,3,5,7,-1,9,11,-1,-1,-1,-1,13,15,-1,-1,-1,-1],"loss_changes":[7.218395E-1,4.7926003E-1,8.7827635E-1,3.7200356E-1,0E0,5.646484E-1,1.0937535E0,0E0,0E0,0E0,0E0,1.8360608E0,9.759055E-1,0E0,0E0,0E0,0E0],"parents":[2147483647,0,0,1,1,2,2,3,3,5,5,6,6,11,11,12,12],"right_children":[2,4,6,8,-1,10,12,-1,-1,-1,-1,14,16,-1,-1,-1,-1],"split_conditions":[2.9682282E-1,3E0,3.2077023E-1,7.4444447E0,1.0928064E-2,1.4E0,3.3333334E-1,-7.575398E-2,-2.243987E-3,6.953927E-2,-8.504694E-3,8E-1,1.3333334E0,-2.111088E-2,9.45079E-2,-1.1595082E-2,7.5217797E-3],"split_indices":[4,8,4,7,0,3,0,0,0,0,0,1,2,0,0,0,0],"split_type":[0,0,0,0,0,0,0,0,0,0,0,0,0,0,0,0,0],"sum_hessian":[1.1572773E2,3.7672894E0,1.1196044E2,2.6497157E0,1.117574E0,3.079017E0,1.08881424E2,1.6326337E0,1.0170819E0,2.0283902E0,1.0506268E0,4.0187597E0,1.0486266E2,1.935957E0,2.0828028E0,5.253628E1,5.2326385E1],"tree_param":{"num_deleted":"0","num_feature":"10","num_nodes":"17","size_leaf_vector":"1"}},{"base_weights":[2.2334538E-3,-3.9331308E-1,1.6518213E-2,1.0559196E-2,-7.805811E-2,7.153435E-2,-1.1142373E-1,2.8466905E-2,4.14646E-1,5.3156275E-1,-1.8804714E-1,-1.2789776E-2,1.685841E-2,1.902837E-3,1.02184676E-1,-2.3418102E-2,1.0134097E-1,-6.363683E-2,-1.450304E-4],"categories":[],"categories_nodes":[],"categories_segments":[],"categories_sizes":[],"default_left":[0,0,0,0,0,0,0,0,0,0,0,0,0,0,0,0,0,0,0],"id":57,"left_children":[1,3,5,-1,-1,7,9,11,13,15,17,-1,-1,-1,-1,-1,-1,-1,-1],"loss_changes":[6.6483283E-1,8.748577E-1,8.0626535E-1,0E0,0E0,1.1691378E0,1.7994261E0,1.6007668E0,2.1038258E0,1.6889502E0,2.6392562E0,0E0,0E0,0E0,0E0,0E0,0E0,0E0,0E0],"parents":[2147483647,0,0,1,1,2,2,5,5,6,6,7,7,8,8,9,9,10,10],"right_children":[2,4,6,-1,-1,8,10,12,14,16,18,-1,-1,-1,-1,-1,-1,-1,-1],"split_conditions":[2.4E0,6.5555553E0,1.4285715E0,1.0559196E-2,-7.805811E-2,1.4E0,3.3333333E0,7.4444447E0,5.4487765E-1,2.9E0,5.346735E-1,-1.2789776E-2,1.685841E-2,1.902837E-3,1.02184676E-1,-2.3418102E-2,1.0134097E-1,-6.363683E-2,-1.450304E-4],"split_indices":[9,7,1,0,0,1,9,7,4,9,5,0,0,0,0,0,0,0,0],"split_type":[0,0,0,0,0,0,0,0,0,0,0,0,0,0,0,0,0,0,0],"sum_hessian":[1.1551374E2,3.1014166E0,1.1241233E2,1.6732122E0,1.4282045E0,7.8917854E1,3.3494473E1,7.107897E1,7.83888E0,2.9342587E0,3.0560213E1,3.3633106E1,3.744587E1,5.370866E0,2.4680142E0,1.3317907E0,1.6024681E0,8.272986E0,2.2287228E1],"tree_param":{"num_deleted":"0","num_feature":"10","num_nodes":"19","size_leaf_vector":"1"}},{"base_weights":[2.3882692E-3,-9.469646E-3,4.7705192E-2,6.051553E-3,-5.497729E-1,-1.2970016E-2,5.660268E-1,-1.1117872E-3,-8.179963E-2,2.0666728E-3,-3.254673E-2,1.0814333E-1,-4.029065E-2],"categories":[],"categories_nodes":[],"categories_segments":[],"categories_sizes":[],"default_left":[0,0,0,0,0,0,0,0,0,0,0,0,0],"id":58,"left_children":[1,3,-1,5,7,9,11,-1,-1,-1,-1,-1,-1],"loss_changes":[6.5875673E-1,9.625684E-1,0E0,1.2022274E0,4.5396638E-1,1.1574204E0,2.2873583E0,0E0,0E0,0E0,0E0,0E0,0E0],"parents":[2147483647,0,0,1,1,3,3,4,4,5,5,6,6],"right_children":[2,4,-1,6,8,10,12,-1,-1,-1,-1,-1,-1],"split_conditions":[2.142857E0,1.2333333E1,4.7705192E-2,1.1666667E1,1.1E0,1.0333333E1,6.70735E-1,-1.1117872E-3,-8.179963E-2,2.0666728E-3,-3.254673E-2,1.0814333E-1,-4.029065E-2],"split_indices":[3,6,0,6,1,6,4,0,0,0,0,0,0],"split_type":[0,0,0,0,0,0,0,0,0,0,0,0,0],"sum_hessian":[1.1523642E2,1.1338395E2,1.8524764E0,1.11178925E2,2.2050183E0,1.0847115E2,2.7077737E0,1.0791945E0,1.1258239E0,9.877322E1,9.697937E0,1.6917639E0,1.0160099E0],"tree_param":{"num_deleted":"0","num_feature":"10","num_nodes":"13","size_leaf_vector":"1"}},{"base_weights":[2.167248E-3,-3.459998E-2,1.5395261E-1,1.7578848E-2,-3.196262E-1,4.0615007E-1,-9.0287924E-2,-1.16976984E-1,1.2069155E-1,-4.4444117E-1,4.2604975E-2,-4.684397E-2,9.0105456E-1,4.457669E-1,-2.5714347E-1,2.1918813E-2,-3.6046457E-2,6.562587E-2,5.782111E-4,-6.1300884E-6,-8.188042E-2,6.696536E-2,-3.957278E-2,1.216708E-1,2.1029448E-2,7.3894694E-2,-6.8915384E-3,-4.124783E-2,4.2420454E-2],"categories":[],"categories_nodes":[],"categories_segments":[],"categories_sizes":[],"default_left":[0,0,0,0,0,0,0,0,0,0,0,0,0,0,0,0,0,0,0,0,0,0,0,0,0,0,0,0,0],"id":59,"left_children":[1,3,5,7,9,11,13,15,17,19,-1,21,23,25,27,-1,-1,-1,-1,-1,-1,-1,-1,-1,-1,-1,-1,-1,-1],"loss_changes":[6.5338445E-1,1.408033E0,1.4427665E0,1.1331354E0,1.5522507E0,2.6007934E0,1.2250491E0,2.984701E0,2.8366005E0,2.1681654E0,0E0,1.9921229E0,9.441061E-1,5.5081165E-1,1.2441356E0,0E0,0E0,0E0,0E0,0E0,0E0,0E0,0E0,0E0,0E0,0E0,0E0,0E0,0E0],"parents":[2147483647,0,0,1,1,2,2,3,3,4,4,5,5,6,6,7,7,8,8,9,9,11,11,12,12,13,13,14,14],"right_children":[2,4,6,8,10,12,14,16,18,20,-1,22,24,26,28,-1,-1,-1,-1,-1,-1,-1,-1,-1,-1,-1,-1,-1,-1],"split_conditions":[2E0,1.6666666E0,1.6666666E0,7.5E0,6E0,5.2928644E-1,3.7E0,6.714286E0,7.625E0,3.7142856E0,4.2604975E-2,6.3333335E0,1.0333333E1,1.5E0,3.5E0,2.1918813E-2,-3.6046457E-2,6.562587E-2,5.782111E-4,-6.1300884E-6,-8.188042E-2,6.696536E-2,-3.957278E-2,1.216708E-1,2.1029448E-2,7.3894694E-2,-6.8915384E-3,-4.124783E-2,4.2420454E-2],"split_indices":[0,0,1,7,8,5,9,7,7,9,0,6,6,2,0,0,0,0,0,0,0,0,0,0,0,0,0,0,0],"split_type":[0,0,0,0,0,0,0,0,0,0,0,0,0,0,0,0,0,0,0,0,0,0,0,0,0,0,0,0,0],"sum_hessian":[1.1512425E2,9.3296844E1,2.1827406E1,7.96533E1,1.3643544E1,1.0412635E1,1.141477E1,3.449932E1,4.515398E1,1.2033322E1,1.6102219E0,5.9091983E0,4.5034366E0,2.3128219E0,9.101949E0,1.4533626E1,1.9965694E1,7.1444077E0,3.800957E1,5.9594474E0,6.073875E0,1.6340195E0,4.275179E0,2.5683744E0,1.9350624E0,1.1958767E0,1.116945E0,7.733473E0,1.3684752E0],"tree_param":{"num_deleted":"0","num_feature":"10","num_nodes":"29","size_leaf_vector":"1"}},{"base_weights":[4.0015792E-3,-3.4192804E-1,2.115943E-2,-6.640179E-2,1.4823066E-1,5.437096E-1,3.5366358E-3,5.749469E-2,-3.5177197E-2,8.4969605E-4,7.781857E-2,1.19207725E-1,-8.1844546E-2,1.5827639E-2,-6.633607E-2,-7.513072E-2,-3.1571146E-3],"categories":[],"categories_nodes":[],"categories_segments":[],"categories_sizes":[],"default_left":[0,0,0,0,0,0,0,0,0,0,0,0,0,0,0,0,0],"id":60,"left_children":[1,3,5,-1,7,9,11,-1,-1,-1,-1,13,15,-1,-1,-1,-1],"loss_changes":[6.9354683E-1,9.7028136E-1,1.0212446E0,0E0,8.4390104E-1,4.47461E-1,1.0812126E0,0E0,0E0,0E0,0E0,1.5260519E0,2.0969543E0,0E0,0E0,0E0,0E0],"parents":[2147483647,0,0,1,1,2,2,4,4,5,5,6,6,11,11,12,12],"right_children":[2,4,6,-1,8,10,12,-1,-1,-1,-1,14,16,-1,-1,-1,-1],"split_conditions":[4.2857143E-1,4.858902E-1,3.3333334E-1,-6.640179E-2,6E0,4.337609E-1,1.1666666E0,5.749469E-2,-3.5177197E-2,8.4969605E-4,7.781857E-2,6.3333335E0,5E-1,1.5827639E-2,-6.633607E-2,-7.513072E-2,-3.1571146E-3],"split_indices":[1,5,0,0,6,4,1,0,0,0,0,8,0,0,0,0,0],"split_type":[0,0,0,0,0,0,0,0,0,0,0,0,0,0,0,0,0],"sum_hessian":[1.14630104E2,4.522425E0,1.1010768E2,2.5150514E0,2.0073736E0,2.618269E0,1.0748941E2,1.0021894E0,1.0051842E0,1.1133002E0,1.5049688E0,4.5479446E1,6.200996E1,4.4076725E1,1.402722E0,3.3573668E0,5.8652596E1],"tree_param":{"num_deleted":"0","num_feature":"10","num_nodes":"17","size_leaf_vector":"1"}},{"base_weights":[2.7169539E-3,-2.8359208E-1,2.318119E-2,-6.4225405E-1,5.1476568E-2,1.4028299E-1,-5.1856715E-2,-1.17998095E-2,-8.724013E-2,2.820853E-1,-4.4330735E-2,-4.8101208E-1,3.8043406E-2,4.769821E-2,-2.2256056E-2,4.5689378E-2,-2.215302E-2,3.602646E-2,-6.477672E-2,-1.6109753E-2,1.7418137E-2],"categories":[],"categories_nodes":[],"categories_segments":[],"categories_sizes":[],"default_left":[0,0,0,0,0,0,0,0,0,0,0,0,0,0,0,0,0,0,0,0,0],"id":61,"left_children":[1,3,5,7,-1,9,11,-1,-1,13,15,17,19,-1,-1,-1,-1,-1,-1,-1,-1],"loss_changes":[6.8322206E-1,2.5581853E0,9.624939E-1,5.984113E-1,0E0,1.1309688E0,2.6025808E0,0E0,0E0,2.496128E0,1.8264403E0,1.8711812E0,1.5546155E0,0E0,0E0,0E0,0E0,0E0,0E0,0E0,0E0],"parents":[2147483647,0,0,1,1,2,2,3,3,5,5,6,6,9,9,10,10,11,11,12,12],"right_children":[2,4,6,8,-1,10,12,-1,-1,14,16,18,20,-1,-1,-1,-1,-1,-1,-1,-1],"split_conditions":[2.7E0,5.013558E-1,3.5E0,4.000292E-1,5.1476568E-2,1.2222222E0,3.5714285E0,-1.17998095E-2,-8.724013E-2,8E0,8.75E-1,3.8738093E-1,8E0,4.769821E-2,-2.2256056E-2,4.5689378E-2,-2.215302E-2,3.602646E-2,-6.477672E-2,-1.6109753E-2,1.7418137E-2],"split_indices":[9,4,8,5,0,1,9,0,0,6,3,5,7,0,0,0,0,0,0,0,0],"split_type":[0,0,0,0,0,0,0,0,0,0,0,0,0,0,0,0,0,0,0,0,0],"sum_hessian":[1.1448678E2,6.7794585E0,1.0770732E2,4.812828E0,1.9666305E0,4.172426E1,6.598306E1,1.929743E0,2.8830848E0,2.329971E1,1.842455E1,1.0674723E1,5.5308342E1,1.6847815E1,6.4518943E0,4.4000897E0,1.4024461E1,1.5739135E0,9.100809E0,2.2383173E1,3.2925167E1],"tree_param":{"num_deleted":"0","num_feature":"10","num_nodes":"21","size_leaf_vector":"1"}},{"base_weights":[2.0692374E-3,-3.824388E-1,1.817544E-2,-5.600259E-1,9.787999E-3,4.3004712E-1,2.830906E-3,-7.36317E-2,-5.6725615E-3,6.6018365E-2,-8.204882E-3,4.0884688E-1,-1.6345937E-2,-2.0311132E-2,8.625495E-2,-6.514318E-3,1.6498795E-2],"categories":[],"categories_nodes":[],"categories_segments":[],"categories_sizes":[],"default_left":[0,0,0,0,0,0,0,0,0,0,0,0,0,0,0,0,0],"id":62,"left_children":[1,3,5,7,-1,9,11,-1,-1,-1,-1,13,15,-1,-1,-1,-1],"loss_changes":[7.2003573E-1,4.5355177E-1,7.032689E-1,2.7424085E-1,0E0,5.252317E-1,8.5126233E-1,0E0,0E0,0E0,0E0,1.5441943E0,9.357968E-1,0E0,0E0,0E0,0E0],"parents":[2147483647,0,0,1,1,2,2,3,3,5,5,6,6,11,11,12,12],"right_children":[2,4,6,8,-1,10,12,-1,-1,-1,-1,14,16,-1,-1,-1,-1],"split_conditions":[2.9682282E-1,3E0,3.2077023E-1,7.4444447E0,9.787999E-3,1.3333334E0,3.3333334E-1,-7.36317E-2,-5.6725615E-3,6.6018365E-2,-8.204882E-3,8E-1,2E0,-2.0311132E-2,8.625495E-2,-6.514318E-3,1.6498795E-2],"split_indices":[4,8,4,7,0,2,0,0,0,0,0,1,0,0,0,0,0],"split_type":[0,0,0,0,0,0,0,0,0,0,0,0,0,0,0,0,0],"sum_hessian":[1.1414433E2,3.674605E0,1.1046973E2,2.5615742E0,1.1130307E0,2.997086E0,1.0747264E2,1.5542052E0,1.007369E0,1.8682934E0,1.1287928E0,3.9307246E0,1.03541916E2,1.9086478E0,2.0220768E0,8.2091675E1,2.1450245E1],"tree_param":{"num_deleted":"0","num_feature":"10","num_nodes":"17","size_leaf_vector":"1"}},{"base_weights":[2.4184915E-3,-3.6539483E-1,1.7606718E-2,-5.3868E-1,9.256457E-3,-2.5209112E-3,3.2784778E-1,-7.137174E-2,-5.391225E-3,4.5401573E-1,-2.2706944E-2,9.202835E-2,4.734344E-2,8.090934E-2,-3.5964083E-2,-3.7996642E-2,1.4622735E-3,4.158643E-2,-4.517611E-2],"categories":[],"categories_nodes":[],"categories_segments":[],"categories_sizes":[],"default_left":[0,0,0,0,0,0,0,0,0,0,0,0,0,0,0,0,0,0,0],"id":63,"left_children":[1,3,5,7,-1,9,11,-1,-1,13,15,-1,17,-1,-1,-1,-1,-1,-1],"loss_changes":[6.4816177E-1,4.1501367E-1,6.9565105E-1,2.5721955E-1,0E0,9.8241913E-1,1.084268E0,0E0,0E0,1.595186E0,1.3654712E0,0E0,1.2289578E0,0E0,0E0,0E0,0E0,0E0,0E0],"parents":[2147483647,0,0,1,1,2,2,3,3,5,5,6,6,9,9,10,10,12,12],"right_children":[2,4,6,8,-1,10,12,-1,-1,14,16,-1,18,-1,-1,-1,-1,-1,-1],"split_conditions":[2.9682282E-1,3E0,2.5E0,7.4444447E0,9.256457E-3,2E0,4.731952E-1,-7.137174E-2,-5.391225E-3,4.4801235E-1,4.1007444E-1,9.202835E-2,4.5E0,8.090934E-2,-3.5964083E-2,-3.7996642E-2,1.4622735E-3,4.158643E-2,-4.517611E-2],"split_indices":[4,8,2,7,0,8,5,0,0,5,5,0,8,0,0,0,0,0,0],"split_type":[0,0,0,0,0,0,0,0,0,0,0,0,0,0,0,0,0,0,0],"sum_hessian":[1.13872665E2,3.6013365E0,1.1027133E2,2.4848454E0,1.1164912E0,1.0448452E2,5.786809E0,1.4786537E0,1.0061916E0,3.514199E0,1.0097032E2,1.1265903E0,4.6602187E0,2.450441E0,1.0637581E0,8.68385E0,9.2286476E1,2.7767475E0,1.8834713E0],"tree_param":{"num_deleted":"0","num_feature":"10","num_nodes":"19","size_leaf_vector":"1"}},{"base_weights":[2.413082E-3,-5.0102632E-2,1.0337031E-1,3.0968166E-3,-4.835602E-1,3.7593344E-1,-1.204726E-1,