{"learner":{"attributes":{"scikit_learn":"{\"_estimator_type\": \"classifier\"}"},"feature_names":["home_team_id","away_team_id","home_last_5_points","away_last_5_points","home_last_5_avg_goals","away_last_5_avg_goals","h2h_last_3_home_wins","home_last_5_goal_diff","away_last_5_goal_diff","home_win_streak","away_win_streak","home_last_5_win_rate","away_last_5_win_rate","home_rest_days","away_rest_days"],"feature_types":["int","int","int","int","float","float","int","int","int","int","int","float","float","int","int"],"gradient_booster":{"model":{"gbtree_model_param":{"num_parallel_tree":"1","num_trees":"300"},"iteration_indptr":[0,3,6,9,12,15,18,21,24,27,30,33,36,39,42,45,48,51,54,57,60,63,66,69,72,75,78,81,84,87,90,93,96,99,102,105,108,111,114,117,120,123,126,129,132,135,138,141,144,147,150,153,156,159,162,165,168,171,174,177,180,183,186,189,192,195,198,201,204,207,210,213,216,219,222,225,228,231,234,237,240,243,246,249,252,255,258,261,264,267,270,273,276,279,282,285,288,291,294,297,300],"tree_info":[0,1,2,0,1,2,0,1,2,0,1,2,0,1,2,0,1,2,0,1,2,0,1,2,0,1,2,0,1,2,0,1,2,0,1,2,0,1,2,0,1,2,0,1,2,0,1,2,0,1,2,0,1,2,0,1,2,0,1,2,0,1,2,0,1,2,0,1,2,0,1,2,0,1,2,0,1,2,0,1,2,0,1,2,0,1,2,0,1,2,0,1,2,0,1,2,0,1,2,0,1,2,0,1,2,0,1,2,0,1,2,0,1,2,0,1,2,0,1,2,0,1,2,0,1,2,0,1,2,0,1,2,0,1,2,0,1,2,0,1,2,0,1,2,0,1,2,0,1,2,0,1,2,0,1,2,0,1,2,0,1,2,0,1,2,0,1,2,0,1,2,0,1,2,0,1,2,0,1,2,0,1,2,0,1,2,0,1,2,0,1,2,0,1,2,0,1,2,0,1,2,0,1,2,0,1,2,0,1,2,0,1,2,0,1,2,0,1,2,0,1,2,0,1,2,0,1,2,0,1,2,0,1,2,0,1,2,0,1,2,0,1,2,0,1,2,0,1,2,0,1,2,0,1,2,0,1,2,0,1,2,0,1,2,0,1,2,0,1,2,0,1,2,0,1,2,0,1,2,0,1,2,0,1,2,0,1,2,0,1,2,0,1,2,0,1,2,0,1,2],"trees":[{"base_weights":[1.2164687E-1,1.0899944E0,-6.1963823E-2,1.3129059E-2,1.4496645E0,2.3030299E-1,-1.1638423E-1,-6.2264156E-2,9.443095E-2,-2.0689659E-2,1.4761544E0,-1.5988785E-1,5.8386683E-1,-5.1291626E-2,-2.510606E-1,2.5597265E-1,-2.790698E-1,-2.5544848E-9,1.4896868E-1,-2.5592422E-1,5.3932583E-1,8.2149047E-1,-8.4507085E-2,5.7526324E-2,-2.0168072E-1,-3.4261844E-1,-1.8491808E-1,1.7843862E-1,8.1818186E-2,-6.2264156E-2,-3.529416E-2,4.6153843E-1,-3.3275568E-1,9.0566033E-1,-3.576279E-8,5.882349E-2,1.073903E0,-5.0769234E-1,9.554136E-2,-2.8503608E-2,2.3233297E-1,-2.1825582E-1,4.736842E-1,-1.310048E-2,-4.2707124E-1,-3.3033714E-1,-1.2396699E-1,-3.6585372E-2,2.6582275E-2,-3.1578954E-2,4.054054E-2,9.512195E-2,-2.7272731E-2,-2.3244558E-2,-5.5491336E-2,2.3999998E-2,1.1351352E-1,4.137931E-2,-4.8000004E-2,-3.692308E-2,3.4020614E-2,3.287671E-2,1.1951219E-1,-6.2264156E-2,-2.5544848E-9,3.4285713E-2,-3.4426235E-2,-5.949435E-3,6.185567E-2,-2.8142636E-3,5.009823E-2,-1.3557139E-2,-4.056464E-2,7.317073E-2,-1.2000003E-2,2.4742266E-2,-1.9148942E-2,-6.144579E-2,-3.452189E-2,1.12781925E-2,-5.0467294E-2,-2.5295114E-2,2.970293E-3],"categories":[],"categories_nodes":[],"categories_segments":[],"categories_sizes":[],"default_left":[0,0,0,0,0,0,0,0,0,0,0,0,0,0,0,0,0,0,0,0,0,0,0,0,0,0,0,0,0,0,0,0,0,0,0,0,0,0,0,0,0,0,0,0,0,0,0,0,0,0,0,0,0,0,0,0,0,0,0,0,0,0,0,0,0,0,0,0,0,0,0,0,0,0,0,0,0,0,0,0,0,0,0],"id":0,"left_children":[1,3,5,7,9,11,13,-1,15,-1,17,19,21,23,25,27,29,-1,-1,31,33,35,37,39,41,43,45,47,-1,-1,49,51,53,55,57,59,61,63,65,67,69,71,73,75,77,79,81,-1,-1,-1,-1,-1,-1,-1,-1,-1,-1,-1,-1,-1,-1,-1,-1,-1,-1,-1,-1,-1,-1,-1,-1,-1,-1,-1,-1,-1,-1,-1,-1,-1,-1,-1,-1],"loss_changes":[2.2174332E2,7.6970856E1,1.6711443E1,2.6834674E0,6.8438416E0,2.2856318E1,7.7454176E0,0E0,2.8401842E0,0E0,2.9319763E0,5.457794E0,1.3851591E1,9.796072E0,1.681406E0,1.2731123E0,1.1785046E0,0E0,0E0,4.0306134E0,1.9537842E0,1.2278648E1,1.8517601E0,5.235043E0,2.9156256E0,3.3245735E0,1.4609113E0,1.5188428E0,0E0,0E0,1.29549E0,2.856217E0,1.2997069E0,6.271086E-1,1.1917241E0,2.1732147E0,3.9527016E0,4.2148054E-1,2.0154715E0,4.7269454E0,8.045856E0,3.754878E0,1.0579717E0,1.2298951E0,1.2484016E0,3.8765774E0,2.4058523E0,0E0,0E0,0E0,0E0,0E0,0E0,0E0,0E0,0E0,0E0,0E0,0E0,0E0,0E0,0E0,0E0,0E0,0E0,0E0,0E0,0E0,0E0,0E0,0E0,0E0,0E0,0E0,0E0,0E0,0E0,0E0,0E0,0E0,0E0,0E0,0E0],"parents":[2147483647,0,0,1,1,2,2,3,3,4,4,5,5,6,6,8,8,10,10,11,11,12,12,13,13,14,14,15,15,16,16,19,19,20,20,21,21,22,22,23,23,24,24,25,25,26,26,27,27,30,30,31,31,32,32,33,33,34,34,35,35,36,36,37,37,38,38,39,39,40,40,41,41,42,42,43,43,44,44,45,45,46,46],"right_children":[2,4,6,8,10,12,14,-1,16,-1,18,20,22,24,26,28,30,-1,-1,32,34,36,38,40,42,44,46,48,-1,-1,50,52,54,56,58,60,62,64,66,68,70,72,74,76,78,80,82,-1,-1,-1,-1,-1,-1,-1,-1,-1,-1,-1,-1,-1,-1,-1,-1,-1,-1,-1,-1,-1,-1,-1,-1,-1,-1,-1,-1,-1,-1,-1,-1,-1,-1,-1,-1],"split_conditions":[2.5E-1,3E0,7.5E-1,1.2E1,-6E0,0E0,1.6666666E0,-6.2264156E-2,8.4E1,-2.0689659E-2,0E0,1.3E1,1E0,1E0,4.4E1,8.2E1,0E0,-2.5544848E-9,1.4896868E-1,6.666667E-1,-4E0,-2E0,-5E0,1E0,1E2,8E0,8E0,-1E0,8.1818186E-2,-6.2264156E-2,8.8E1,5E-1,6.8E1,3.8E1,6.8E1,3E0,0E0,8.7E1,7E1,9.8E1,0E0,6.8E1,7E1,9E0,5E0,0E0,8E0,-3.6585372E-2,2.6582275E-2,-3.1578954E-2,4.054054E-2,9.512195E-2,-2.7272731E-2,-2.3244558E-2,-5.5491336E-2,2.3999998E-2,1.1351352E-1,4.137931E-2,-4.8000004E-2,-3.692308E-2,3.4020614E-2,3.287671E-2,1.1951219E-1,-6.2264156E-2,-2.5544848E-9,3.4285713E-2,-3.4426235E-2,-5.949435E-3,6.185567E-2,-2.8142636E-3,5.009823E-2,-1.3557139E-2,-4.056464E-2,7.317073E-2,-1.2000003E-2,2.4742266E-2,-1.9148942E-2,-6.144579E-2,-3.452189E-2,1.12781925E-2,-5.0467294E-2,-2.5295114E-2,2.970293E-3],"split_indices":[5,3,4,1,8,9,4,0,1,0,10,14,10,10,1,0,10,0,0,5,7,8,7,7,1,1,2,7,0,0,0,4,1,0,1,2,10,0,0,0,8,1,0,0,3,10,3,0,0,0,0,0,0,0,0,0,0,0,0,0,0,0,0,0,0,0,0,0,0,0,0,0,0,0,0,0,0,0,0,0,0,0,0],"split_type":[0,0,0,0,0,0,0,0,0,0,0,0,0,0,0,0,0,0,0,0,0,0,0,0,0,0,0,0,0,0,0,0,0,0,0,0,0,0,0,0,0,0,0,0,0,0,0,0,0,0,0,0,0,0,0,0,0,0,0,0,0,0,0,0,0,0,0,0,0,0,0,0,0,0,0,0,0,0,0,0,0,0,0],"sum_hessian":[1.2457777E3,1.9777777E2,1.0479999E3,4.9777775E1,1.4799998E2,1.6399998E2,8.8399994E2,4.8888884E0,4.4888885E1,2.222222E0,1.4577777E2,7.822221E1,8.577777E1,5.9688885E2,2.8711108E2,3.1555553E1,1.3333332E1,1.3333333E0,1.4444444E2,6.933333E1,8.888888E0,6.3111107E1,2.2666666E1,3.4666666E2,2.5022221E2,1.1866666E2,1.6844443E2,2.8888887E1,2.6666665E0,4.8888884E0,8.444444E0,6.222222E0,6.3111107E1,4.8888884E0,3.9999998E0,1.5999999E1,4.7111107E1,6.222222E0,1.6444443E1,2.3288887E2,1.1377777E2,2.4488887E2,5.333333E0,2.4444443E1,9.422221E1,4.8444443E1,1.1999999E2,3.5555553E0,2.5333332E1,5.333333E0,3.111111E0,3.5555553E0,2.6666665E0,4.4888885E1,1.8222221E1,1.7777777E0,3.111111E0,2.222222E0,1.7777777E0,6.222222E0,9.777777E0,7.1111107E0,3.9999996E1,4.8888884E0,1.3333333E0,1.0666666E1,5.7777777E0,2.231111E2,9.777777E0,5.8222218E1,5.5555553E1,1.711111E2,7.377777E1,3.5555553E0,1.7777777E0,9.777777E0,1.4666666E1,2.6666664E1,6.755555E1,1.3777777E1,3.4666664E1,6.4888885E1,5.5111107E1],"tree_param":{"num_deleted":"0","num_feature":"15","num_nodes":"83","size_leaf_vector":"1"}},{"base_weights":[4.3846317E-2,-4.0657502E-1,2.0657046E-1,-7.775383E-2,-6.8956906E-1,6.763281E-2,4.9681526E-1,5.895954E-1,-1.7142862E-1,4.285714E-2,-7.004406E-1,4.2081445E-1,-1.93635E-2,4.4633234E-1,9.3962264E-1,2.654867E-1,1.0434783E0,-3.01508E-2,-3.0141294E-1,-4.4776124E-1,-7.3228353E-1,2.8590602E-1,6.8292683E-1,9.627724E-2,-1.441109E-1,4.855491E-1,-8.6705245E-2,1.033195E0,-3.2511625E-8,-1.1111116E-1,9.512195E-2,2.3999998E-2,1.24528304E-1,-3.3727816E-1,8.924481E-2,1.3259664E-1,-4.645162E-1,4.285714E-2,-5.2380955E-1,-2.727273E-1,-7.3852885E-1,8.769231E-1,2.2641505E-1,3.2484072E-1,9.0950227E-1,-1.3663025E-2,3.040791E-1,-1.9900502E-1,1.3150682E-1,-5.454546E-2,4.9887636E-1,-3.7078658E-1,1.9354835E-1,1.0344825E-2,1.1131221E0,4.285714E-2,-4.2857148E-2,5.454545E-2,-4.7368426E-2,2.7272725E-2,-4.5517247E-2,-1.3186819E-2,4.33526E-2,-5.675676E-2,2.9411761E-2,-5.4352947E-2,3.0612243E-2,2.3999998E-2,-6.0693648E-2,-2.5544848E-9,-4.2857148E-2,-2.7272731E-2,-7.449964E-2,1.0408163E-1,2.3999998E-2,6.8649845E-3,4.827586E-2,2.399996E-3,1.1707317E-1,1.0047847E-1,-4.2857148E-2,-2.8254852E-2,6.8354392E-3,1.3608244E-2,5.405405E-2,-2.6841024E-2,8.219174E-3,-5.119459E-3,7.777777E-2,5.2720267E-2,9.554136E-3,4.285714E-2,-5.4545462E-2,6.315789E-2,-4.0000003E-2,-2.5544848E-9,1.1770334E-1],"categories":[],"categories_nodes":[],"categories_segments":[],"categories_sizes":[],"default_left":[0,0,0,0,0,0,0,0,0,0,0,0,0,0,0,0,0,0,0,0,0,0,0,0,0,0,0,0,0,0,0,0,0,0,0,0,0,0,0,0,0,0,0,0,0,0,0,0,0,0,0,0,0,0,0,0,0,0,0,0,0,0,0,0,0,0,0,0,0,0,0,0,0,0,0,0,0,0,0,0,0,0,0,0,0,0,0,0,0,0,0,0,0,0,0,0,0],"id":1,"left_children":[1,3,5,7,9,11,13,15,17,-1,19,21,23,25,27,29,31,33,35,37,39,41,43,45,47,49,51,53,55,57,-1,-1,-1,59,61,63,65,-1,67,69,71,73,75,77,79,81,83,85,87,-1,89,91,93,-1,95,-1,-1,-1,-1,-1,-1,-1,-1,-1,-1,-1,-1,-1,-1,-1,-1,-1,-1,-1,-1,-1,-1,-1,-1,-1,-1,-1,-1,-1,-1,-1,-1,-1,-1,-1,-1,-1,-1,-1,-1,-1,-1],"loss_changes":[9.146584E1,3.0768082E1,3.6927345E1,9.749035E0,2.4625854E0,1.908868E1,6.2098846E0,2.550702E0,2.4904428E0,0E0,1.0926895E0,4.1463165E0,7.215595E0,5.646694E0,2.5888367E0,3.3481064E0,9.4424915E-1,2.4625208E0,5.0718365E0,1.7128644E0,2.4408722E-1,2.7119317E0,3.0310287E0,5.9364433E0,3.6657267E0,3.7057E0,1.6021386E0,1.8747616E0,8.5714287E-1,2.4008505E0,0E0,0E0,0E0,1.4745636E0,3.7534614E0,2.4413214E0,3.3124046E0,0E0,1.4790192E0,1.5584415E-1,2.5640106E-1,5.041127E-1,3.0629258E0,4.4111376E0,3.561329E0,3.7855258E0,3.4972534E0,3.9448829E0,4.8283987E0,0E0,2.7741394E0,1.6144756E0,2.9392188E0,0E0,1.7469063E0,0E0,0E0,0E0,0E0,0E0,0E0,0E0,0E0,0E0,0E0,0E0,0E0,0E0,0E0,0E0,0E0,0E0,0E0,0E0,0E0,0E0,0E0,0E0,0E0,0E0,0E0,0E0,0E0,0E0,0E0,0E0,0E0,0E0,0E0,0E0,0E0,0E0,0E0,0E0,0E0,0E0,0E0],"parents":[2147483647,0,0,1,1,2,2,3,3,4,4,5,5,6,6,7,7,8,8,10,10,11,11,12,12,13,13,14,14,15,15,16,16,17,17,18,18,19,19,20,20,21,21,22,22,23,23,24,24,25,25,26,26,27,27,28,28,29,29,33,33,34,34,35,35,36,36,38,38,39,39,40,40,41,41,42,42,43,43,44,44,45,45,46,46,47,47,48,48,50,50,51,51,52,52,54,54],"right_children":[2,4,6,8,10,12,14,16,18,-1,20,22,24,26,28,30,32,34,36,38,40,42,44,46,48,50,52,54,56,58,-1,-1,-1,60,62,64,66,-1,68,70,72,74,76,78,80,82,84,86,88,-1,90,92,94,-1,96,-1,-1,-1,-1,-1,-1,-1,-1,-1,-1,-1,-1,-1,-1,-1,-1,-1,-1,-1,-1,-1,-1,-1,-1,-1,-1,-1,-1,-1,-1,-1,-1,-1,-1,-1,-1,-1,-1,-1,-1,-1,-1],"split_conditions":[6.666667E-1,5E0,1.6666666E0,-4E0,-6E0,4E0,3E0,-3E0,5.9E1,4.285714E-2,0E0,1E0,2E0,2.6E0,1E0,2E-1,2.3E1,-7E0,1E0,3E0,4E0,-1.1E1,1.25E0,1E0,8.1E1,3E0,1.3E1,7E0,3E0,3.9E1,9.512195E-2,2.3999998E-2,1.24528304E-1,5E0,2.5E-1,6.9E1,1E0,4.285714E-2,4E0,2.7E1,-2E0,1.3E1,-3E0,8E1,9.2E1,5E0,5.4E1,9E0,1.1E1,-5.454546E-2,9.1E1,4E0,3.2E0,1.0344825E-2,5E0,4.285714E-2,-4.2857148E-2,5.454545E-2,-4.7368426E-2,2.7272725E-2,-4.5517247E-2,-1.3186819E-2,4.33526E-2,-5.675676E-2,2.9411761E-2,-5.4352947E-2,3.0612243E-2,2.3999998E-2,-6.0693648E-2,-2.5544848E-9,-4.2857148E-2,-2.7272731E-2,-7.449964E-2,1.0408163E-1,2.3999998E-2,6.8649845E-3,4.827586E-2,2.399996E-3,1.1707317E-1,1.0047847E-1,-4.2857148E-2,-2.8254852E-2,6.8354392E-3,1.3608244E-2,5.405405E-2,-2.6841024E-2,8.219174E-3,-5.119459E-3,7.777777E-2,5.2720267E-2,9.554136E-3,4.285714E-2,-5.4545462E-2,6.315789E-2,-4.0000003E-2,-2.5544848E-9,1.1770334E-1],"split_indices":[4,2,4,8,8,3,4,7,0,0,7,9,8,5,12,12,1,7,2,0,3,8,4,9,1,0,3,2,8,0,0,0,0,3,12,0,9,0,13,0,8,13,8,0,0,3,1,2,3,0,0,2,5,0,1,0,0,0,0,0,0,0,0,0,0,0,0,0,0,0,0,0,0,0,0,0,0,0,0,0,0,0,0,0,0,0,0,0,0,0,0,0,0,0,0,0,0],"split_type":[0,0,0,0,0,0,0,0,0,0,0,0,0,0,0,0,0,0,0,0,0,0,0,0,0,0,0,0,0,0,0,0,0,0,0,0,0,0,0,0,0,0,0,0,0,0,0,0,0,0,0,0,0,0,0,0,0,0,0,0,0,0,0,0,0,0,0,0,0,0,0,0,0,0,0,0,0,0,0,0,0,0,0,0,0,0,0,0,0,0,0,0,0,0,0,0,0],"sum_hessian":[1.2457777E3,3.302222E2,9.155555E2,1.5333333E2,1.7688889E2,6.1999994E2,2.9555554E2,1.8222221E1,1.351111E2,1.3333333E0,1.7555554E2,1.2177777E2,4.982222E2,2.6711108E2,2.8444443E1,1.1555555E1,6.666666E0,6.533333E1,6.977777E1,2.1333332E1,1.5422221E2,8.177777E1,3.9999996E1,2.5866666E2,2.3955554E2,2.4888887E2,1.8222221E1,2.5777777E1,2.6666665E0,7.9999995E0,3.5555553E0,1.7777777E0,4.8888884E0,1.7777777E1,4.7555553E1,1.911111E1,5.0666664E1,1.3333333E0,1.9999998E1,2.6666665E0,1.5155554E2,6.222222E0,7.555555E1,1.6444443E1,2.3555553E1,1.6977777E2,8.8888885E1,1.9999998E2,3.9555553E1,2.6666665E0,2.4622221E2,8.888888E0,9.333333E0,2.222222E0,2.3555553E1,1.3333333E0,1.3333333E0,2.6666665E0,5.333333E0,2.6666665E0,1.5111111E1,2.9333332E1,1.8222221E1,3.111111E0,1.5999999E1,4.622222E1,4.444444E0,1.7777777E0,1.8222221E1,1.3333333E0,1.3333333E0,2.6666665E0,1.4888889E2,4.444444E0,1.7777777E0,4.7555553E1,2.7999998E1,1.2888888E1,3.5555553E0,2.2222221E1,1.3333333E0,3.9111107E1,1.3066666E2,5.2888885E1,3.5999996E1,1.6044443E2,3.9555553E1,3.1555553E1,7.9999995E0,2.2977777E2,1.6444443E1,1.3333333E0,7.5555553E0,5.333333E0,3.9999998E0,1.3333333E0,2.2222221E1],"tree_param":{"num_deleted":"0","num_feature":"15","num_nodes":"97","size_leaf_vector":"1"}},{"base_weights":[-1.6549332E-1,-5.4316676E-1,-3.6205087E-2,-8.595993E-2,-6.0452205E-1,7.2035976E-2,-3.086939E-1,-1.8210867E-1,5.9999996E-1,-3.8709682E-1,-7.0880103E-1,1.0544771E-2,4.271186E-1,-3.3628717E-1,1.804511E-1,-4.5517248E-1,5.0847415E-2,1.0344827E-1,-1.2000003E-2,-1.4634152E-1,-5.660378E-1,-3.2511625E-8,-7.189935E-1,-1.7001833E-1,9.544278E-2,7.6407504E-1,1.7850284E-1,-3.6346433E-1,5.882349E-2,-3.658537E-1,3.861386E-1,5.6603737E-2,-6.831684E-2,-3.4285718E-1,5.555555E-1,4.285714E-2,-1.7647064E-1,-6.158941E-1,2.7272725E-1,-4.2857148E-2,4.285714E-2,-7.398059E-1,-4.285715E-1,7.9999995E-1,-1.9626173E-1,2.3300967E-1,-1.38249295E-2,9.585062E-1,3.8297868E-1,-9.338526E-2,4.285714E-1,-3.9170513E-1,-1.7751522E-2,4.4444442E-1,-3.3333337E-1,-2.5544848E-9,-5.1724143E-2,8.219174E-2,8.9189194E-2,-3.6585372E-2,8.571428E-2,6E-2,-5.7303376E-2,7.826087E-2,-4.2857148E-2,-3.6305737E-2,-2.8708177E-3,-6.474821E-2,-2.0000003E-2,-2.5544848E-9,4.285714E-2,-2.5544848E-9,-7.4559696E-2,-6.0550462E-2,2.7272725E-2,1.0909092E-1,-2.5544848E-9,-2.2622956E-2,3.3707865E-2,2.7734647E-2,-2.4087597E-2,-3.4357153E-3,9.512195E-2,1.0829269E-1,1.9999998E-2,8E-2,1.7142853E-2,-2.211982E-2,4.897959E-2,6.213018E-2,1.0619465E-2,-2.3076927E-2,-4.6641517E-2,-1.3375801E-2,8.571428E-2,-4.2857148E-2,6.521739E-2,-4.9180333E-2,1.0344825E-2,7.2413795E-2,-2.8301893E-2],"categories":[],"categories_nodes":[],"categories_segments":[],"categories_sizes":[],"default_left":[0,0,0,0,0,0,0,0,0,0,0,0,0,0,0,0,0,0,0,0,0,0,0,0,0,0,0,0,0,0,0,0,0,0,0,0,0,0,0,0,0,0,0,0,0,0,0,0,0,0,0,0,0,0,0,0,0,0,0,0,0,0,0,0,0,0,0,0,0,0,0,0,0,0,0,0,0,0,0,0,0,0,0,0,0,0,0,0,0,0,0,0,0,0,0,0,0,0,0,0,0],"id":2,"left_children":[1,3,5,7,9,11,13,15,17,19,21,23,25,27,29,31,33,-1,-1,35,37,39,41,43,45,47,49,51,53,55,57,59,-1,61,63,-1,65,67,69,-1,-1,71,73,75,77,79,81,83,85,87,89,91,93,95,97,-1,-1,99,-1,-1,-1,-1,-1,-1,-1,-1,-1,-1,-1,-1,-1,-1,-1,-1,-1,-1,-1,-1,-1,-1,-1,-1,-1,-1,-1,-1,-1,-1,-1,-1,-1,-1,-1,-1,-1,-1,-1,-1,-1,-1,-1],"loss_changes":[6.0858917E1,8.865471E0,2.7448822E1,2.6668215E0,6.076538E0,1.4544522E1,3.631422E0,2.2354238E0,1.6882759E0,3.9236965E0,1.3590012E0,8.738682E0,8.101257E0,2.7142258E0,1.8018205E0,1.918561E0,4.0983586E0,0E0,0E0,7.8581685E-1,2.3843098E0,8.5714287E-1,8.03833E-1,4.798592E0,5.8304796E0,2.7038212E0,3.975926E0,2.2852287E0,2.7189543E0,2.5231284E-1,1.6517977E0,2.3051739E0,0E0,2.8757625E0,2.3464465E0,0E0,1.0832076E0,5.317459E-1,1.5584418E-1,0E0,0E0,7.354584E-1,1.9988084E0,1.1636364E0,2.926569E0,3.6736212E0,4.3324285E0,2.3105373E0,1.2449849E0,2.2368188E0,1.8186855E0,2.5014725E0,2.0204706E0,1.9116634E0,6.7382693E-1,0E0,0E0,2.1065588E0,0E0,0E0,0E0,0E0,0E0,0E0,0E0,0E0,0E0,0E0,0E0,0E0,0E0,0E0,0E0,0E0,0E0,0E0,0E0,0E0,0E0,0E0,0E0,0E0,0E0,0E0,0E0,0E0,0E0,0E0,0E0,0E0,0E0,0E0,0E0,0E0,0E0,0E0,0E0,0E0,0E0,0E0,0E0],"parents":[2147483647,0,0,1,1,2,2,3,3,4,4,5,5,6,6,7,7,8,8,9,9,10,10,11,11,12,12,13,13,14,14,15,15,16,16,19,19,20,20,21,21,22,22,23,23,24,24,25,25,26,26,27,27,28,28,29,29,30,30,31,31,33,33,34,34,36,36,37,37,38,38,41,41,42,42,43,43,44,44,45,45,46,46,47,47,48,48,49,49,50,50,51,51,52,52,53,53,54,54,57,57],"right_children":[2,4,6,8,10,12,14,16,18,20,22,24,26,28,30,32,34,-1,-1,36,38,40,42,44,46,48,50,52,54,56,58,60,-1,62,64,-1,66,68,70,-1,-1,72,74,76,78,80,82,84,86,88,90,92,94,96,98,-1,-1,100,-1,-1,-1,-1,-1,-1,-1,-1,-1,-1,-1,-1,-1,-1,-1,-1,-1,-1,-1,-1,-1,-1,-1,-1,-1,-1,-1,-1,-1,-1,-1,-1,-1,-1,-1,-1,-1,-1,-1,-1,-1,-1,-1],"split_conditions":[7.5E-1,0E0,9E0,2.5E-1,4E0,1.1E1,9E0,1E0,5E0,2.5E-1,-6E0,1.2E0,5E0,9.1E1,3.4E1,2E0,2E0,1.0344827E-1,-1.2000003E-2,5E0,1E0,-8E0,9E0,-4E0,0E0,8E0,0E0,2.25E0,9.6E1,1.3E1,4E0,-2E0,-6.831684E-2,5E0,5E0,4.285714E-2,0E0,-1E0,4.1E1,-4.2857148E-2,4.285714E-2,-6E0,8E0,7E0,6E-1,9.4E1,8E0,1E0,6E0,1.5E0,2E0,2.9E1,1.4E1,-3E0,9E1,-2.5544848E-9,-5.1724143E-2,1.5E0,8.9189194E-2,-3.6585372E-2,8.571428E-2,6E-2,-5.7303376E-2,7.826087E-2,-4.2857148E-2,-3.6305737E-2,-2.8708177E-3,-6.474821E-2,-2.0000003E-2,-2.5544848E-9,4.285714E-2,-2.5544848E-9,-7.4559696E-2,-6.0550462E-2,2.7272725E-2,1.0909092E-1,-2.5544848E-9,-2.2622956E-2,3.3707865E-2,2.7734647E-2,-2.4087597E-2,-3.4357153E-3,9.512195E-2,1.0829269E-1,1.9999998E-2,8E-2,1.7142853E-2,-2.211982E-2,4.897959E-2,6.213018E-2,1.0619465E-2,-2.3076927E-2,-4.6641517E-2,-1.3375801E-2,8.571428E-2,-4.2857148E-2,6.521739E-2,-4.9180333E-2,1.0344825E-2,7.2413795E-2,-2.8301893E-2],"split_indices":[5,9,2,12,3,3,8,4,2,11,8,5,2,0,0,3,3,0,0,14,10,8,2,9,9,14,7,5,0,0,10,7,0,13,3,0,8,8,0,0,0,7,14,13,12,0,8,9,8,4,7,0,14,8,1,0,0,4,0,0,0,0,0,0,0,0,0,0,0,0,0,0,0,0,0,0,0,0,0,0,0,0,0,0,0,0,0,0,0,0,0,0,0,0,0,0,0,0,0,0,0],"split_type":[0,0,0,0,0,0,0,0,0,0,0,0,0,0,0,0,0,0,0,0,0,0,0,0,0,0,0,0,0,0,0,0,0,0,0,0,0,0,0,0,0,0,0,0,0,0,0,0,0,0,0,0,0,0,0,0,0,0,0,0,0,0,0,0,0,0,0,0,0,0,0,0,0,0,0,0,0,0,0,0,0,0,0,0,0,0,0,0,0,0,0,0,0,0,0,0,0,0,0,0,0],"sum_hessian":[1.2457777E3,3.1688885E2,9.2888885E2,3.7777775E1,2.7911108E2,6.653333E2,2.6355554E2,3.3777775E1,3.9999998E0,9.199999E1,1.871111E2,5.6799994E2,9.733333E1,2.4977776E2,1.3777777E1,1.5111111E1,1.8666666E1,2.222222E0,1.7777777E0,3.9999996E1,5.1999996E1,2.6666665E0,1.8444443E2,1.8133333E2,3.8666666E2,4.0444443E1,5.6888885E1,2.3377777E2,1.5999999E1,3.5555553E0,1.0222221E1,4.8888884E0,1.0222221E1,1.0666666E1,7.9999995E0,1.3333333E0,3.8666664E1,4.9333332E1,2.6666665E0,1.3333333E0,1.3333333E0,1.7066666E2,1.3777777E1,3.9999998E0,1.7733333E2,1.7066666E2,2.1599998E2,2.5777777E1,1.4666666E1,2.7555553E1,2.9333332E1,2.1599998E2,1.7777777E1,7.9999995E0,7.9999995E0,1.3333333E0,2.222222E0,7.1111107E0,3.111111E0,3.5555553E0,1.3333333E0,1.7777777E0,8.888888E0,6.666666E0,1.3333333E0,1.6444443E1,2.2222221E1,4.5333332E1,3.9999998E0,1.3333333E0,1.3333333E0,1.3333333E0,1.6933333E2,1.1111111E1,2.6666665E0,2.6666665E0,1.3333333E0,1.6844443E2,8.888888E0,1.5644443E2,1.4222221E1,2.1244443E2,3.5555553E0,2.1777777E1,3.9999998E0,3.9999998E0,1.0666666E1,2.311111E1,4.444444E0,1.7777777E1,1.1555555E1,6.977777E1,1.4622221E2,1.6444443E1,1.3333333E0,1.3333333E0,6.666666E0,5.7777777E0,2.222222E0,2.222222E0,4.8888884E0],"tree_param":{"num_deleted":"0","num_feature":"15","num_nodes":"101","size_leaf_vector":"1"}},{"base_weights":[1.1149624E-1,9.6096003E-1,-5.7774004E-2,1.00508565E-2,1.2603608E0,2.1122672E-1,-1.0863422E-1,-6.092614E-2,8.774179E-2,-1.972421E-2,1.2821417E0,-1.5232694E-1,5.309253E-1,-4.8161916E-2,-2.3511636E-1,1.9614717E-1,-4.172394E-1,3.1174862E-4,1.2930983E-1,-2.4492073E-1,5.04746E-1,7.4157834E-1,-8.2341425E-2,5.434122E-2,-1.9127066E-1,-3.2399237E-1,-1.7133088E-1,8.946353E-2,8.174683E-1,-1.2908314E-1,-5.9415568E-2,4.2303962E-1,-3.186408E-1,8.440071E-1,-4.443139E-3,-8.275052E-2,9.263913E-1,-4.9143258E-1,8.806658E-2,1.426585E-1,-1.1155632E-1,-2.0736942E-1,4.514816E-1,-6.5563815E-3,-4.06657E-1,1.5837821E-1,-1.9539194E-1,1.8433347E-2,-5.7472933E-2,-1.5871471E-3,1.0917635E-1,-4.7080886E-2,2.6064245E-2,8.6871915E-2,-2.6748687E-2,-6.634054E-2,-2.5116885E-2,2.2758875E-2,1.0517299E-1,3.9321E-2,-4.725069E-2,-3.183242E-2,3.0417297E-2,2.0285422E-2,1.04915954E-1,-6.0691353E-2,7.941224E-4,3.203405E-2,-3.3358354E-2,2.5858541E-3,4.415281E-2,-4.9328892E-3,-3.7311222E-2,-1.2917319E-2,-3.8691264E-2,-1.2703071E-2,7.03788E-2,6.0128044E-2,-7.7906474E-3,-5.9293535E-2,-3.261214E-2,8.14828E-2,-2.6972068E-2,-2.8555466E-2,-7.3973485E-3],"categories":[],"categories_nodes":[],"categories_segments":[],"categories_sizes":[],"default_left":[0,0,0,0,0,0,0,0,0,0,0,0,0,0,0,0,0,0,0,0,0,0,0,0,0,0,0,0,0,0,0,0,0,0,0,0,0,0,0,0,0,0,0,0,0,0,0,0,0,0,0,0,0,0,0,0,0,0,0,0,0,0,0,0,0,0,0,0,0,0,0,0,0,0,0,0,0,0,0,0,0,0,0,0,0],"id":3,"left_children":[1,3,5,7,9,11,13,-1,15,-1,17,19,21,23,25,27,29,-1,-1,31,33,35,37,39,41,43,45,47,49,51,-1,53,55,57,59,61,63,65,67,69,71,73,75,77,79,81,83,-1,-1,-1,-1,-1,-1,-1,-1,-1,-1,-1,-1,-1,-1,-1,-1,-1,-1,-1,-1,-1,-1,-1,-1,-1,-1,-1,-1,-1,-1,-1,-1,-1,-1,-1,-1,-1,-1],"loss_changes":[1.8014075E2,5.9250214E1,1.4323747E1,2.5002737E0,5.2786713E0,1.9438025E1,6.7174034E0,0E0,2.6032505E0,0E0,2.1836548E0,4.9120893E0,1.1538059E1,8.759438E0,1.5561771E0,2.4854164E0,3.545891E-1,0E0,0E0,3.5648522E0,1.7394862E0,1.0166035E1,1.6894728E0,5.118988E0,2.6715279E0,3.0849266E0,1.3608131E0,2.2524939E0,1.2821951E0,7.2145617E-1,0E0,2.495358E0,1.3059411E0,5.3342533E-1,1.1187505E0,1.286012E0,4.599827E0,4.140296E-1,1.8225567E0,7.9382205E0,1.9601438E0,3.3719034E0,1.0238833E0,1.1452526E0,1.2068796E0,3.5790591E0,1.6941252E0,0E0,0E0,0E0,0E0,0E0,0E0,0E0,0E0,0E0,0E0,0E0,0E0,0E0,0E0,0E0,0E0,0E0,0E0,0E0,0E0,0E0,0E0,0E0,0E0,0E0,0E0,0E0,0E0,0E0,0E0,0E0,0E0,0E0,0E0,0E0,0E0,0E0,0E0],"parents":[2147483647,0,0,1,1,2,2,3,3,4,4,5,5,6,6,8,8,10,10,11,11,12,12,13,13,14,14,15,15,16,16,19,19,20,20,21,21,22,22,23,23,24,24,25,25,26,26,27,27,28,28,29,29,31,31,32,32,33,33,34,34,35,35,36,36,37,37,38,38,39,39,40,40,41,41,42,42,43,43,44,44,45,45,46,46],"right_children":[2,4,6,8,10,12,14,-1,16,-1,18,20,22,24,26,28,30,-1,-1,32,34,36,38,40,42,44,46,48,50,52,-1,54,56,58,60,62,64,66,68,70,72,74,76,78,80,82,84,-1,-1,-1,-1,-1,-1,-1,-1,-1,-1,-1,-1,-1,-1,-1,-1,-1,-1,-1,-1,-1,-1,-1,-1,-1,-1,-1,-1,-1,-1,-1,-1,-1,-1,-1,-1,-1,-1],"split_conditions":[2.5E-1,3E0,7.5E-1,1.2E1,-6E0,0E0,1.6666666E0,-6.092614E-2,9.3E1,-1.972421E-2,0E0,1.3E1,1E0,1E0,4.4E1,8.8E1,7.7E1,3.1174862E-4,1.2930983E-1,6.666667E-1,-4E0,-3E0,-5E0,1E0,1E2,8E0,4.4E1,8.4E1,0E0,4.2E1,-5.9415568E-2,5E-1,2E-1,3.8E1,6.8E1,4E0,0E0,8.2E1,7E1,1E0,1.1E1,6.8E1,6E0,4E0,5E0,7E0,8E0,1.8433347E-2,-5.7472933E-2,-1.5871471E-3,1.0917635E-1,-4.7080886E-2,2.6064245E-2,8.6871915E-2,-2.6748687E-2,-6.634054E-2,-2.5116885E-2,2.2758875E-2,1.0517299E-1,3.9321E-2,-4.725069E-2,-3.183242E-2,3.0417297E-2,2.0285422E-2,1.04915954E-1,-6.0691353E-2,7.941224E-4,3.203405E-2,-3.3358354E-2,2.5858541E-3,4.415281E-2,-4.9328892E-3,-3.7311222E-2,-1.2917319E-2,-3.8691264E-2,-1.2703071E-2,7.03788E-2,6.0128044E-2,-7.7906474E-3,-5.9293535E-2,-3.261214E-2,8.14828E-2,-2.6972068E-2,-2.8555466E-2,-7.3973485E-3],"split_indices":[5,3,4,1,8,9,4,0,1,0,10,14,10,10,1,0,0,0,0,5,7,8,7,9,1,1,0,1,10,0,0,4,4,0,1,3,10,1,0,7,14,1,2,13,3,14,3,0,0,0,0,0,0,0,0,0,0,0,0,0,0,0,0,0,0,0,0,0,0,0,0,0,0,0,0,0,0,0,0,0,0,0,0,0,0],"split_type":[0,0,0,0,0,0,0,0,0,0,0,0,0,0,0,0,0,0,0,0,0,0,0,0,0,0,0,0,0,0,0,0,0,0,0,0,0,0,0,0,0,0,0,0,0,0,0,0,0,0,0,0,0,0,0,0,0,0,0,0,0,0,0,0,0,0,0,0,0,0,0,0,0,0,0,0,0,0,0,0,0,0,0,0,0],"sum_hessian":[1.2514275E3,2.0715688E2,1.0442706E3,4.985355E1,1.5730333E2,1.6554526E2,8.787254E2,4.794237E0,4.505931E1,2.197358E0,1.5510597E2,7.7704765E1,8.78405E1,5.9542694E2,2.8329843E2,3.7599354E1,7.4599576E0,1.3283293E0,1.5377763E2,6.8656975E1,9.047789E0,6.5226425E1,2.2614075E1,3.4729416E2,2.481328E2,1.1666414E2,1.666343E2,3.3065796E1,4.5335574E0,3.495771E0,3.9641864E0,6.353245E0,6.230373E1,5.03532E0,4.0124693E0,1.2046623E1,5.31798E1,6.0959444E0,1.6518131E1,2.2673141E2,1.20562744E2,2.427306E2,5.4022045E0,2.4326931E1,9.233721E1,1.0953663E1,1.5568063E2,2.956531E1,3.5004888E0,1.3560035E0,3.177554E0,1.751734E0,1.7440369E0,3.7043383E0,2.6489067E0,8.75182E0,5.355191E1,1.7973405E0,3.2379792E0,2.2558706E0,1.7565987E0,7.5979795E0,4.448643E0,8.099221E0,4.5080578E1,4.7761126E0,1.3198322E0,1.0805814E1,5.712317E0,1.6380284E2,6.2928574E1,9.835214E1,2.2210608E1,1.7028572E2,7.244487E1,1.791349E0,3.6108553E0,1.7753558E0,2.2551577E1,2.5950788E1,6.638642E1,3.9671082E0,6.9865546E0,8.856348E1,6.711715E1],"tree_param":{"num_deleted":"0","num_feature":"15","num_nodes":"85","size_leaf_vector":"1"}},{"base_weights":[4.0766764E-2,-3.8372183E-1,1.8918675E-1,-7.055116E-2,-6.620896E-1,6.2182512E-2,4.4928995E-1,5.504359E-1,-1.6011783E-1,4.1026898E-2,-6.730601E-1,3.8637924E-1,-1.9091243E-2,4.031696E-1,8.48656E-1,9.762244E-2,2.4335802E-1,8.4725015E-2,-1.7659837E-1,-4.2655846E-1,-7.0469284E-1,2.6286352E-1,6.231855E-1,-1.014055E-1,1.3343868E-1,4.3797034E-1,-8.2691185E-2,9.302523E-1,-1.6852494E-3,-1.7143361E-1,8.0804306E-1,-1.2327398E-1,-4.61618E-1,-1.0408081E-1,-6.714282E-2,-2.6005957E-1,-7.1089375E-1,8.071989E-1,2.0721358E-1,2.9827687E-1,8.249277E-1,-1.8359676E-2,-2.3885709E-1,3.9052583E-2,4.4694293E-1,-5.3486258E-2,4.5016825E-1,-3.573692E-1,1.8347842E-1,9.074321E-3,1.0004237E0,4.1234624E-2,-4.213942E-2,-4.6991955E-2,5.5212256E-2,1.03358306E-1,2.19239E-2,-8.9047635E-3,-6.283696E-2,-6.370818E-2,3.9495148E-2,4.1805334E-2,-2.2499632E-2,-4.2222407E-2,1.5594207E-3,-2.5597608E-2,-7.173871E-2,1.0581553E-1,3.623622E-2,5.9695393E-3,4.438712E-2,1.3591341E-3,1.08089365E-1,9.1065586E-2,-4.216582E-2,-2.571E-2,5.959785E-3,-3.1550184E-2,2.8351203E-2,2.2475498E-2,-1.3828504E-2,2.5852788E-2,8.188585E-2,4.7563702E-2,8.205186E-3,4.065234E-2,-5.2931614E-2,5.8758844E-2,-3.840557E-2,-3.455802E-4,1.05597846E-1],"categories":[],"categories_nodes":[],"categories_segments":[],"categories_sizes":[],"default_left":[0,0,0,0,0,0,0,0,0,0,0,0,0,0,0,0,0,0,0,0,0,0,0,0,0,0,0,0,0,0,0,0,0,0,0,0,0,0,0,0,0,0,0,0,0,0,0,0,0,0,0,0,0,0,0,0,0,0,0,0,0,0,0,0,0,0,0,0,0,0,0,0,0,0,0,0,0,0,0,0,0,0,0,0,0,0,0,0,0,0,0],"id":4,"left_children":[1,3,5,7,9,11,13,15,17,-1,19,21,23,25,27,-1,29,-1,31,33,35,37,39,41,43,45,47,49,51,53,55,57,59,61,-1,63,65,67,69,71,73,75,77,79,81,-1,83,85,87,-1,89,-1,-1,-1,-1,-1,-1,-1,-1,-1,-1,-1,-1,-1,-1,-1,-1,-1,-1,-1,-1,-1,-1,-1,-1,-1,-1,-1,-1,-1,-1,-1,-1,-1,-1,-1,-1,-1,-1,-1,-1],"loss_changes":[7.869396E1,2.8165218E1,3.0538254E1,8.620665E0,2.2902908E0,1.6419342E1,5.2463837E0,2.3202624E0,2.388324E0,0E0,1.0238571E0,3.4893742E0,6.2783904E0,4.667507E0,2.1182709E0,0E0,3.112698E0,0E0,1.9721322E0,1.6556239E0,2.2594452E-1,2.3716373E0,2.5125008E0,3.7014384E0,5.1705313E0,3.2757301E0,1.4655668E0,1.5491142E0,8.113719E-1,2.0186472E0,5.1074314E-1,1.9118267E0,3.3591828E0,7.642082E-1,0E0,1.6868308E-1,2.4875641E-1,4.4584465E-1,2.6751163E0,3.9260986E0,3.0981102E0,3.8020637E0,4.98155E0,4.504945E0,2.6245604E0,0E0,2.334217E0,1.4975514E0,2.6076221E0,0E0,1.4308319E0,0E0,0E0,0E0,0E0,0E0,0E0,0E0,0E0,0E0,0E0,0E0,0E0,0E0,0E0,0E0,0E0,0E0,0E0,0E0,0E0,0E0,0E0,0E0,0E0,0E0,0E0,0E0,0E0,0E0,0E0,0E0,0E0,0E0,0E0,0E0,0E0,0E0,0E0,0E0,0E0],"parents":[2147483647,0,0,1,1,2,2,3,3,4,4,5,5,6,6,7,7,8,8,10,10,11,11,12,12,13,13,14,14,16,16,18,18,19,19,20,20,21,21,22,22,23,23,24,24,25,25,26,26,27,27,28,28,29,29,30,30,31,31,32,32,33,33,35,35,36,36,37,37,38,38,39,39,40,40,41,41,42,42,43,43,44,44,46,46,47,47,48,48,50,50],"right_children":[2,4,6,8,10,12,14,16,18,-1,20,22,24,26,28,-1,30,-1,32,34,36,38,40,42,44,46,48,50,52,54,56,58,60,62,-1,64,66,68,70,72,74,76,78,80,82,-1,84,86,88,-1,90,-1,-1,-1,-1,-1,-1,-1,-1,-1,-1,-1,-1,-1,-1,-1,-1,-1,-1,-1,-1,-1,-1,-1,-1,-1,-1,-1,-1,-1,-1,-1,-1,-1,-1,-1,-1,-1,-1,-1,-1],"split_conditions":[6.666667E-1,5E0,1.6666666E0,-4E0,-6E0,4E0,3E0,7E0,3E0,4.1026898E-2,0E0,1E0,1E0,2.6E0,1E0,9.762244E-2,8E0,8.4725015E-2,4E0,4.2E1,4E0,-1.1E1,1.25E0,3E0,1E0,3E0,1.3E1,7E0,3E0,8.7E1,-7E0,7E0,1E0,4E0,-6.714282E-2,-2E0,-2E0,6E0,-3E0,8E1,9.2E1,1E0,8.5E1,2E0,1E1,-5.3486258E-2,9.1E1,4E0,3.2E0,9.074321E-3,5E0,4.1234624E-2,-4.213942E-2,-4.6991955E-2,5.5212256E-2,1.03358306E-1,2.19239E-2,-8.9047635E-3,-6.283696E-2,-6.370818E-2,3.9495148E-2,4.1805334E-2,-2.2499632E-2,-4.2222407E-2,1.5594207E-3,-2.5597608E-2,-7.173871E-2,1.0581553E-1,3.623622E-2,5.9695393E-3,4.438712E-2,1.3591341E-3,1.08089365E-1,9.1065586E-2,-4.216582E-2,-2.571E-2,5.959785E-3,-3.1550184E-2,2.8351203E-2,2.2475498E-2,-1.3828504E-2,2.5852788E-2,8.188585E-2,4.7563702E-2,8.205186E-3,4.065234E-2,-5.2931614E-2,5.8758844E-2,-3.840557E-2,-3.455802E-4,1.05597846E-1],"split_indices":[4,2,4,8,8,3,4,13,0,0,7,9,9,5,12,0,13,0,2,1,3,8,4,8,6,0,3,2,8,1,8,8,9,13,0,8,8,2,8,0,0,5,1,8,2,0,0,2,5,0,1,0,0,0,0,0,0,0,0,0,0,0,0,0,0,0,0,0,0,0,0,0,0,0,0,0,0,0,0,0,0,0,0,0,0,0,0,0,0,0,0],"split_type":[0,0,0,0,0,0,0,0,0,0,0,0,0,0,0,0,0,0,0,0,0,0,0,0,0,0,0,0,0,0,0,0,0,0,0,0,0,0,0,0,0,0,0,0,0,0,0,0,0,0,0,0,0,0,0,0,0,0,0,0,0,0,0,0,0,0,0,0,0,0,0,0,0,0,0,0,0,0,0,0,0,0,0,0,0,0,0,0,0,0,0],"sum_hessian":[1.246907E3,3.22618E2,9.2428906E2,1.5240831E2,1.7020969E2,6.21876E2,3.0241306E2,1.8562754E1,1.3384555E2,1.3550698E0,1.6885463E2,1.2389827E2,4.9797772E2,2.7290628E2,2.9506756E1,6.864915E0,1.169784E1,1.343047E0,1.325025E2,2.0851524E1,1.480031E2,8.281358E1,4.1084686E1,3.236513E2,1.7432642E2,2.5475734E2,1.8148941E1,2.6837528E1,2.6692283E0,7.145496E0,4.5523434E0,1.1282632E2,1.9676188E1,9.614671E0,1.1236855E1,2.6262693E0,1.4537683E2,6.428525E0,7.6385056E1,1.668759E1,2.4397097E1,2.0246132E2,1.2118999E2,1.3485152E2,3.9474907E1,2.62412E0,2.5213322E2,8.763091E0,9.38585E0,2.2470982E0,2.459043E1,1.3525332E0,1.316695E0,5.3068304E0,1.8386655E0,2.74535E0,1.8069936E0,1.067678E2,6.0585146E0,1.6543566E1,3.1326218E0,1.3458135E0,8.268857E0,1.3187451E0,1.3075242E0,2.6147292E0,1.427621E2,3.2284389E0,3.2000864E0,4.7825653E1,2.8559402E1,1.2982447E1,3.7051425E0,2.30794E1,1.3176981E0,4.92717E1,1.5318962E2,1.0602889E2,1.5161097E1,6.57416E1,6.910992E1,2.7326324E1,1.2148582E1,2.3554459E2,1.6588638E1,1.3594317E0,7.403659E0,5.4616046E0,3.9242456E0,1.3386506E0,2.325178E1],"tree_param":{"num_deleted":"0","num_feature":"15","num_nodes":"91","size_leaf_vector":"1"}},{"base_weights":[-1.542544E-1,-5.177137E-1,-3.313155E-2,-7.819302E-2,-5.782314E-1,6.729411E-2,-2.9068732E-1,-1.7164199E-1,5.735153E-1,-3.664911E-1,-6.817114E-1,3.0698283E-2,5.970335E-1,-3.173297E-1,1.7137074E-1,-4.3602097E-1,4.9329363E-2,9.7778894E-2,-1.1480821E-2,-1.3439849E-1,-5.4227734E-1,3.5977827E-3,-6.91943E-1,1.7490873E-1,-7.570564E-2,8.0566734E-1,3.028428E-1,-3.4348115E-1,5.5316307E-2,-3.5979062E-1,3.6882323E-1,5.3189844E-2,-6.609712E-2,-3.270527E-1,5.159645E-1,4.138944E-2,-1.6379857E-1,-5.9213436E-1,2.6840043E-1,-4.2122122E-2,4.2267095E-2,-4.07965E-1,-7.126845E-2,-4.1631646E-2,2.5166684E-1,-1.9513538E-1,9.438853E-2,9.5158154E-1,-2.8047925E-1,9.030292E-2,1.07923985E-1,-3.7124428E-1,-8.196933E-3,4.16328E-1,-3.209932E-1,7.492973E-4,-5.1337015E-2,8.4852554E-2,8.257935E-2,-3.583943E-2,8.152404E-2,5.7795424E-2,-5.5541493E-2,7.26201E-2,-4.202217E-2,-3.4198385E-2,-2.5138E-3,-6.399806E-2,-2.8264767E-2,-7.136587E-4,4.3027606E-2,-5.6799542E-2,1.5098597E-3,6.1203213E-3,-5.2486725E-2,3.5078E-2,4.81651E-3,-1.1236771E-2,-4.4457756E-2,1.2939582E-2,-5.3295415E-2,1.6704753E-2,1.12214625E-1,-4.3699436E-2,-3.0519968E-4,-5.8859266E-2,3.5834912E-2,-2.1587964E-2,-4.4415973E-2,-5.771627E-2,1.6197728E-2,-4.186839E-2,6.0998578E-2,1.1373739E-2,-4.8077147E-2,6.887096E-2,-2.692506E-2],"categories":[],"categories_nodes":[],"categories_segments":[],"categories_sizes":[],"default_left":[0,0,0,0,0,0,0,0,0,0,0,0,0,0,0,0,0,0,0,0,0,0,0,0,0,0,0,0,0,0,0,0,0,0,0,0,0,0,0,0,0,0,0,0,0,0,0,0,0,0,0,0,0,0,0,0,0,0,0,0,0,0,0,0,0,0,0,0,0,0,0,0,0,0,0,0,0,0,0,0,0,0,0,0,0,0,0,0,0,0,0,0,0,0,0,0,0],"id":5,"left_children":[1,3,5,7,9,11,13,15,17,19,21,23,25,27,29,31,33,-1,-1,35,37,39,41,43,45,47,49,51,53,55,57,59,-1,61,63,-1,65,67,69,-1,-1,71,-1,73,75,77,79,81,83,-1,85,87,89,91,93,-1,-1,95,-1,-1,-1,-1,-1,-1,-1,-1,-1,-1,-1,-1,-1,-1,-1,-1,-1,-1,-1,-1,-1,-1,-1,-1,-1,-1,-1,-1,-1,-1,-1,-1,-1,-1,-1,-1,-1,-1,-1],"loss_changes":[5.435435E1,8.164238E0,2.4007584E1,2.4437459E0,5.690857E0,1.2932911E1,3.2595139E0,2.0340862E0,1.5202541E0,3.6466846E0,1.2713623E0,9.618133E0,2.4023361E0,2.4213753E0,1.6894624E0,1.7723897E0,3.622382E0,0E0,0E0,7.2260165E-1,2.242381E0,8.2906395E-1,7.5948334E-1,4.4327593E0,7.34956E0,4.1693134E0,2.1828382E0,2.1424923E0,2.4467776E0,2.5929934E-1,1.3981919E0,2.1420472E0,0E0,2.6970015E0,2.1094797E0,0E0,9.616643E-1,5.4281044E-1,1.6696924E-1,0E0,0E0,9.886129E-1,0E0,3.5349298E0,3.9479427E0,4.3340645E0,3.3531098E0,2.747734E0,1.5882754E-1,0E0,2.975411E0,2.3152924E0,1.899125E0,1.7310327E0,6.7298126E-1,0E0,0E0,1.9158944E0,0E0,0E0,0E0,0E0,0E0,0E0,0E0,0E0,0E0,0E0,0E0,0E0,0E0,0E0,0E0,0E0,0E0,0E0,0E0,0E0,0E0,0E0,0E0,0E0,0E0,0E0,0E0,0E0,0E0,0E0,0E0,0E0,0E0,0E0,0E0,0E0,0E0,0E0,0E0],"parents":[2147483647,0,0,1,1,2,2,3,3,4,4,5,5,6,6,7,7,8,8,9,9,10,10,11,11,12,12,13,13,14,14,15,15,16,16,19,19,20,20,21,21,22,22,23,23,24,24,25,25,26,26,27,27,28,28,29,29,30,30,31,31,33,33,34,34,36,36,37,37,38,38,41,41,43,43,44,44,45,45,46,46,47,47,48,48,50,50,51,51,52,52,53,53,54,54,57,57],"right_children":[2,4,6,8,10,12,14,16,18,20,22,24,26,28,30,32,34,-1,-1,36,38,40,42,44,46,48,50,52,54,56,58,60,-1,62,64,-1,66,68,70,-1,-1,72,-1,74,76,78,80,82,84,-1,86,88,90,92,94,-1,-1,96,-1,-1,-1,-1,-1,-1,-1,-1,-1,-1,-1,-1,-1,-1,-1,-1,-1,-1,-1,-1,-1,-1,-1,-1,-1,-1,-1,-1,-1,-1,-1,-1,-1,-1,-1,-1,-1,-1,-1],"split_conditions":[7.5E-1,0E0,9E0,2.5E-1,4E0,8E0,9E0,1E0,5E0,2.5E-1,-6E0,0E0,6E0,9.1E1,3.4E1,2E0,2E0,9.7778894E-2,-1.1480821E-2,5E0,1E0,-8E0,0E0,1.2E0,1E0,1.4E1,1.2E1,2.25E0,9.6E1,3E0,4E0,-2E0,-6.609712E-2,5E0,5E0,4.138944E-2,0E0,1.4E1,1.5E0,-4.2122122E-2,4.2267095E-2,-1E0,-7.126845E-2,9E0,6E0,1E0,9.5E1,1E0,4.4E1,9.030292E-2,7E0,2.9E1,4E0,-3E0,-2E0,7.492973E-4,-5.1337015E-2,1.5E0,8.257935E-2,-3.583943E-2,8.152404E-2,5.7795424E-2,-5.5541493E-2,7.26201E-2,-4.202217E-2,-3.4198385E-2,-2.5138E-3,-6.399806E-2,-2.8264767E-2,-7.136587E-4,4.3027606E-2,-5.6799542E-2,1.5098597E-3,6.1203213E-3,-5.2486725E-2,3.5078E-2,4.81651E-3,-1.1236771E-2,-4.4457756E-2,1.2939582E-2,-5.3295415E-2,1.6704753E-2,1.12214625E-1,-4.3699436E-2,-3.0519968E-4,-5.8859266E-2,3.5834912E-2,-2.1587964E-2,-4.4415973E-2,-5.771627E-2,1.6197728E-2,-4.186839E-2,6.0998578E-2,1.1373739E-2,-4.8077147E-2,6.887096E-2,-2.692506E-2],"split_indices":[5,9,2,12,3,8,8,4,2,11,8,9,2,0,0,3,3,0,0,14,10,8,10,5,10,14,3,5,0,5,10,7,0,13,3,0,8,13,4,0,0,8,0,14,2,6,1,10,0,0,13,0,8,8,8,0,0,4,0,0,0,0,0,0,0,0,0,0,0,0,0,0,0,0,0,0,0,0,0,0,0,0,0,0,0,0,0,0,0,0,0,0,0,0,0,0,0],"split_type":[0,0,0,0,0,0,0,0,0,0,0,0,0,0,0,0,0,0,0,0,0,0,0,0,0,0,0,0,0,0,0,0,0,0,0,0,0,0,0,0,0,0,0,0,0,0,0,0,0,0,0,0,0,0,0,0,0,0,0,0,0,0,0,0,0,0,0,0,0,0,0,0,0,0,0,0,0,0,0,0,0,0,0,0,0,0,0,0,0,0,0,0,0,0,0,0,0],"sum_hessian":[1.2340641E3,3.0763986E2,9.2642426E2,3.7509842E1,2.7013E2,6.67063E2,2.5936124E2,3.3450043E1,4.0598E0,9.016876E1,1.7996124E2,6.249479E2,4.211514E1,2.4551785E2,1.3843403E1,1.4786127E1,1.8663916E1,2.2926936E0,1.7671065E0,3.9621105E1,5.0547653E1,2.6568282E0,1.7730441E2,2.6506223E2,3.5988562E2,2.3623362E1,1.8491777E1,2.2949097E2,1.6026886E1,3.5287223E0,1.031468E1,4.8979187E0,9.888208E0,1.0496609E1,8.167308E0,1.3508377E0,3.8270267E1,4.787302E1,2.6746309E0,1.3168238E0,1.3400044E0,1.3475525E1,1.6382889E2,6.948827E1,1.9557394E2,2.1134491E2,1.4854073E2,2.0934841E1,2.6885188E0,3.642644E0,1.48491335E1,2.1184216E2,1.7648796E1,8.125429E0,7.9014573E0,1.3209344E0,2.207788E0,7.092772E0,3.221908E0,3.5241954E0,1.3737235E0,1.8065046E0,8.690104E0,6.852713E0,1.3145945E0,1.6106426E1,2.2163843E1,4.053803E1,7.334993E0,1.3435746E0,1.3310562E0,9.5286045E0,3.9469209E0,5.8015617E1,1.1472656E1,1.3103242E2,6.454151E1,1.5977895E2,5.156596E1,1.4144167E2,7.0990567E0,4.092098E0,1.6842743E1,1.351104E0,1.3374147E0,3.5698378E0,1.1279296E1,6.893005E1,1.4291211E2,3.5127063E0,1.4136089E1,1.3109419E0,6.814487E0,2.2010133E0,5.7004437E0,2.272502E0,4.82027E0],"tree_param":{"num_deleted":"0","num_feature":"15","num_nodes":"97","size_leaf_vector":"1"}},{"base_weights":[1.0243197E-1,8.6192304E-1,-5.3761702E-2,-3.664427E-2,1.109665E0,1.9460577E-1,-1.0124725E-1,-5.1517004E-1,5.8472108E-2,1.0737162E-1,1.1365124E0,-1.4366235E-1,4.8452702E-1,-4.52443E-2,-2.1967892E-1,-5.953872E-2,-2.1552105E-2,5.9766954E-1,-8.643867E-2,-5.1237E-2,6.805799E-2,1.146341E-1,-2.0767618E-3,-2.3335284E-1,4.793302E-1,6.735423E-1,-8.029356E-2,5.069357E-2,-1.8064271E-1,-3.060471E-1,-1.5813442E-1,7.029965E-1,6.952045E-4,2.2604859E-2,-4.0550223E-1,3.8957396E-1,-3.03892E-1,7.9808825E-1,-6.542443E-3,-2.4914774E-1,8.090397E-1,-4.7708666E-1,8.180307E-2,1.3307622E-1,-1.0558783E-1,-6.625814E-2,-1.5852593E-1,9.2667826E-5,-3.8711035E-1,1.6024691E-1,-1.8162875E-1,8.5954875E-2,3.77954E-2,-5.761152E-2,1.455488E-2,-1.2135155E-2,-5.8208294E-2,7.957194E-2,-2.5936205E-2,-2.0487802E-2,-5.263985E-2,2.2209805E-2,9.870707E-2,3.6742408E-2,-4.583831E-2,-4.0985014E-2,4.0814158E-2,-1.581558E-2,9.0191476E-2,-5.934546E-2,1.5884003E-3,3.0148242E-2,-3.240754E-2,-3.6389863E-3,3.0854931E-2,-2.4378918E-2,3.6185465E-4,-5.489531E-3,-2.5749905E-2,2.4277238E-2,-1.7011577E-2,-5.730295E-2,-3.076436E-2,7.682085E-2,-2.5208553E-2,-2.6920298E-2,-6.470505E-3],"categories":[],"categories_nodes":[],"categories_segments":[],"categories_sizes":[],"default_left":[0,0,0,0,0,0,0,0,0,0,0,0,0,0,0,0,0,0,0,0,0,0,0,0,0,0,0,0,0,0,0,0,0,0,0,0,0,0,0,0,0,0,0,0,0,0,0,0,0,0,0,0,0,0,0,0,0,0,0,0,0,0,0,0,0,0,0,0,0,0,0,0,0,0,0,0,0,0,0,0,0,0,0,0,0,0,0],"id":6,"left_children":[1,3,5,7,9,11,13,15,17,19,21,23,25,27,29,-1,-1,31,33,-1,-1,-1,-1,35,37,39,41,43,45,47,49,51,-1,53,55,57,59,61,63,65,67,69,71,73,75,-1,77,79,81,83,85,-1,-1,-1,-1,-1,-1,-1,-1,-1,-1,-1,-1,-1,-1,-1,-1,-1,-1,-1,-1,-1,-1,-1,-1,-1,-1,-1,-1,-1,-1,-1,-1,-1,-1,-1,-1],"loss_changes":[1.4874205E2,4.7650787E1,1.2292351E1,2.177999E0,4.3900604E0,1.6482973E1,5.788437E0,6.2211514E-2,3.197655E0,2.2949364E0,1.8801117E0,4.470889E0,9.699814E0,7.73573E0,1.4421558E0,0E0,0E0,5.336201E-1,1.1436647E0,0E0,0E0,0E0,0E0,3.1444454E0,1.576462E0,8.678343E0,1.5535835E0,4.506356E0,2.526619E0,2.8690605E0,1.2693777E0,4.8399925E-2,0E0,1.9424602E0,3.4875345E-1,2.1681616E0,1.2674203E0,4.48498E-1,1.0151325E0,1.1650813E0,5.4744873E0,4.0960944E-1,1.6644481E0,6.818608E0,1.8270518E0,0E0,2.4205651E0,1.0823429E0,1.1741724E0,3.1832726E0,1.5684996E0,0E0,0E0,0E0,0E0,0E0,0E0,0E0,0E0,0E0,0E0,0E0,0E0,0E0,0E0,0E0,0E0,0E0,0E0,0E0,0E0,0E0,0E0,0E0,0E0,0E0,0E0,0E0,0E0,0E0,0E0,0E0,0E0,0E0,0E0,0E0,0E0],"parents":[2147483647,0,0,1,1,2,2,3,3,4,4,5,5,6,6,7,7,8,8,9,9,10,10,11,11,12,12,13,13,14,14,17,17,18,18,23,23,24,24,25,25,26,26,27,27,28,28,29,29,30,30,31,31,33,33,34,34,35,35,36,36,37,37,38,38,39,39,40,40,41,41,42,42,43,43,44,44,46,46,47,47,48,48,49,49,50,50],"right_children":[2,4,6,8,10,12,14,16,18,20,22,24,26,28,30,-1,-1,32,34,-1,-1,-1,-1,36,38,40,42,44,46,48,50,52,-1,54,56,58,60,62,64,66,68,70,72,74,76,-1,78,80,82,84,86,-1,-1,-1,-1,-1,-1,-1,-1,-1,-1,-1,-1,-1,-1,-1,-1,-1,-1,-1,-1,-1,-1,-1,-1,-1,-1,-1,-1,-1,-1,-1,-1,-1,-1,-1,-1],"split_conditions":[2.5E-1,2E0,7.5E-1,1.9E1,-6E0,0E0,1.6666666E0,1.2E1,4.6E1,6.8E1,1.3333334E0,1.3E1,1E0,1E0,4.4E1,-5.953872E-2,-2.1552105E-2,1E0,9.3E1,-5.1237E-2,6.805799E-2,1.146341E-1,-2.0767618E-3,6.666667E-1,-4E0,-4E0,-5E0,1E0,-7E0,8E0,4.4E1,3E1,6.952045E-4,-1E0,7.7E1,5E-1,6.8E1,3.8E1,6.8E1,2.5E-1,2E0,8.2E1,7E1,0E0,1.2E0,-6.625814E-2,4.5E1,9E0,5E0,7E0,8E0,8.5954875E-2,3.77954E-2,-5.761152E-2,1.455488E-2,-1.2135155E-2,-5.8208294E-2,7.957194E-2,-2.5936205E-2,-2.0487802E-2,-5.263985E-2,2.2209805E-2,9.870707E-2,3.6742408E-2,-4.583831E-2,-4.0985014E-2,4.0814158E-2,-1.581558E-2,9.0191476E-2,-5.934546E-2,1.5884003E-3,3.0148242E-2,-3.240754E-2,-3.6389863E-3,3.0854931E-2,-2.4378918E-2,3.6185465E-4,-5.489531E-3,-2.5749905E-2,2.4277238E-2,-1.7011577E-2,-5.730295E-2,-3.076436E-2,7.682085E-2,-2.5208553E-2,-2.6920298E-2,-6.470505E-3],"split_indices":[5,3,4,1,8,9,4,1,1,0,4,14,10,10,1,0,0,6,1,0,0,0,0,5,7,8,7,9,7,1,0,0,0,7,0,4,1,0,1,11,2,1,0,9,5,0,0,0,3,14,3,0,0,0,0,0,0,0,0,0,0,0,0,0,0,0,0,0,0,0,0,0,0,0,0,0,0,0,0,0,0,0,0,0,0,0,0],"split_type":[0,0,0,0,0,0,0,0,0,0,0,0,0,0,0,0,0,0,0,0,0,0,0,0,0,0,0,0,0,0,0,0,0,0,0,0,0,0,0,0,0,0,0,0,0,0,0,0,0,0,0,0,0,0,0,0,0,0,0,0,0,0,0,0,0,0,0,0,0,0,0,0,0,0,0,0,0,0,0,0,0,0,0,0,0,0,0],"sum_hessian":[1.2524655E3,2.128696E2,1.0395958E3,4.618984E1,1.6667976E2,1.6636186E2,8.7323395E2,6.926542E0,3.9263298E1,4.478612E0,1.6220114E2,7.701196E1,8.934989E1,5.938169E2,2.7941702E2,4.685317E0,2.2412248E0,7.6550994E0,3.1608198E1,2.2029555E0,2.2756562E0,1.6084457E2,1.356572E0,6.7866806E1,9.145162E0,6.680225E1,2.2547638E1,3.4792023E2,2.458967E2,1.1460868E2,1.6480835E2,6.335403E0,1.3196964E0,2.4249733E1,7.3584642E0,6.4433317E0,6.1423473E1,5.134241E0,4.01092E0,8.446406E0,5.835585E1,5.975966E0,1.6571672E1,2.279215E2,1.1999873E2,9.518748E0,2.3637794E2,2.4203123E1,9.0405556E1,1.0925926E1,1.5388242E2,3.166083E0,3.16932E0,3.503273E0,2.074646E1,3.4668682E0,3.8915963E0,3.8239007E0,2.619431E0,4.383704E1,1.758643E1,1.8057662E0,3.328475E0,2.2967992E0,1.7141206E0,7.089524E0,1.3568821E0,5.051101E0,5.330475E1,4.6698046E0,1.3061616E0,1.0919024E1,5.6526475E0,1.1634855E2,1.1157294E2,5.2423763E1,6.7574974E1,1.1623147E2,1.2014648E2,9.801715E0,1.4401408E1,2.521111E1,6.519445E1,4.0667076E0,6.859218E0,8.7239136E1,6.664328E1],"tree_param":{"num_deleted":"0","num_feature":"15","num_nodes":"87","size_leaf_vector":"1"}},{"base_weights":[3.8191807E-2,-3.6214793E-1,1.7363493E-1,-6.3108824E-2,-6.375744E-1,5.736438E-2,4.079567E-1,5.185881E-1,-1.4891967E-1,3.838477E-2,-6.486269E-1,3.5837168E-1,-1.9081648E-2,3.654941E-1,7.729774E-1,2.2978541E-1,9.1274273E-1,-1.51057085E-2,-2.7402937E-1,-4.078137E-1,-6.8024653E-1,2.4660087E-1,5.6980234E-1,8.211319E-2,-1.3035002E-1,3.9629364E-1,-7.5975E-2,5.177914E-1,1.0958552E0,-1.17049016E-1,8.391503E-2,2.0050948E-2,1.0909718E-1,-3.144955E-1,9.937257E-2,1.2517086E-1,-4.3047148E-1,4.2928476E-2,-4.8486272E-1,-2.4458288E-1,-6.8652004E-1,3.8807148E-1,6.4683415E-2,-4.360031E-2,6.128835E-1,-4.8093095E-2,2.1379966E-1,-3.3718964E-1,-5.5263482E-2,-5.2435394E-2,4.0752646E-1,6.607989E-2,-5.608806E-2,2.3776501E-1,9.5975983E-1,3.5381038E-2,1.1561078E-1,4.863825E-2,-4.6186354E-2,2.6004886E-2,-4.296221E-2,-1.1230153E-2,4.211026E-2,-5.4822605E-2,2.7555933E-2,-5.081847E-2,2.8804792E-2,2.2691669E-2,-5.6738276E-2,2.3944841E-3,-4.0703565E-2,-2.3905002E-2,-6.9312364E-2,-5.0957957E-3,5.058686E-2,-1.7804097E-2,5.0261892E-2,8.878576E-2,3.7010174E-2,-1.1497482E-2,3.1192029E-2,2.73111E-2,-1.6830448E-2,-4.4436686E-2,1.932528E-2,-1.1361326E-2,3.859782E-2,5.3340442E-2,3.34985E-2,-3.0520722E-2,4.7243167E-2,4.0522773E-2,-5.1386803E-2,3.5127167E-2,1.0478013E-1],"categories":[],"categories_nodes":[],"categories_segments":[],"categories_sizes":[],"default_left":[0,0,0,0,0,0,0,0,0,0,0,0,0,0,0,0,0,0,0,0,0,0,0,0,0,0,0,0,0,0,0,0,0,0,0,0,0,0,0,0,0,0,0,0,0,0,0,0,0,0,0,0,0,0,0,0,0,0,0,0,0,0,0,0,0,0,0,0,0,0,0,0,0,0,0,0,0,0,0,0,0,0,0,0,0,0,0,0,0,0,0,0,0,0,0],"id":7,"left_children":[1,3,5,7,9,11,13,15,17,-1,19,21,23,25,27,29,31,33,35,37,39,41,43,45,47,49,51,53,55,57,-1,-1,-1,59,61,63,65,-1,67,69,71,73,75,-1,77,79,81,83,85,-1,87,89,-1,91,93,-1,-1,-1,-1,-1,-1,-1,-1,-1,-1,-1,-1,-1,-1,-1,-1,-1,-1,-1,-1,-1,-1,-1,-1,-1,-1,-1,-1,-1,-1,-1,-1,-1,-1,-1,-1,-1,-1,-1,-1],"loss_changes":[6.764937E1,2.5938766E1,2.536945E1,7.68128E0,2.1013565E0,1.4367744E1,4.505886E0,2.0449166E0,2.2313528E0,0E0,9.614334E-1,2.8477E0,5.6253376E0,3.8187637E0,2.0111904E0,2.7966087E0,8.017521E-1,2.2788887E0,4.3600163E0,1.5871193E0,2.2106934E-1,2.149147E0,2.128993E0,4.498476E0,3.67597E0,2.9089584E0,1.3465912E0,2.1698594E0,1.6860771E-1,2.1002057E0,0E0,0E0,0E0,1.3274523E0,3.3297677E0,2.1955423E0,2.925085E0,0E0,1.3062787E0,1.6564247E-1,2.4723053E-1,2.47324E0,4.145616E0,0E0,2.4496975E0,3.2246652E0,2.9994774E0,3.6766953E0,4.5681615E0,0E0,2.177658E0,2.4975138E0,0E0,1.8685226E0,1.689434E-2,0E0,0E0,0E0,0E0,0E0,0E0,0E0,0E0,0E0,0E0,0E0,0E0,0E0,0E0,0E0,0E0,0E0,0E0,0E0,0E0,0E0,0E0,0E0,0E0,0E0,0E0,0E0,0E0,0E0,0E0,0E0,0E0,0E0,0E0,0E0,0E0,0E0,0E0,0E0,0E0],"parents":[2147483647,0,0,1,1,2,2,3,3,4,4,5,5,6,6,7,7,8,8,10,10,11,11,12,12,13,13,14,14,15,15,16,16,17,17,18,18,19,19,20,20,21,21,22,22,23,23,24,24,25,25,26,26,27,27,28,28,29,29,33,33,34,34,35,35,36,36,38,38,39,39,40,40,41,41,42,42,44,44,45,45,46,46,47,47,48,48,50,50,51,51,53,53,54,54],"right_children":[2,4,6,8,10,12,14,16,18,-1,20,22,24,26,28,30,32,34,36,38,40,42,44,46,48,50,52,54,56,58,-1,-1,-1,60,62,64,66,-1,68,70,72,74,76,-1,78,80,82,84,86,-1,88,90,-1,92,94,-1,-1,-1,-1,-1,-1,-1,-1,-1,-1,-1,-1,-1,-1,-1,-1,-1,-1,-1,-1,-1,-1,-1,-1,-1,-1,-1,-1,-1,-1,-1,-1,-1,-1,-1,-1,-1,-1,-1,-1],"split_conditions":[6.666667E-1,5E0,1.6666666E0,-4E0,-6E0,4E0,3E0,-3E0,5.9E1,3.838477E-2,0E0,1E0,2E0,2.6E0,8E0,2E-1,2.3E1,-7E0,1E0,3E0,4E0,0E0,-5E0,2.5E-1,9E0,3E0,4E0,1E0,2E0,3.9E1,8.391503E-2,2.0050948E-2,1.0909718E-1,5E0,2.5E-1,6.9E1,1E0,4.2928476E-2,4E0,2.5E-1,-2E0,-3E0,-2E0,-4.360031E-2,-1E0,5E-1,9E0,1E0,8.3E1,-5.2435394E-2,3.9E1,1.3E1,-5.608806E-2,8E0,1E0,3.5381038E-2,1.1561078E-1,4.863825E-2,-4.6186354E-2,2.6004886E-2,-4.296221E-2,-1.1230153E-2,4.211026E-2,-5.4822605E-2,2.7555933E-2,-5.081847E-2,2.8804792E-2,2.2691669E-2,-5.6738276E-2,2.3944841E-3,-4.0703565E-2,-2.3905002E-2,-6.9312364E-2,-5.0957957E-3,5.058686E-2,-1.7804097E-2,5.0261892E-2,8.878576E-2,3.7010174E-2,-1.1497482E-2,3.1192029E-2,2.73111E-2,-1.6830448E-2,-4.4436686E-2,1.932528E-2,-1.1361326E-2,3.859782E-2,5.3340442E-2,3.34985E-2,-3.0520722E-2,4.7243167E-2,4.0522773E-2,-5.1386803E-2,3.5127167E-2,1.0478013E-1],"split_indices":[4,2,4,8,8,3,4,7,0,0,7,9,8,5,14,12,1,7,2,0,3,10,7,12,3,0,10,6,3,0,0,0,0,3,12,0,9,0,13,5,8,10,8,0,10,11,3,6,1,0,1,3,0,13,5,0,0,0,0,0,0,0,0,0,0,0,0,0,0,0,0,0,0,0,0,0,0,0,0,0,0,0,0,0,0,0,0,0,0,0,0,0,0,0,0],"split_type":[0,0,0,0,0,0,0,0,0,0,0,0,0,0,0,0,0,0,0,0,0,0,0,0,0,0,0,0,0,0,0,0,0,0,0,0,0,0,0,0,0,0,0,0,0,0,0,0,0,0,0,0,0,0,0,0,0,0,0,0,0,0,0,0,0,0,0,0,0,0,0,0,0,0,0,0,0,0,0,0,0,0,0,0,0,0,0,0,0,0,0,0,0,0,0],"sum_hessian":[1.2454481E3,3.1441968E2,9.3102844E2,1.5133725E2,1.6308244E2,6.230939E2,3.079346E2,1.8806671E1,1.3253058E2,1.3847098E0,1.6169772E2,1.2544897E2,4.976449E2,2.7763843E2,3.0296175E1,1.1767464E1,7.0392075E0,6.457917E1,6.79514E1,2.0380255E1,1.4131747E2,8.348289E1,4.1966076E1,2.607571E2,2.3688779E2,2.5962756E2,1.8010847E1,1.8376228E1,1.1919946E1,8.014014E0,3.7534492E0,1.8342495E0,5.204958E0,1.737968E1,4.7199493E1,1.9188118E1,4.8763283E1,1.3324356E0,1.9047821E1,2.573707E0,1.3874376E2,4.6324654E1,3.7158234E1,1.3490721E0,4.0617004E1,1.3143463E2,1.2932248E2,6.2161594E1,1.747262E2,2.5789037E0,2.5704868E2,1.4598027E1,3.4128199E0,1.2190456E1,6.1857724E0,1.4112844E0,1.0508661E1,2.7648735E0,5.2491407E0,2.6910522E0,1.4688629E1,2.8861647E1,1.8337845E1,3.0200024E0,1.6168116E1,4.4268093E1,4.4951887E0,1.797094E0,1.7250727E1,1.2915058E0,1.2822013E0,2.5587425E0,1.3618503E2,9.920055E0,3.64046E1,2.4289375E1,1.2868857E1,1.7799883E1,2.2817123E1,1.1141675E2,2.001788E1,1.1219283E2,1.7129654E1,5.1847878E1,1.0313719E1,1.5497484E2,1.975135E1,9.165344E1,1.6539523E2,7.758201E0,6.8398266E0,1.0346208E1,1.8442489E0,1.4125987E0,4.7731733E0],"tree_param":{"num_deleted":"0","num_feature":"15","num_nodes":"95","size_leaf_vector":"1"}},{"base_weights":[-1.4398007E-1,-4.9436712E-1,-3.0587528E-2,-7.020448E-2,-5.54308E-1,6.31393E-2,-2.750893E-1,2.8802845E-1,-2.290628E-1,-3.4720328E-1,-6.577562E-1,-1.5154274E-1,1.4235745E-1,-3.0071765E-1,1.605306E-1,4.6076903E-1,-4.7193747E-2,-4.2189497E-1,1.969815E-1,-1.23362884E-1,-5.2029455E-1,5.609264E-3,-6.680788E-1,7.410709E-1,-1.7654939E-1,1.0192551E-1,5.496522E-1,-3.2582456E-1,5.0374083E-2,-3.5267144E-1,3.4885043E-1,-2.3965189E-1,7.183942E-1,-9.5803306E-2,-5.830857E-1,6.741381E-1,-2.4834043E-1,-1.8475695E-1,1.7105447E-1,-5.7029855E-1,2.6398927E-1,-4.1279595E-2,4.1181363E-2,-6.889775E-1,-3.8848025E-1,9.999577E-2,1.737403E-4,-2.0162584E-1,4.303468E-1,2.3384461E-1,-3.61941E-3,6.3993984E-1,1.3723613E-2,-3.5267898E-1,-7.182421E-3,3.888362E-1,-3.1021994E-1,9.306214E-4,-5.0555468E-2,-5.264192E-2,6.088429E-1,-4.1422512E-2,4.378253E-3,8.7474905E-2,-1.8260801E-3,1.4886612E-2,-4.857472E-2,-6.448184E-2,-2.5109066E-2,9.376905E-2,3.1723027E-4,-5.31899E-2,1.984503E-2,-4.1531567E-2,-5.3911805E-3,3.5829853E-2,-4.090919E-2,-6.1852045E-2,-2.6388228E-2,-7.360063E-4,4.2305667E-2,2.1310751E-3,-6.950103E-2,-5.6609E-2,2.7641803E-2,4.0229663E-2,-2.2512378E-2,9.148287E-2,1.0329274E-2,5.8407057E-2,1.789594E-2,-1.3460799E-2,1.2393883E-2,8.8518806E-2,3.0464992E-2,-3.0061608E-2,7.901981E-2,-2.0244531E-2,-4.239999E-2,-1.1990661E-2,8.149884E-2,-4.1019075E-2,5.7016917E-2,-4.6936717E-2,1.1643908E-2,5.8389254E-2,-5.3114958E-2,7.631322E-2,-1.907664E-3],"categories":[],"categories_nodes":[],"categories_segments":[],"categories_sizes":[],"default_left":[0,0,0,0,0,0,0,0,0,0,0,0,0,0,0,0,0,0,0,0,0,0,0,0,0,0,0,0,0,0,0,0,0,0,0,0,0,0,0,0,0,0,0,0,0,0,0,0,0,0,0,0,0,0,0,0,0,0,0,0,0,0,0,0,0,0,0,0,0,0,0,0,0,0,0,0,0,0,0,0,0,0,0,0,0,0,0,0,0,0,0,0,0,0,0,0,0,0,0,0,0,0,0,0,0,0,0,0,0],"id":8,"left_children":[1,3,5,7,9,11,13,15,17,19,21,23,25,27,29,31,-1,33,35,37,39,41,43,45,47,49,51,53,55,57,59,61,63,65,67,69,71,73,75,77,79,-1,-1,81,83,-1,-1,85,87,89,91,93,95,97,99,101,103,-1,-1,105,107,-1,-1,-1,-1,-1,-1,-1,-1,-1,-1,-1,-1,-1,-1,-1,-1,-1,-1,-1,-1,-1,-1,-1,-1,-1,-1,-1,-1,-1,-1,-1,-1,-1,-1,-1,-1,-1,-1,-1,-1,-1,-1,-1,-1,-1,-1,-1,-1],"loss_changes":[4.855179E1,7.558052E0,2.1205431E1,2.2365894E0,5.3776016E0,1.1402186E1,2.9107609E0,1.8138969E0,2.299765E0,3.3949432E0,1.1910019E0,4.1677904E0,8.002073E0,2.1540108E0,1.5628877E0,2.0514436E0,0E0,9.3719625E-1,2.0986574E0,7.590206E-1,2.1128483E0,7.9005265E-1,7.2998047E-1,9.7844887E-1,2.7764754E0,6.2157702E0,2.11839E0,1.9351883E0,2.2015545E0,2.5354993E-1,1.2222084E0,1.9381073E-1,9.217696E-1,7.8273654E-1,9.318209E-2,8.204973E-1,7.9373837E-1,9.9667335E-1,9.572863E-1,5.3648376E-1,1.6206372E-1,0E0,0E0,6.899948E-1,1.8294613E0,0E0,0E0,2.5087557E0,1.0672497E0,3.7093573E0,4.1764007E0,2.8222122E0,2.033998E0,2.1517124E0,1.8235872E0,1.5724809E0,6.529618E-1,0E0,0E0,1.9554358E0,6.92714E-1,0E0,0E0,0E0,0E0,0E0,0E0,0E0,0E0,0E0,0E0,0E0,0E0,0E0,0E0,0E0,0E0,0E0,0E0,0E0,0E0,0E0,0E0,0E0,0E0,0E0,0E0,0E0,0E0,0E0,0E0,0E0,0E0,0E0,0E0,0E0,0E0,0E0,0E0,0E0,0E0,0E0,0E0,0E0,0E0,0E0,0E0,0E0,0E0],"parents":[2147483647,0,0,1,1,2,2,3,3,4,4,5,5,6,6,7,7,8,8,9,9,10,10,11,11,12,12,13,13,14,14,15,15,17,17,18,18,19,19,20,20,21,21,22,22,23,23,24,24,25,25,26,26,27,27,28,28,29,29,30,30,31,31,32,32,33,33,34,34,35,35,36,36,37,37,38,38,39,39,40,40,43,43,44,44,47,47,48,48,49,49,50,50,51,51,52,52,53,53,54,54,55,55,56,56,59,59,60,60],"right_children":[2,4,6,8,10,12,14,16,18,20,22,24,26,28,30,32,-1,34,36,38,40,42,44,46,48,50,52,54,56,58,60,62,64,66,68,70,72,74,76,78,80,-1,-1,82,84,-1,-1,86,88,90,92,94,96,98,100,102,104,-1,-1,106,108,-1,-1,-1,-1,-1,-1,-1,-1,-1,-1,-1,-1,-1,-1,-1,-1,-1,-1,-1,-1,-1,-1,-1,-1,-1,-1,-1,-1,-1,-1,-1,-1,-1,-1,-1,-1,-1,-1,-1,-1,-1,-1,-1,-1,-1,-1,-1,-1],"split_conditions":[7.5E-1,0E0,9E0,6E0,4E0,1.2E0,9E0,7E0,2E-1,2.5E-1,-6E0,-4E0,8E0,9.1E1,3.4E1,2.9E1,-4.7193747E-2,6.4E1,3E0,1.2E0,1E0,-8E0,9E0,7E0,1E1,0E0,1.4E1,2.25E0,9.6E1,3E0,2E0,2.3E1,3E0,8E0,9E1,5E0,-1E0,0E0,7E0,1.4E1,4E0,-4.1279595E-2,4.1181363E-2,-6E0,8E0,9.999577E-2,1.737403E-4,2E-1,6E0,1.4E1,1E0,6E0,1.2E1,2.9E1,1.4E1,-3E0,9E1,9.306214E-4,-5.0555468E-2,1.2E1,7.7E1,-4.1422512E-2,4.378253E-3,8.7474905E-2,-1.8260801E-3,1.4886612E-2,-4.857472E-2,-6.448184E-2,-2.5109066E-2,9.376905E-2,3.1723027E-4,-5.31899E-2,1.984503E-2,-4.1531567E-2,-5.3911805E-3,3.5829853E-2,-4.090919E-2,-6.1852045E-2,-2.6388228E-2,-7.360063E-4,4.2305667E-2,2.1310751E-3,-6.950103E-2,-5.6609E-2,2.7641803E-2,4.0229663E-2,-2.2512378E-2,9.148287E-2,1.0329274E-2,5.8407057E-2,1.789594E-2,-1.3460799E-2,1.2393883E-2,8.8518806E-2,3.0464992E-2,-3.0061608E-2,7.901981E-2,-2.0244531E-2,-4.239999E-2,-1.1990661E-2,8.149884E-2,-4.1019075E-2,5.7016917E-2,-4.6936717E-2,1.1643908E-2,5.8389254E-2,-5.3114958E-2,7.631322E-2,-1.907664E-3],"split_indices":[5,9,2,13,3,5,8,14,12,11,8,9,8,0,0,0,0,0,2,4,10,8,2,13,3,9,13,5,0,5,10,1,7,13,1,3,7,8,2,13,7,0,0,7,14,0,0,4,14,1,10,2,8,0,14,8,1,0,0,3,0,0,0,0,0,0,0,0,0,0,0,0,0,0,0,0,0,0,0,0,0,0,0,0,0,0,0,0,0,0,0,0,0,0,0,0,0,0,0,0,0,0,0,0,0,0,0,0,0],"split_type":[0,0,0,0,0,0,0,0,0,0,0,0,0,0,0,0,0,0,0,0,0,0,0,0,0,0,0,0,0,0,0,0,0,0,0,0,0,0,0,0,0,0,0,0,0,0,0,0,0,0,0,0,0,0,0,0,0,0,0,0,0,0,0,0,0,0,0,0,0,0,0,0,0,0,0,0,0,0,0,0,0,0,0,0,0,0,0,0,0,0,0,0,0,0,0,0,0,0,0,0,0,0,0,0,0,0,0,0,0],"sum_hessian":[1.2213848E3,2.97803E2,9.235818E2,3.71423E1,2.606607E2,6.681834E2,2.5539836E2,1.1160879E1,2.5981419E1,8.827976E1,1.7238095E2,1.7985677E2,4.8832663E2,2.415001E2,1.3898251E1,9.414628E0,1.746251E0,1.7892723E1,8.0886965E0,3.924331E1,4.9036457E1,2.6482987E0,1.6973265E2,4.121042E0,1.7573573E2,4.4536566E2,4.2960983E1,2.2544994E2,1.6050175E1,3.4966328E0,1.0401617E1,2.5504186E0,6.864209E0,6.4462323E0,1.144649E1,3.656733E0,4.431964E0,3.2780205E1,6.463103E0,4.635389E1,2.6825666E0,1.2965637E0,1.3517349E0,1.565659E2,1.3166736E1,2.791168E0,1.329874E0,1.6940387E2,6.331852E0,1.9741003E2,2.4795563E2,3.660079E1,6.3601933E0,2.0782788E2,1.7622055E1,8.238758E0,7.8114157E0,1.3171589E0,2.1794739E0,4.401753E0,5.999864E0,1.2927421E0,1.2576766E0,5.507734E0,1.3564752E0,4.340827E0,2.1054053E0,8.857277E0,2.5892131E0,2.3400488E0,1.316684E0,2.5947201E0,1.8372437E0,1.1080846E1,2.169936E1,5.175193E0,1.2879101E0,3.9170856E1,7.1830335E0,1.3438516E0,1.338715E0,1.2972573E0,1.5526865E2,1.0508326E1,2.6584108E0,5.740718E0,1.6366316E2,1.8275013E0,4.5043507E0,2.5439205E1,1.7197084E2,1.2230564E2,1.2564998E2,2.0191574E1,1.6409216E1,4.963619E0,1.3965741E0,6.813782E1,1.3969006E2,1.624846E1,1.3735956E0,1.2904449E0,6.9483137E0,5.616367E0,2.1950488E0,1.7944503E0,2.607303E0,4.6435413E0,1.3563229E0],"tree_param":{"num_deleted":"0","num_feature":"15","num_nodes":"109","size_leaf_vector":"1"}},{"base_weights":[9.4055705E-2,7.8385025E-1,-5.02179E-2,-3.6109425E-2,1.0059528E0,1.7923322E-1,-9.443308E-2,-5.0314283E-1,5.5249516E-2,1.064057E-1,1.0294954E0,-1.3658285E-1,4.4463733E-1,-4.2601515E-2,-2.0524624E-1,-5.8218654E-2,-2.109362E-2,5.665838E-1,-8.4348485E-2,-4.9575802E-2,6.446082E-2,-1.6720154E-3,1.0382148E0,-2.229937E-1,4.511555E-1,6.156738E-1,-7.703246E-2,4.7166415E-2,-1.7060784E-1,-2.8763798E-1,-1.471031E-1,6.616463E-1,1.3608797E-3,1.9487716E-2,-3.925921E-1,1.0418743E-1,3.5723817E-2,3.661216E-1,-2.909131E-1,7.512955E-1,-1.1336054E-2,1.9991994E-2,8.00176E-1,-4.6150768E-1,7.660353E-2,1.2523288E-1,-1.019762E-1,-2.2405079E-1,1.5965145E-2,8.902535E-3,-3.6747813E-1,1.3911997E-1,-1.7408761E-1,8.074099E-2,3.5738755E-2,-5.652637E-2,1.3750665E-2,-1.1556164E-2,-5.6750316E-2,7.4203715E-2,-2.5000036E-2,-6.330652E-2,-2.2567831E-2,2.1030245E-2,9.27656E-2,3.4833934E-2,-4.5139845E-2,-3.85327E-2,2.8620332E-2,1.2882231E-3,8.596642E-2,-5.7774004E-2,1.8870853E-3,-5.1976573E-2,2.1250749E-2,2.1008553E-3,3.8580224E-2,-4.294415E-3,-3.5375778E-2,4.8596174E-3,-2.7636236E-2,2.8183935E-2,-1.7100675E-2,5.8319774E-2,-6.05463E-3,-5.537212E-2,-2.8888077E-2,-6.628163E-3,7.051981E-2,-2.7496269E-2,-5.362181E-3],"categories":[],"categories_nodes":[],"categories_segments":[],"categories_sizes":[],"default_left":[0,0,0,0,0,0,0,0,0,0,0,0,0,0,0,0,0,0,0,0,0,0,0,0,0,0,0,0,0,0,0,0,0,0,0,0,0,0,0,0,0,0,0,0,0,0,0,0,0,0,0,0,0,0,0,0,0,0,0,0,0,0,0,0,0,0,0,0,0,0,0,0,0,0,0,0,0,0,0,0,0,0,0,0,0,0,0,0,0,0,0],"id":9,"left_children":[1,3,5,7,9,11,13,15,17,19,21,23,25,27,29,-1,-1,31,33,-1,-1,-1,35,37,39,41,43,45,47,49,51,53,-1,55,57,-1,-1,59,61,63,65,67,69,71,73,75,77,79,81,83,85,87,89,-1,-1,-1,-1,-1,-1,-1,-1,-1,-1,-1,-1,-1,-1,-1,-1,-1,-1,-1,-1,-1,-1,-1,-1,-1,-1,-1,-1,-1,-1,-1,-1,-1,-1,-1,-1,-1,-1],"loss_changes":[1.2452451E2,3.9451447E1,1.0521658E1,2.0372176E0,3.497757E0,1.4111826E1,4.981313E0,5.7448626E-2,2.923778E0,2.0889208E0,1.5305481E0,4.027112E0,8.195692E0,6.8243465E0,1.2827768E0,0E0,0E0,4.5202184E-1,1.0485228E0,0E0,0E0,0E0,3.778076E-2,2.8302574E0,1.4300387E0,7.554863E0,1.4197845E0,4.0815296E0,2.4438276E0,2.687951E0,1.2925389E0,4.2411327E-2,0E0,1.8222414E0,3.3377945E-1,0E0,0E0,1.917862E0,1.2319016E0,3.9885616E-1,9.510774E-1,1.978698E0,2.451004E0,3.9248073E-1,1.5371962E0,6.2337413E0,1.7776226E0,2.7277088E0,2.8035333E0,1.0336101E0,1.1481571E0,1.7563922E0,1.8142538E0,0E0,0E0,0E0,0E0,0E0,0E0,0E0,0E0,0E0,0E0,0E0,0E0,0E0,0E0,0E0,0E0,0E0,0E0,0E0,0E0,0E0,0E0,0E0,0E0,0E0,0E0,0E0,0E0,0E0,0E0,0E0,0E0,0E0,0E0,0E0,0E0,0E0,0E0],"parents":[2147483647,0,0,1,1,2,2,3,3,4,4,5,5,6,6,7,7,8,8,9,9,10,10,11,11,12,12,13,13,14,14,17,17,18,18,22,22,23,23,24,24,25,25,26,26,27,27,28,28,29,29,30,30,31,31,33,33,34,34,37,37,38,38,39,39,40,40,41,41,42,42,43,43,44,44,45,45,46,46,47,47,48,48,49,49,50,50,51,51,52,52],"right_children":[2,4,6,8,10,12,14,16,18,20,22,24,26,28,30,-1,-1,32,34,-1,-1,-1,36,38,40,42,44,46,48,50,52,54,-1,56,58,-1,-1,60,62,64,66,68,70,72,74,76,78,80,82,84,86,88,90,-1,-1,-1,-1,-1,-1,-1,-1,-1,-1,-1,-1,-1,-1,-1,-1,-1,-1,-1,-1,-1,-1,-1,-1,-1,-1,-1,-1,-1,-1,-1,-1,-1,-1,-1,-1,-1,-1],"split_conditions":[2.5E-1,2E0,7.5E-1,1.9E1,-6E0,0E0,1.6666666E0,1.2E1,4.6E1,6.8E1,0E0,1.3E1,1E0,1E0,4.4E1,-5.8218654E-2,-2.109362E-2,1E0,9.3E1,-4.9575802E-2,6.446082E-2,-1.6720154E-3,1.25E0,6.666667E-1,-4E0,-2E0,-5E0,1E0,9E0,8E0,-5E0,3E1,1.3608797E-3,-1E0,7.7E1,1.0418743E-1,3.5723817E-2,5E-1,2E-1,3.8E1,6.8E1,3E0,2E0,8.2E1,2E0,1E0,1.1E1,5E0,0E0,4E0,5E0,9E1,8E0,8.074099E-2,3.5738755E-2,-5.652637E-2,1.3750665E-2,-1.1556164E-2,-5.6750316E-2,7.4203715E-2,-2.5000036E-2,-6.330652E-2,-2.2567831E-2,2.1030245E-2,9.27656E-2,3.4833934E-2,-4.5139845E-2,-3.85327E-2,2.8620332E-2,1.2882231E-3,8.596642E-2,-5.7774004E-2,1.8870853E-3,-5.1976573E-2,2.1250749E-2,2.1008553E-3,3.8580224E-2,-4.294415E-3,-3.5375778E-2,4.8596174E-3,-2.7636236E-2,2.8183935E-2,-1.7100675E-2,5.8319774E-2,-6.05463E-3,-5.537212E-2,-2.8888077E-2,-6.628163E-3,7.051981E-2,-2.7496269E-2,-5.362181E-3],"split_indices":[5,3,4,1,8,9,4,1,1,0,10,14,10,10,1,0,0,6,1,0,0,0,4,5,7,8,7,9,13,1,8,0,0,7,0,0,0,4,4,0,1,2,2,1,2,7,14,13,9,13,3,1,3,0,0,0,0,0,0,0,0,0,0,0,0,0,0,0,0,0,0,0,0,0,0,0,0,0,0,0,0,0,0,0,0,0,0,0,0,0,0],"split_type":[0,0,0,0,0,0,0,0,0,0,0,0,0,0,0,0,0,0,0,0,0,0,0,0,0,0,0,0,0,0,0,0,0,0,0,0,0,0,0,0,0,0,0,0,0,0,0,0,0,0,0,0,0,0,0,0,0,0,0,0,0,0,0,0,0,0,0,0,0,0,0,0,0,0,0,0,0,0,0,0,0,0,0,0,0,0,0,0,0,0,0],"sum_hessian":[1.2498662E3,2.154298E2,1.0344364E3,4.609465E1,1.6933514E2,1.6663641E2,8.6780005E2,6.8041306E0,3.929052E1,4.459511E0,1.6487563E2,7.631326E1,9.032315E1,5.9219305E2,2.7560696E2,4.574359E0,2.229772E0,7.7702274E0,3.152029E1,2.1419122E0,2.3175983E0,1.3551835E0,1.6352045E2,6.7072655E1,9.24061E0,6.788571E1,2.2437437E1,3.4845853E2,2.4373453E2,1.1239316E2,1.632138E2,6.4626975E0,1.3075298E0,2.4278511E1,7.24178E0,1.6211928E2,1.4011627E0,6.479616E0,6.0593037E1,5.2251973E0,4.0154133E0,1.6316101E1,5.156961E1,5.833973E0,1.6603464E1,2.2883736E2,1.1962117E2,1.8930743E2,5.44271E1,2.4029993E1,8.836316E1,1.3703717E1,1.4951009E2,3.251353E0,3.2113445E0,3.4407818E0,2.0837729E1,3.4454453E0,3.7963345E0,3.8973513E0,2.582265E0,8.308919E0,5.228412E1,1.8236213E0,3.401576E0,2.3242059E0,1.6912072E0,6.290729E0,1.0025372E1,3.7083378E0,4.786127E1,4.5342016E0,1.2997713E0,2.5572622E0,1.4046202E1,1.6422867E2,6.460869E1,9.785006E1,2.177111E1,3.0486002E1,1.5882143E2,2.2262465E1,3.2164635E1,1.7943563E0,2.2235638E1,2.4429762E1,6.39334E1,1.0703031E1,3.000687E0,8.067356E1,6.883653E1],"tree_param":{"num_deleted":"0","num_feature":"15","num_nodes":"91","size_leaf_vector":"1"}},{"base_weights":[3.5849314E-2,-3.420625E-1,1.594843E-1,-5.641771E-2,-6.154511E-1,5.273376E-2,3.7192428E-1,4.8745856E-1,-1.383357E-1,3.6533155E-2,-6.2667775E-1,3.3178917E-1,-1.8972062E-2,3.3222473E-1,7.124599E-1,8.5819565E-2,2.1305557E-1,8.02714E-2,-1.5444747E-1,-3.89021E-1,-6.586864E-1,2.3122707E-1,5.19776E-1,7.5312205E-2,-1.2361514E-1,3.597784E-1,-7.12931E-2,4.7533137E-1,1.0111957E0,-1.7274828E-1,7.224099E-1,-3.0197667E-2,-2.7218485E-1,-7.550432E-2,-6.370932E-2,-2.3018011E-1,-6.6508746E-1,7.3221314E-1,1.7955601E-1,2.3195298E-1,6.9816965E-1,-4.8725374E-2,1.9980335E-1,-3.249093E-1,-5.115286E-2,-5.142041E-2,3.7018177E-1,6.3565455E-2,-5.433298E-2,6.6704386E-1,-4.814669E-2,1.06849186E-1,3.2007333E-2,-4.5459624E-2,4.8686992E-2,9.2449196E-2,1.9209117E-2,-6.8648173E-3,7.2823144E-2,3.988252E-3,-3.9444953E-2,-4.9135204E-2,9.178064E-3,-3.934307E-2,3.218482E-3,-2.2298314E-2,-6.718646E-2,9.649917E-2,3.2362014E-2,4.8465594E-3,3.8581703E-2,-3.0889297E-3,9.568668E-2,7.7580795E-2,-4.3349832E-2,-1.1176314E-2,2.8567612E-2,2.5534604E-2,-1.627456E-2,-4.2959373E-2,1.8224193E-2,-1.0359347E-2,3.921151E-2,8.031591E-2,3.5083923E-2,-2.9221753E-2,4.4271525E-2,8.1009485E-2,-1.8869719E-2,-5.480305E-2,3.8317367E-2],"categories":[],"categories_nodes":[],"categories_segments":[],"categories_sizes":[],"default_left":[0,0,0,0,0,0,0,0,0,0,0,0,0,0,0,0,0,0,0,0,0,0,0,0,0,0,0,0,0,0,0,0,0,0,0,0,0,0,0,0,0,0,0,0,0,0,0,0,0,0,0,0,0,0,0,0,0,0,0,0,0,0,0,0,0,0,0,0,0,0,0,0,0,0,0,0,0,0,0,0,0,0,0,0,0,0,0,0,0,0,0],"id":10,"left_children":[1,3,5,7,9,11,13,15,17,-1,19,21,23,25,27,-1,29,-1,31,33,35,37,39,41,43,45,47,49,51,53,55,57,59,61,-1,63,65,67,69,71,73,75,77,79,81,-1,83,85,-1,87,89,-1,-1,-1,-1,-1,-1,-1,-1,-1,-1,-1,-1,-1,-1,-1,-1,-1,-1,-1,-1,-1,-1,-1,-1,-1,-1,-1,-1,-1,-1,-1,-1,-1,-1,-1,-1,-1,-1,-1,-1],"loss_changes":[5.8137352E1,2.3920639E1,2.123813E1,6.8002005E0,1.9537048E0,1.2513271E1,3.9992447E0,1.8520555E0,2.127095E0,0E0,9.246521E-1,2.2963629E0,4.924738E0,3.166483E0,1.7748795E0,0E0,2.6450496E0,0E0,1.9042008E0,1.5749633E0,2.182045E-1,2.0709891E0,2.0843744E0,4.0662026E0,3.433191E0,2.5961723E0,1.2371086E0,2.0028863E0,1.8081856E-1,1.7280692E0,4.3545938E-1,1.9376578E0,2.5720668E0,7.652956E-1,0E0,1.6349797E-1,2.4821472E-1,4.1339827E-1,2.1025453E0,3.5045142E0,2.6656027E0,2.8227518E0,2.6856408E0,3.3920503E0,4.1107383E0,0E0,1.913002E0,2.232186E0,0E0,1.9206352E0,1.5460571E0,0E0,0E0,0E0,0E0,0E0,0E0,0E0,0E0,0E0,0E0,0E0,0E0,0E0,0E0,0E0,0E0,0E0,0E0,0E0,0E0,0E0,0E0,0E0,0E0,0E0,0E0,0E0,0E0,0E0,0E0,0E0,0E0,0E0,0E0,0E0,0E0,0E0,0E0,0E0,0E0],"parents":[2147483647,0,0,1,1,2,2,3,3,4,4,5,5,6,6,7,7,8,8,10,10,11,11,12,12,13,13,14,14,16,16,18,18,19,19,20,20,21,21,22,22,23,23,24,24,25,25,26,26,27,27,28,28,29,29,30,30,31,31,32,32,33,33,35,35,36,36,37,37,38,38,39,39,40,40,41,41,42,42,43,43,44,44,46,46,47,47,49,49,50,50],"right_children":[2,4,6,8,10,12,14,16,18,-1,20,22,24,26,28,-1,30,-1,32,34,36,38,40,42,44,46,48,50,52,54,56,58,60,62,-1,64,66,68,70,72,74,76,78,80,82,-1,84,86,-1,88,90,-1,-1,-1,-1,-1,-1,-1,-1,-1,-1,-1,-1,-1,-1,-1,-1,-1,-1,-1,-1,-1,-1,-1,-1,-1,-1,-1,-1,-1,-1,-1,-1,-1,-1,-1,-1,-1,-1,-1,-1],"split_conditions":[6.666667E-1,5E0,1.6666666E0,-4E0,-6E0,4E0,3E0,7E0,3E0,3.6533155E-2,0E0,1E0,2E0,2.6E0,8E0,8.5819565E-2,8E0,8.02714E-2,5.3E1,4.2E1,4E0,-1.1E1,1.25E0,2.5E-1,9E0,3E0,4E0,8E0,3.8E0,8.7E1,-7E0,2.25E0,1E0,-1E0,-6.370932E-2,7E0,-2E0,6E0,-3E0,8E1,9.2E1,5E-1,9E0,1E0,8.5E1,-5.142041E-2,5E0,1.3E1,-5.433298E-2,8E0,5.6E1,1.06849186E-1,3.2007333E-2,-4.5459624E-2,4.8686992E-2,9.2449196E-2,1.9209117E-2,-6.8648173E-3,7.2823144E-2,3.988252E-3,-3.9444953E-2,-4.9135204E-2,9.178064E-3,-3.934307E-2,3.218482E-3,-2.2298314E-2,-6.718646E-2,9.649917E-2,3.2362014E-2,4.8465594E-3,3.8581703E-2,-3.0889297E-3,9.568668E-2,7.7580795E-2,-4.3349832E-2,-1.1176314E-2,2.8567612E-2,2.5534604E-2,-1.627456E-2,-4.2959373E-2,1.8224193E-2,-1.0359347E-2,3.921151E-2,8.031591E-2,3.5083923E-2,-2.9221753E-2,4.4271525E-2,8.1009485E-2,-1.8869719E-2,-5.480305E-2,3.8317367E-2],"split_indices":[4,2,4,8,8,3,4,13,0,0,7,9,8,5,14,0,13,0,1,1,3,8,4,12,3,0,10,3,4,1,8,5,2,10,0,13,8,2,8,0,0,11,3,6,1,0,0,3,0,13,0,0,0,0,0,0,0,0,0,0,0,0,0,0,0,0,0,0,0,0,0,0,0,0,0,0,0,0,0,0,0,0,0,0,0,0,0,0,0,0,0],"split_type":[0,0,0,0,0,0,0,0,0,0,0,0,0,0,0,0,0,0,0,0,0,0,0,0,0,0,0,0,0,0,0,0,0,0,0,0,0,0,0,0,0,0,0,0,0,0,0,0,0,0,0,0,0,0,0,0,0,0,0,0,0,0,0,0,0,0,0,0,0,0,0,0,0,0,0,0,0,0,0,0,0,0,0,0,0,0,0,0,0,0,0],"sum_hessian":[1.2421276E3,3.057581E2,9.3636945E2,1.501173E2,1.556408E2,6.240395E2,3.1232996E2,1.9002676E1,1.3111461E2,1.4044411E0,1.5423634E2,1.26830376E2,4.972091E2,2.814896E2,3.0840384E1,7.177664E0,1.1825013E1,1.385227E0,1.2972939E2,1.9868805E1,1.3436754E2,8.408159E1,4.2748787E1,2.6169766E2,2.3551144E2,2.635985E2,1.7891077E1,1.863754E1,1.2202843E1,7.104585E0,4.7204275E0,6.3730373E1,6.5999016E1,9.352882E0,1.05159235E1,2.521624E0,1.3184592E2,6.629864E0,7.745172E1,1.7237606E1,2.551118E1,1.313925E2,1.3030518E2,6.141681E1,1.7409464E2,2.5311432E0,2.6106735E2,1.4588541E1,3.3025365E0,1.3440863E1,5.1966786E0,1.0764417E1,1.438427E0,5.195445E0,1.9091402E0,2.8797867E0,1.8406409E0,6.15209E1,2.2094734E0,1.876843E1,4.7230583E1,2.1273534E0,7.2255287E0,1.2464771E0,1.2751471E0,2.5024307E0,1.2934349E2,3.3561165E0,3.273748E0,4.8110058E1,2.9341665E1,1.33533E1,3.8843064E0,2.4167614E1,1.3435669E0,1.1111254E2,2.027996E1,1.13250786E2,1.7054382E1,5.1035225E1,1.0381586E1,1.5636253E2,1.77321E1,9.431144E0,2.5163622E2,7.644474E0,6.944067E0,1.156151E1,1.8793526E0,2.2816944E0,2.9149845E0],"tree_param":{"num_deleted":"0","num_feature":"15","num_nodes":"91","size_leaf_vector":"1"}},{"base_weights":[-1.3420022E-1,-4.7280577E-1,-2.7935158E-2,-6.374947E-2,-5.3233516E-1,5.984277E-2,-2.6060164E-1,-1.527835E-1,5.326575E-1,-3.2958162E-1,-6.3628215E-1,-8.5740395E-2,1.6250148E-1,-2.8522253E-1,1.5015356E-1,-4.043624E-1,5.020177E-2,8.895304E-2,-1.0303366E-2,-1.1335562E-1,-5.004316E-1,3.472874E-3,-6.467086E-1,4.0774468E-1,-1.3289124E-1,1.1753538E-1,5.113479E-1,-3.094902E-1,4.8805974E-2,-3.452339E-1,3.2976145E-1,5.132914E-2,-6.268423E-2,-2.999245E-1,4.6199948E-1,-1.7335181E-1,1.7058645E-1,-5.504919E-1,2.5546268E-1,-4.0613078E-2,3.963088E-2,-6.6779953E-1,-3.7244147E-1,6.732874E-1,-1.6018989E-2,-2.0631804E-1,6.734931E-2,1.6940922E-1,-1.6163442E-1,5.940942E-1,1.1687676E-2,-3.3572316E-1,-2.7684942E-3,3.6843297E-1,-2.9853863E-1,1.0598752E-3,-4.9687404E-2,7.771938E-2,7.2067395E-2,-3.499816E-2,7.7801995E-2,5.4994106E-2,-5.2683067E-2,6.510876E-2,-4.084195E-2,-3.9627776E-2,-4.935705E-3,3.5690065E-2,-4.0788993E-2,-5.9909083E-2,-2.4780279E-2,-1.6355276E-3,4.1973058E-2,2.326959E-3,-6.73972E-2,-5.487859E-2,2.6557282E-2,4.3197237E-2,1.01480894E-1,-2.104483E-2,5.9034675E-2,-4.8374417E-3,-2.6572833E-2,-7.375058E-3,3.7237387E-2,2.2197051E-2,-1.4039988E-2,4.4425722E-2,-2.8341342E-2,8.191601E-2,2.8336292E-2,-2.9248301E-2,7.4721515E-2,-1.8888764E-2,-4.061394E-2,-5.546962E-2,1.5678301E-2,-4.002649E-2,5.390227E-2,1.2501142E-2,-4.58778E-2,6.2003113E-2,-2.5372436E-2],"categories":[],"categories_nodes":[],"categories_segments":[],"categories_sizes":[],"default_left":[0,0,0,0,0,0,0,0,0,0,0,0,0,0,0,0,0,0,0,0,0,0,0,0,0,0,0,0,0,0,0,0,0,0,0,0,0,0,0,0,0,0,0,0,0,0,0,0,0,0,0,0,0,0,0,0,0,0,0,0,0,0,0,0,0,0,0,0,0,0,0,0,0,0,0,0,0,0,0,0,0,0,0,0,0,0,0,0,0,0,0,0,0,0,0,0,0,0,0,0,0,0,0],"id":11,"left_children":[1,3,5,7,9,11,13,15,17,19,21,23,25,27,29,31,33,-1,-1,35,37,39,41,43,45,47,49,51,53,55,57,59,-1,61,63,65,67,69,71,-1,-1,73,75,77,79,81,83,85,87,89,91,93,95,97,99,-1,-1,101,-1,-1,-1,-1,-1,-1,-1,-1,-1,-1,-1,-1,-1,-1,-1,-1,-1,-1,-1,-1,-1,-1,-1,-1,-1,-1,-1,-1,-1,-1,-1,-1,-1,-1,-1,-1,-1,-1,-1,-1,-1,-1,-1,-1,-1],"loss_changes":[4.3480453E1,6.995468E0,1.8827051E1,2.0890596E0,5.0984497E0,1.0021284E1,2.5963726E0,1.7399738E0,1.2563617E0,3.1733475E0,1.1057053E0,6.5125403E0,6.105132E0,1.948925E0,1.4426105E0,1.5679107E0,2.9539924E0,0E0,0E0,7.0904434E-1,1.9777756E0,7.47857E-1,6.9288635E-1,2.7624073E0,3.7500515E0,5.088055E0,1.8361664E0,1.7896881E0,1.9997715E0,2.4604565E-1,1.0742604E0,1.9910752E0,0E0,2.4418445E0,1.807571E0,9.0434015E-1,9.497815E-1,5.260353E-1,1.7201175E-1,0E0,0E0,6.550751E-1,1.7079165E0,8.0246925E-1,1.3499712E0,1.734117E0,2.9942575E0,4.837941E0,4.204045E0,2.4411526E0,1.8637528E0,2.042902E0,1.7197922E0,1.4368826E0,6.484703E-1,0E0,0E0,1.6124738E0,0E0,0E0,0E0,0E0,0E0,0E0,0E0,0E0,0E0,0E0,0E0,0E0,0E0,0E0,0E0,0E0,0E0,0E0,0E0,0E0,0E0,0E0,0E0,0E0,0E0,0E0,0E0,0E0,0E0,0E0,0E0,0E0,0E0,0E0,0E0,0E0,0E0,0E0,0E0,0E0,0E0,0E0,0E0,0E0,0E0],"parents":[2147483647,0,0,1,1,2,2,3,3,4,4,5,5,6,6,7,7,8,8,9,9,10,10,11,11,12,12,13,13,14,14,15,15,16,16,19,19,20,20,21,21,22,22,23,23,24,24,25,25,26,26,27,27,28,28,29,29,30,30,31,31,33,33,34,34,35,35,36,36,37,37,38,38,41,41,42,42,43,43,44,44,45,45,46,46,47,47,48,48,49,49,50,50,51,51,52,52,53,53,54,54,57,57],"right_children":[2,4,6,8,10,12,14,16,18,20,22,24,26,28,30,32,34,-1,-1,36,38,40,42,44,46,48,50,52,54,56,58,60,-1,62,64,66,68,70,72,-1,-1,74,76,78,80,82,84,86,88,90,92,94,96,98,100,-1,-1,102,-1,-1,-1,-1,-1,-1,-1,-1,-1,-1,-1,-1,-1,-1,-1,-1,-1,-1,-1,-1,-1,-1,-1,-1,-1,-1,-1,-1,-1,-1,-1,-1,-1,-1,-1,-1,-1,-1,-1,-1,-1,-1,-1,-1,-1],"split_conditions":[7.5E-1,0E0,9E0,2.5E-1,4E0,1.3333334E0,9E0,1E0,5E0,2.5E-1,-6E0,-7E0,8E0,9.1E1,3.4E1,2E0,2E0,8.895304E-2,-1.0303366E-2,1.2E0,1E0,-8E0,9E0,5.8E1,1E0,1E0,1.4E1,2.25E0,9.6E1,1E1,4E0,-2E0,-6.268423E-2,5E0,5E0,0E0,2E0,1.4E1,1.5E0,-4.0613078E-2,3.963088E-2,-6E0,8E0,3E0,9E1,2E-1,7E0,8.5E1,6.666667E-1,6E0,6E0,2.9E1,4E0,-3E0,-2E0,1.0598752E-3,-4.9687404E-2,1.5E0,7.2067395E-2,-3.499816E-2,7.7801995E-2,5.4994106E-2,-5.2683067E-2,6.510876E-2,-4.084195E-2,-3.9627776E-2,-4.935705E-3,3.5690065E-2,-4.0788993E-2,-5.9909083E-2,-2.4780279E-2,-1.6355276E-3,4.1973058E-2,2.326959E-3,-6.73972E-2,-5.487859E-2,2.6557282E-2,4.3197237E-2,1.01480894E-1,-2.104483E-2,5.9034675E-2,-4.8374417E-3,-2.6572833E-2,-7.375058E-3,3.7237387E-2,2.2197051E-2,-1.4039988E-2,4.4425722E-2,-2.8341342E-2,8.191601E-2,2.8336292E-2,-2.9248301E-2,7.4721515E-2,-1.8888764E-2,-4.061394E-2,-5.546962E-2,1.5678301E-2,-4.002649E-2,5.390227E-2,1.2501142E-2,-4.58778E-2,6.2003113E-2,-2.5372436E-2],"split_indices":[5,9,2,12,3,5,8,4,2,11,8,7,8,0,0,3,3,0,0,4,10,8,2,0,10,6,13,5,0,1,10,7,0,13,3,8,4,13,4,0,0,7,14,2,1,12,2,1,4,2,10,0,8,8,8,0,0,4,0,0,0,0,0,0,0,0,0,0,0,0,0,0,0,0,0,0,0,0,0,0,0,0,0,0,0,0,0,0,0,0,0,0,0,0,0,0,0,0,0,0,0,0,0],"split_type":[0,0,0,0,0,0,0,0,0,0,0,0,0,0,0,0,0,0,0,0,0,0,0,0,0,0,0,0,0,0,0,0,0,0,0,0,0,0,0,0,0,0,0,0,0,0,0,0,0,0,0,0,0,0,0,0,0,0,0,0,0,0,0,0,0,0,0,0,0,0,0,0,0,0,0,0,0,0,0,0,0,0,0,0,0,0,0,0,0,0,0,0,0,0,0,0,0,0,0,0,0,0,0],"sum_hessian":[1.2077639E3,2.8767142E2,9.200925E2,3.680901E1,2.508624E2,6.68595E2,2.5149756E2,3.2674984E1,4.134026E0,8.643585E1,1.6442654E2,2.7656097E2,3.9203397E2,2.3756349E2,1.3934063E1,1.4147977E1,1.8527008E1,2.3919108E0,1.7421154E0,3.8885834E1,4.7550022E1,2.6474717E0,1.6177907E2,2.3452917E1,2.5310806E2,3.4845523E2,4.357875E1,2.2154163E2,1.602187E1,3.462308E0,1.0471755E1,4.8937345E0,9.254242E0,1.0160138E1,8.366871E0,3.2424175E1,6.4616575E0,4.4851402E1,2.69862E0,1.279507E0,1.3679645E0,1.4889435E2,1.2884725E1,1.4056116E1,9.396801E0,1.8517525E2,6.7932816E1,2.941846E2,5.427063E1,3.7225086E1,6.3536644E0,2.0399962E2,1.7542002E1,8.31223E0,7.7096386E0,1.3125163E0,2.1497917E0,7.0956364E0,3.376119E0,3.4866452E0,1.4070891E0,1.8410246E0,8.319113E0,7.0806646E0,1.286206E0,1.0804038E1,2.1620136E1,5.1772237E0,1.2844337E0,3.780268E1,7.048721E0,1.3557175E0,1.3429025E0,1.2935885E0,1.4760075E2,1.0204185E1,2.6805398E0,9.563504E0,4.492612E0,7.609707E0,1.7870941E0,5.111065E1,1.3406459E2,4.6965485E1,2.096733E1,2.5175595E2,4.242865E1,8.639273E0,4.563136E1,2.0639471E1,1.6585615E1,4.9209847E0,1.4326792E0,6.731451E1,1.3668512E2,3.378466E0,1.4163537E1,1.2651142E0,7.047116E0,2.1764963E0,5.5331426E0,2.3613207E0,4.734316E0],"tree_param":{"num_deleted":"0","num_feature":"15","num_nodes":"103","size_leaf_vector":"1"}},{"base_weights":[8.644248E-2,7.207145E-1,-4.690083E-2,-3.537992E-2,9.248308E-1,4.4170212E-2,-1.450516E-1,-4.9109012E-1,5.228962E-2,-1.7492278E-2,9.397842E-1,2.383425E-1,-7.0928775E-2,-3.1329483E-1,-1.1382423E-1,-5.7003148E-2,-2.0386662E-2,5.3852206E-1,-8.227611E-2,9.5545344E-2,-2.0901943E-2,9.202213E-3,3.7134895E-1,-1.5084402E-1,7.0877075E-2,-1.9606343E-1,-5.629674E-1,-9.40797E-3,-1.8817505E-1,3.129876E-1,9.079649E-2,-1.7431323E-1,2.3253328E-1,-4.0364876E-2,3.4944892E-2,-8.227912E-2,6.2405103E-1,5.26178E-1,1.953461E-2,-3.1367928E-1,-8.3028466E-2,2.6019631E-2,5.4696923E-1,1.1639742E-2,-3.6685768E-1,-5.9843E-1,4.661305E-3,1.5772822E-1,-1.7310996E-1,-2.9974204E-1,-1.2245931E-1,6.1488744E-2,-2.2667572E-2,-4.2730387E-2,-4.613254E-3,4.2308908E-2,-4.090933E-2,-5.7918455E-2,-3.9369995E-3,2.7870035E-2,9.95043E-2,-1.1605888E-2,6.705411E-2,1.4825292E-2,-5.1605493E-2,-3.4855213E-2,4.6453353E-2,6.275493E-3,-2.2578204E-2,1.8895684E-2,-1.1544077E-2,7.3130794E-2,-4.200911E-2,-1.00722145E-2,9.5974356E-2,-4.1243028E-2,1.5387607E-2,-6.747058E-3,-6.368947E-2,6.322853E-2,6.551768E-3,-2.0174896E-2,5.5327784E-2,-4.2019684E-2,1.1539341E-2,3.560929E-2,-1.5338465E-2],"categories":[],"categories_nodes":[],"categories_segments":[],"categories_sizes":[],"default_left":[0,0,0,0,0,0,0,0,0,0,0,0,0,0,0,0,0,0,0,0,0,0,0,0,0,0,0,0,0,0,0,0,0,0,0,0,0,0,0,0,0,0,0,0,0,0,0,0,0,0,0,0,0,0,0,0,0,0,0,0,0,0,0,0,0,0,0,0,0,0,0,0,0,0,0,0,0,0,0,0,0,0,0,0,0,0,0],"id":12,"left_children":[1,3,5,7,9,11,13,15,17,-1,19,21,23,25,27,-1,-1,29,31,-1,33,35,37,39,41,43,45,47,49,51,-1,53,55,-1,-1,57,59,61,63,65,67,69,71,73,75,77,-1,79,81,83,85,-1,-1,-1,-1,-1,-1,-1,-1,-1,-1,-1,-1,-1,-1,-1,-1,-1,-1,-1,-1,-1,-1,-1,-1,-1,-1,-1,-1,-1,-1,-1,-1,-1,-1,-1,-1],"loss_changes":[1.05340195E2,3.342237E1,9.211115E0,1.9015718E0,2.9665833E0,1.1971642E1,2.5694284E0,5.773866E-2,2.6799657E0,0E0,2.552948E0,6.070759E0,3.8252845E0,2.1449852E0,3.2572746E0,0E0,0E0,4.5439792E-1,9.7981226E-1,0E0,6.625653E-1,4.226226E0,6.85738E0,2.3548155E0,2.5913286E0,1.918802E0,5.4856825E-1,4.833146E0,1.7606268E0,1.284757E0,0E0,8.1226647E-1,1.1221131E0,0E0,0E0,1.3736483E0,9.692707E-1,8.19142E0,2.8043318E0,1.8724904E0,3.2101746E0,2.615972E0,2.1710823E0,2.7942894E0,7.6701546E-1,4.2337227E-1,0E0,3.7846985E0,1.9675167E0,4.557971E0,2.362803E0,0E0,0E0,0E0,0E0,0E0,0E0,0E0,0E0,0E0,0E0,0E0,0E0,0E0,0E0,0E0,0E0,0E0,0E0,0E0,0E0,0E0,0E0,0E0,0E0,0E0,0E0,0E0,0E0,0E0,0E0,0E0,0E0,0E0,0E0,0E0,0E0],"parents":[2147483647,0,0,1,1,2,2,3,3,4,4,5,5,6,6,7,7,8,8,10,10,11,11,12,12,13,13,14,14,17,17,18,18,20,20,21,21,22,22,23,23,24,24,25,25,26,26,27,27,28,28,29,29,31,31,32,32,35,35,36,36,37,37,38,38,39,39,40,40,41,41,42,42,43,43,44,44,45,45,47,47,48,48,49,49,50,50],"right_children":[2,4,6,8,10,12,14,16,18,-1,20,22,24,26,28,-1,-1,30,32,-1,34,36,38,40,42,44,46,48,50,52,-1,54,56,-1,-1,58,60,62,64,66,68,70,72,74,76,78,-1,80,82,84,86,-1,-1,-1,-1,-1,-1,-1,-1,-1,-1,-1,-1,-1,-1,-1,-1,-1,-1,-1,-1,-1,-1,-1,-1,-1,-1,-1,-1,-1,-1,-1,-1,-1,-1,-1,-1],"split_conditions":[2.5E-1,2E0,1.3333334E0,1.9E1,-8E0,1.2E0,6E0,1.2E1,4.6E1,-1.7492278E-2,1.3333334E0,0E0,6E0,6E-1,1E0,-5.7003148E-2,-2.0386662E-2,3.8E1,1E0,9.5545344E-2,7E1,1.3E1,1E0,2.9E1,9.4E1,4.4E1,9.6E1,1.75E0,4E-1,3E1,9.079649E-2,5.8E1,1.4E1,-4.0364876E-2,3.4944892E-2,2E-1,7.2E1,-4E0,7.9E1,4E0,1E0,1E0,9.4E1,3E0,2.2E0,2E0,4.661305E-3,1.4E1,3.2E0,7.7E1,6E0,6.1488744E-2,-2.2667572E-2,-4.2730387E-2,-4.613254E-3,4.2308908E-2,-4.090933E-2,-5.7918455E-2,-3.9369995E-3,2.7870035E-2,9.95043E-2,-1.1605888E-2,6.705411E-2,1.4825292E-2,-5.1605493E-2,-3.4855213E-2,4.6453353E-2,6.275493E-3,-2.2578204E-2,1.8895684E-2,-1.1544077E-2,7.3130794E-2,-4.200911E-2,-1.00722145E-2,9.5974356E-2,-4.1243028E-2,1.5387607E-2,-6.747058E-3,-6.368947E-2,6.322853E-2,6.551768E-3,-2.0174896E-2,5.5327784E-2,-4.2019684E-2,1.1539341E-2,3.560929E-2,-1.5338465E-2],"split_indices":[5,3,4,1,8,5,2,1,1,0,4,9,2,12,9,0,0,0,3,0,1,14,9,1,1,0,0,4,12,0,0,0,13,0,0,4,0,8,1,10,10,10,0,8,4,2,0,1,5,0,1,0,0,0,0,0,0,0,0,0,0,0,0,0,0,0,0,0,0,0,0,0,0,0,0,0,0,0,0,0,0,0,0,0,0,0,0],"split_type":[0,0,0,0,0,0,0,0,0,0,0,0,0,0,0,0,0,0,0,0,0,0,0,0,0,0,0,0,0,0,0,0,0,0,0,0,0,0,0,0,0,0,0,0,0,0,0,0,0,0,0,0,0,0,0,0,0,0,0,0,0,0,0,0,0,0,0,0,0,0,0,0,0,0,0,0,0,0,0,0,0,0,0,0,0,0,0],"sum_hessian":[1.2441106E3,2.1535065E2,1.02876E3,4.5953777E1,1.6939687E2,5.3391077E2,4.9484924E2,6.6718087E0,3.9281967E1,2.1288958E0,1.6726797E2,1.9830275E2,3.35608E2,7.6055145E1,4.187941E2,4.461085E0,2.2107244E0,7.86415E0,3.1417816E1,1.645889E2,2.6790714E0,7.322378E1,1.25078964E2,2.1460356E2,1.2100443E2,5.2969227E1,2.308592E1,1.7464871E2,2.4414537E2,6.030119E0,1.8340311E0,2.4655785E1,6.7620325E0,1.2732724E0,1.4057989E0,6.4494095E1,8.729685E0,8.651096E1,3.8568005E1,6.2031414E1,1.5257214E2,1.11548935E2,9.455498E0,2.4322475E1,2.8646751E1,2.1834011E1,1.2519095E0,8.643597E1,8.821275E1,8.918054E1,1.5496484E2,3.7775059E0,2.252613E0,7.506525E0,1.714926E1,5.4762483E0,1.2857842E0,4.133105E0,6.036099E1,5.4280376E0,3.3016467E0,1.5913155E1,7.059781E1,3.1678019E1,6.8899856E0,5.9899353E1,2.1320622E0,7.5762276E1,7.680987E1,5.1683254E1,5.9865677E1,8.146428E0,1.3090699E0,2.2544447E1,1.7780278E0,2.6532698E1,2.1140552E0,1.6609317E0,2.0173079E1,1.3109839E1,7.3326126E1,8.556161E1,2.651143E0,6.9114296E1,2.0066244E1,8.768144E0,1.461967E2],"tree_param":{"num_deleted":"0","num_feature":"15","num_nodes":"87","size_leaf_vector":"1"}},{"base_weights":[3.3784475E-2,-3.231719E-1,1.4676516E-1,-5.05339E-2,-5.9537184E-1,4.8642904E-2,3.4002337E-1,4.6100232E-1,-1.2881753E-1,3.5093978E-2,-6.068454E-1,3.1014776E-1,-1.9090736E-2,3.0274245E-1,6.602362E-1,2.0075071E-1,8.099725E-1,-2.8267154E-3,-2.4887443E-1,-3.721723E-1,-6.394207E-1,4.564837E-1,1.9558984E-1,-9.028008E-2,1.1005249E-1,3.275928E-1,-6.796658E-2,4.3647638E-1,9.4258237E-1,-1.2041146E-1,7.499479E-2,1.67777E-2,9.7140856E-2,-1.2346048E-1,2.609613E-1,1.0883428E-1,-3.9652565E-1,-6.812702E-2,-6.2027317E-2,-2.1907154E-1,-6.4596313E-1,-1.7100576E-1,5.4775786E-1,6.9241935E-1,1.2905358E-1,-1.849665E-2,-2.1194789E-1,2.7036343E-2,3.789951E-1,-5.0219733E-2,3.3721706E-1,-4.3986467E-1,9.01411E-2,1.8086763E-1,8.414218E-1,3.002031E-2,9.95686E-2,4.4813626E-2,-4.528762E-2,-1.767344E-2,5.1965076E-2,4.2265862E-2,-5.3344846E-2,-5.3514004E-2,2.4879416E-2,-4.754629E-2,3.0168274E-2,-4.845399E-2,9.780642E-3,-3.8652852E-2,4.393946E-3,-2.0817226E-2,-6.529663E-2,-4.305857E-2,2.2624202E-2,4.0344357E-2,1.033651E-1,9.46369E-2,-1.5083444E-2,7.358623E-3,8.331946E-2,-2.4743093E-2,5.540022E-3,-2.8307293E-2,2.5014186E-2,3.1463787E-2,-5.8805556E-3,2.1225078E-2,7.034399E-2,4.406338E-2,2.6726274E-2,-5.6455273E-2,-1.9953828E-3,2.4925616E-2,-4.8508387E-2,-2.2443056E-2,4.68817E-2,2.912964E-2,9.273308E-2],"categories":[],"categories_nodes":[],"categories_segments":[],"categories_sizes":[],"default_left":[0,0,0,0,0,0,0,0,0,0,0,0,0,0,0,0,0,0,0,0,0,0,0,0,0,0,0,0,0,0,0,0,0,0,0,0,0,0,0,0,0,0,0,0,0,0,0,0,0,0,0,0,0,0,0,0,0,0,0,0,0,0,0,0,0,0,0,0,0,0,0,0,0,0,0,0,0,0,0,0,0,0,0,0,0,0,0,0,0,0,0,0,0,0,0,0,0,0,0],"id":13,"left_children":[1,3,5,7,9,11,13,15,17,-1,19,21,23,25,27,29,31,33,35,37,39,41,43,45,47,49,51,53,55,57,-1,-1,-1,59,61,63,65,67,-1,69,71,73,75,77,79,81,83,85,87,-1,89,91,93,95,97,-1,-1,-1,-1,-1,-1,-1,-1,-1,-1,-1,-1,-1,-1,-1,-1,-1,-1,-1,-1,-1,-1,-1,-1,-1,-1,-1,-1,-1,-1,-1,-1,-1,-1,-1,-1,-1,-1,-1,-1,-1,-1,-1,-1],"loss_changes":[4.9980324E1,2.208363E1,1.7830482E1,6.0646405E0,1.8309288E0,1.1083198E1,3.5816193E0,1.6648955E0,1.9784038E0,0E0,8.903465E-1,2.068534E0,4.585318E0,2.6530914E0,1.6220751E0,2.3578207E0,6.9402885E-1,2.0959904E0,3.5811315E0,1.4953556E0,2.1110153E-1,3.287817E0,2.3551452E0,2.8028305E0,3.9482636E0,2.3081112E0,1.1432779E0,1.8992088E0,1.5710926E-1,1.8991681E0,0E0,0E0,0E0,1.6398025E0,2.8809645E0,1.9678519E0,2.7685766E0,7.5788087E-1,0E0,1.7017314E-1,2.4956512E-1,9.062902E-1,3.0137215E0,1.9639359E0,2.533751E0,3.4516041E0,3.986939E0,3.38987E0,2.1089535E0,0E0,1.8018093E0,2.9079676E-1,1.4022897E0,1.6718113E0,7.937908E-2,0E0,0E0,0E0,0E0,0E0,0E0,0E0,0E0,0E0,0E0,0E0,0E0,0E0,0E0,0E0,0E0,0E0,0E0,0E0,0E0,0E0,0E0,0E0,0E0,0E0,0E0,0E0,0E0,0E0,0E0,0E0,0E0,0E0,0E0,0E0,0E0,0E0,0E0,0E0,0E0,0E0,0E0,0E0,0E0],"parents":[2147483647,0,0,1,1,2,2,3,3,4,4,5,5,6,6,7,7,8,8,10,10,11,11,12,12,13,13,14,14,15,15,16,16,17,17,18,18,19,19,20,20,21,21,22,22,23,23,24,24,25,25,26,26,27,27,28,28,29,29,33,33,34,34,35,35,36,36,37,37,39,39,40,40,41,41,42,42,43,43,44,44,45,45,46,46,47,47,48,48,50,50,51,51,52,52,53,53,54,54],"right_children":[2,4,6,8,10,12,14,16,18,-1,20,22,24,26,28,30,32,34,36,38,40,42,44,46,48,50,52,54,56,58,-1,-1,-1,60,62,64,66,68,-1,70,72,74,76,78,80,82,84,86,88,-1,90,92,94,96,98,-1,-1,-1,-1,-1,-1,-1,-1,-1,-1,-1,-1,-1,-1,-1,-1,-1,-1,-1,-1,-1,-1,-1,-1,-1,-1,-1,-1,-1,-1,-1,-1,-1,-1,-1,-1,-1,-1,-1,-1,-1,-1,-1,-1],"split_conditions":[6.666667E-1,5E0,1.6666666E0,-4E0,-6E0,4E0,3E0,-3E0,5.9E1,3.5093978E-2,0E0,-1E0,1E0,2.6E0,8E0,2E-1,2.3E1,6E-1,1E0,4.2E1,4E0,1.4E1,1.2E1,3E0,1E0,3E0,0E0,1E0,2E0,3.9E1,7.499479E-2,1.67777E-2,9.7140856E-2,2E0,1.1E1,6.9E1,1E0,-1E0,-6.2027317E-2,-2E0,-2E0,2E0,1.5E0,3E0,1.6E0,1E0,8.5E1,-1E0,1E1,-5.0219733E-2,7E0,1E1,4E0,3.2E0,1.2E1,3.002031E-2,9.95686E-2,4.4813626E-2,-4.528762E-2,-1.767344E-2,5.1965076E-2,4.2265862E-2,-5.3344846E-2,-5.3514004E-2,2.4879416E-2,-4.754629E-2,3.0168274E-2,-4.845399E-2,9.780642E-3,-3.8652852E-2,4.393946E-3,-2.0817226E-2,-6.529663E-2,-4.305857E-2,2.2624202E-2,4.0344357E-2,1.033651E-1,9.46369E-2,-1.5083444E-2,7.358623E-3,8.331946E-2,-2.4743093E-2,5.540022E-3,-2.8307293E-2,2.5014186E-2,3.1463787E-2,-5.8805556E-3,2.1225078E-2,7.034399E-2,4.406338E-2,2.6726274E-2,-5.6455273E-2,-1.9953828E-3,2.4925616E-2,-4.8508387E-2,-2.2443056E-2,4.68817E-2,2.912964E-2,9.273308E-2],"split_indices":[4,2,4,8,8,3,4,7,0,0,7,10,9,5,14,12,1,4,2,1,3,0,1,8,6,0,9,6,3,0,0,0,0,10,3,0,9,9,0,8,8,3,4,3,5,5,1,8,2,0,13,2,10,4,2,0,0,0,0,0,0,0,0,0,0,0,0,0,0,0,0,0,0,0,0,0,0,0,0,0,0,0,0,0,0,0,0,0,0,0,0,0,0,0,0,0,0,0,0],"split_type":[0,0,0,0,0,0,0,0,0,0,0,0,0,0,0,0,0,0,0,0,0,0,0,0,0,0,0,0,0,0,0,0,0,0,0,0,0,0,0,0,0,0,0,0,0,0,0,0,0,0,0,0,0,0,0,0,0,0,0,0,0,0,0,0,0,0,0,0,0,0,0,0,0,0,0,0,0,0,0,0,0,0,0,0,0,0,0,0,0,0,0,0,0,0,0,0,0,0,0],"sum_hessian":[1.2371332E3,2.9698013E2,9.401531E2,1.4896301E2,1.480171E2,6.243871E2,3.15766E2,1.9122189E1,1.2984082E2,1.418711E0,1.465984E2,1.27717735E2,4.9666934E2,2.8457916E2,3.1186817E1,1.1855772E1,7.2664165E0,6.385416E1,6.5986664E1,1.9383577E1,1.2721482E2,5.476999E1,7.2947754E1,3.2036902E2,1.7630035E2,2.6680997E2,1.7769201E1,1.881879E1,1.2368027E1,7.9736514E0,3.8821204E0,1.8693576E0,5.397059E0,4.4181393E1,1.9672768E1,1.9356163E1,4.66305E1,9.282524E0,1.0101053E1,2.4781728E0,1.2473665E2,6.844189E0,4.7925797E1,7.5045156E0,6.544324E1,2.0221509E2,1.1815392E2,1.3555751E2,4.0742832E1,2.4722931E0,2.6433768E2,4.769175E0,1.3000027E1,1.2423501E1,6.395289E0,1.4523622E0,1.0915665E1,2.8138194E0,5.159832E0,4.14712E1,2.7101943E0,1.6734516E1,2.938251E0,2.9516582E0,1.6404505E1,4.2180706E1,4.449793E0,2.0978491E0,7.184675E0,1.2271973E0,1.2509755E0,2.4477048E0,1.2228895E2,4.088593E0,2.7555962E0,3.8362217E1,9.563581E0,5.6736026E0,1.8309133E0,6.168836E1,3.7548766E0,4.8771496E1,1.5344359E2,1.0272921E2,1.5424714E1,3.054738E1,1.0501014E2,2.800448E1,1.2738353E1,1.0452085E2,1.5981683E2,3.4116602E0,1.3575147E0,1.0627106E1,2.3729215E0,5.251888E0,7.171613E0,1.4568679E0,4.9384212E0],"tree_param":{"num_deleted":"0","num_feature":"15","num_nodes":"99","size_leaf_vector":"1"}},{"base_weights":[-1.2510778E-1,-4.523389E-1,-2.5786428E-2,-5.4898743E-2,-5.1180893E-1,5.6466162E-2,-2.4725632E-1,-1.421231E-1,5.177096E-1,-3.124286E-1,-6.169943E-1,-1.3554356E-1,1.2578923E-1,-2.7090865E-1,1.4120762E-1,-3.8814542E-1,5.2620918E-2,8.511375E-2,-9.297665E-3,-1.0370292E-1,-4.812835E-1,1.7647097E-3,-6.2758243E-1,6.795753E-1,-1.5925643E-1,9.016054E-2,4.7791854E-1,-2.9440698E-1,4.7958385E-2,-3.3864352E-1,3.1380585E-1,5.187829E-2,-6.1029673E-2,-2.851603E-1,4.39358E-1,-1.6229615E-1,1.6991109E-1,-5.317902E-1,2.531536E-1,-4.0020306E-2,3.834298E-2,-6.490904E-1,-3.5646406E-1,9.108474E-2,1.0827901E-4,-1.8897073E-1,2.9870373E-1,2.0936131E-1,-6.312763E-3,9.704275E-2,3.8635615E-1,-3.198417E-1,-1.773414E-3,3.5014477E-1,-2.8671116E-1,1.4041937E-3,-4.9074635E-2,9.8292634E-2,7.291585E-2,-3.4188773E-2,7.520891E-2,5.3276986E-2,-5.110845E-2,6.1811935E-2,-3.9990522E-2,-3.7910488E-2,-4.404669E-3,3.4930557E-2,-3.9779466E-2,-5.8124375E-2,-2.301851E-2,-1.254968E-3,4.108391E-2,2.5971283E-3,-6.5545164E-2,-5.3185202E-2,2.5566904E-2,-1.2369437E-2,-4.100372E-2,7.1228705E-2,-5.9403307E-3,2.492383E-2,-2.1615284E-2,-2.373915E-2,5.060676E-3,1.4569688E-2,5.7451434E-2,-1.7687924E-2,-3.8916722E-2,-1.1063951E-2,7.6970465E-2,-3.907034E-2,5.111459E-2,-4.459411E-2,1.2613045E-2,7.331299E-2,-1.2813622E-2],"categories":[],"categories_nodes":[],"categories_segments":[],"categories_sizes":[],"default_left":[0,0,0,0,0,0,0,0,0,0,0,0,0,0,0,0,0,0,0,0,0,0,0,0,0,0,0,0,0,0,0,0,0,0,0,0,0,0,0,0,0,0,0,0,0,0,0,0,0,0,0,0,0,0,0,0,0,0,0,0,0,0,0,0,0,0,0,0,0,0,0,0,0,0,0,0,0,0,0,0,0,0,0,0,0,0,0,0,0,0,0,0,0,0,0,0,0],"id":14,"left_children":[1,3,5,7,9,11,13,15,17,19,21,23,25,27,29,31,33,-1,-1,35,37,39,41,43,45,47,49,51,53,55,57,59,-1,61,63,65,67,69,71,-1,-1,73,75,-1,-1,77,79,81,83,-1,85,87,89,91,93,-1,-1,95,-1,-1,-1,-1,-1,-1,-1,-1,-1,-1,-1,-1,-1,-1,-1,-1,-1,-1,-1,-1,-1,-1,-1,-1,-1,-1,-1,-1,-1,-1,-1,-1,-1,-1,-1,-1,-1,-1,-1],"loss_changes":[3.8815735E1,6.545246E0,1.672832E1,1.9374458E0,4.8780746E0,8.933503E0,2.3230495E0,1.6096244E0,1.127479E0,2.9645958E0,1.0313911E0,3.552163E0,6.1382113E0,1.7729931E0,1.3427172E0,1.4759161E0,2.6588864E0,0E0,0E0,6.612309E-1,1.8783045E0,7.1233773E-1,6.702347E-1,8.191695E-1,2.4235468E0,5.160736E0,1.6560783E0,1.6277447E0,1.8167517E0,2.445516E-1,9.5763266E-1,1.8779131E0,0E0,2.297425E0,1.6628155E0,8.310025E-1,8.986727E-1,5.2703285E-1,1.6026595E-1,0E0,0E0,6.269417E-1,1.594208E0,0E0,0E0,2.3153377E0,1.6694689E0,3.4597015E0,3.286275E0,0E0,1.7112379E0,1.9259338E0,1.6389111E0,1.3171817E0,6.217591E-1,0E0,0E0,1.3483273E0,0E0,0E0,0E0,0E0,0E0,0E0,0E0,0E0,0E0,0E0,0E0,0E0,0E0,0E0,0E0,0E0,0E0,0E0,0E0,0E0,0E0,0E0,0E0,0E0,0E0,0E0,0E0,0E0,0E0,0E0,0E0,0E0,0E0,0E0,0E0,0E0,0E0,0E0,0E0],"parents":[2147483647,0,0,1,1,2,2,3,3,4,4,5,5,6,6,7,7,8,8,9,9,10,10,11,11,12,12,13,13,14,14,15,15,16,16,19,19,20,20,21,21,22,22,23,23,24,24,25,25,26,26,27,27,28,28,29,29,30,30,31,31,33,33,34,34,35,35,36,36,37,37,38,38,41,41,42,42,45,45,46,46,47,47,48,48,50,50,51,51,52,52,53,53,54,54,57,57],"right_children":[2,4,6,8,10,12,14,16,18,20,22,24,26,28,30,32,34,-1,-1,36,38,40,42,44,46,48,50,52,54,56,58,60,-1,62,64,66,68,70,72,-1,-1,74,76,-1,-1,78,80,82,84,-1,86,88,90,92,94,-1,-1,96,-1,-1,-1,-1,-1,-1,-1,-1,-1,-1,-1,-1,-1,-1,-1,-1,-1,-1,-1,-1,-1,-1,-1,-1,-1,-1,-1,-1,-1,-1,-1,-1,-1,-1,-1,-1,-1,-1,-1],"split_conditions":[7.5E-1,0E0,9E0,2.5E-1,4E0,1.2E0,9E0,1E0,5E0,2.5E-1,-6E0,-4E0,8E0,9.1E1,3.4E1,2E0,2E0,8.511375E-2,-9.297665E-3,1.2E0,1E0,-8E0,9E0,7E0,6E-1,0E0,-6E0,2.25E0,9.6E1,3E0,1.2E1,-2E0,-6.1029673E-2,5E0,5E0,0E0,7E0,1.4E1,1.5E0,-4.0020306E-2,3.834298E-2,-6E0,8E0,9.108474E-2,1.0827901E-4,7E0,7E0,9.4E1,-1E0,9.704275E-2,4.8E1,2.9E1,1.4E1,-3E0,9E1,1.4041937E-3,-4.9074635E-2,3E0,7.291585E-2,-3.4188773E-2,7.520891E-2,5.3276986E-2,-5.110845E-2,6.1811935E-2,-3.9990522E-2,-3.7910488E-2,-4.404669E-3,3.4930557E-2,-3.9779466E-2,-5.8124375E-2,-2.301851E-2,-1.254968E-3,4.108391E-2,2.5971283E-3,-6.5545164E-2,-5.3185202E-2,2.5566904E-2,-1.2369437E-2,-4.100372E-2,7.1228705E-2,-5.9403307E-3,2.492383E-2,-2.1615284E-2,-2.373915E-2,5.060676E-3,1.4569688E-2,5.7451434E-2,-1.7687924E-2,-3.8916722E-2,-1.1063951E-2,7.6970465E-2,-3.907034E-2,5.111459E-2,-4.459411E-2,1.2613045E-2,7.331299E-2,-1.2813622E-2],"split_indices":[5,9,2,12,3,5,8,4,2,11,8,9,8,0,0,3,3,0,0,4,10,8,2,13,12,9,7,5,0,5,2,7,0,13,3,8,2,13,4,0,0,7,14,0,0,3,14,0,8,0,0,0,14,8,1,0,0,7,0,0,0,0,0,0,0,0,0,0,0,0,0,0,0,0,0,0,0,0,0,0,0,0,0,0,0,0,0,0,0,0,0,0,0,0,0,0,0],"split_type":[0,0,0,0,0,0,0,0,0,0,0,0,0,0,0,0,0,0,0,0,0,0,0,0,0,0,0,0,0,0,0,0,0,0,0,0,0,0,0,0,0,0,0,0,0,0,0,0,0,0,0,0,0,0,0,0,0,0,0,0,0,0,0,0,0,0,0,0,0,0,0,0,0,0,0,0,0,0,0,0,0,0,0,0,0,0,0,0,0,0,0,0,0,0,0,0,0],"sum_hessian":[1.193651E3,2.771101E2,9.1654083E2,3.6318104E1,2.4079202E2,6.6887115E2,2.4766968E2,3.216957E1,4.148533E0,8.453159E1,1.5626042E2,1.771763E2,4.9169485E2,2.3374059E2,1.392909E1,1.3774713E1,1.8394857E1,2.4287329E0,1.7197999E0,3.8524574E1,4.600702E1,2.6429327E0,1.536175E2,4.2267075E0,1.7294958E2,4.476567E2,4.4038155E1,2.177692E2,1.5971398E1,3.4302905E0,1.0498799E1,4.878383E0,8.89633E0,9.9591E0,8.435757E0,3.206487E1,6.459706E0,4.330489E1,2.702127E0,1.2635727E0,1.3793598E0,1.4103497E2,1.258252E1,2.8968318E0,1.329876E0,1.6296324E2,9.986349E0,1.9971817E2,2.4793852E2,5.3989525E0,3.8639202E1,2.0026945E2,1.749973E1,8.368714E0,7.602684E0,1.3071179E0,2.1231725E0,7.7264433E0,2.7723556E0,3.4499998E0,1.4283834E0,1.8615205E0,8.097579E0,7.171697E0,1.2640598E0,1.0537865E1,2.1527004E1,5.200925E0,1.2587807E0,3.640798E1,6.8969083E0,1.3491669E0,1.3529601E0,1.2878045E0,1.3974718E2,9.882221E0,2.7002978E0,1.2701721E2,3.594603E1,4.175252E0,5.811097E0,1.8298412E2,1.673405E1,4.8375538E1,1.9956299E2,1.7732805E1,2.0906397E1,6.656048E1,1.3370898E2,1.6086317E1,1.4134115E0,1.239309E0,7.1294055E0,5.4287E0,2.1739843E0,1.4429787E0,6.2834644E0],"tree_param":{"num_deleted":"0","num_feature":"15","num_nodes":"97","size_leaf_vector":"1"}},{"base_weights":[7.9513036E-2,6.679617E-1,-4.361735E-2,-3.4890313E-2,8.594561E-1,2.9507894E-2,-1.5442188E-1,-4.8029765E-1,4.947071E-2,-1.6655754E-2,8.734392E-1,1.0580167E-1,-2.007039E-1,-1.6479053E-1,4.3783778E-1,-5.5876013E-2,-1.9852867E-2,5.113891E-1,-7.9930544E-2,8.8794875E-1,-1.5999338E-2,-4.0062327E-2,2.366036E-1,-3.2784158E-1,-7.3713146E-2,-1.703687E-1,8.6555846E-2,7.425689E-1,-1.9147353E-2,2.9469454E-1,8.663442E-2,-4.3653625E-1,2.33782E-3,3.183021E-2,8.9104585E-2,-3.947295E-2,3.454863E-2,3.3260584E-1,-6.7838974E-2,-3.963298E-2,3.536749E-1,-4.966836E-1,-1.9582929E-1,1.8666426E-2,-3.16616E-1,-1.1959218E-1,-2.8001925E-1,9.652937E-2,2.1660006E-2,5.780955E-2,-2.203886E-2,-5.706504E-2,3.9879787E-3,1.3087645E-2,-4.393817E-2,-1.4199405E-2,9.516098E-2,5.2816696E-2,-8.5170055E-3,-1.6117856E-2,2.7986033E-2,5.7353117E-2,-4.310154E-3,-5.7561304E-2,1.799087E-2,3.6182627E-2,-2.5002835E-2,-5.7623006E-2,8.00332E-3,2.1583471E-2,-4.9341526E-2,-5.4205846E-2,-1.0250817E-2,-3.4761943E-2,2.7914557E-3],"categories":[],"categories_nodes":[],"categories_segments":[],"categories_sizes":[],"default_left":[0,0,0,0,0,0,0,0,0,0,0,0,0,0,0,0,0,0,0,0,0,0,0,0,0,0,0,0,0,0,0,0,0,0,0,0,0,0,0,0,0,0,0,0,0,0,0,0,0,0,0,0,0,0,0,0,0,0,0,0,0,0,0,0,0,0,0,0,0,0,0,0,0,0,0],"id":15,"left_children":[1,3,5,7,9,11,13,15,17,-1,19,21,23,25,27,-1,-1,29,31,33,35,37,39,41,43,45,-1,47,-1,49,-1,51,53,-1,-1,-1,-1,55,57,59,61,63,65,67,69,71,73,-1,-1,-1,-1,-1,-1,-1,-1,-1,-1,-1,-1,-1,-1,-1,-1,-1,-1,-1,-1,-1,-1,-1,-1,-1,-1,-1,-1],"loss_changes":[8.968356E1,2.885598E1,8.303186E0,1.782983E0,2.560814E0,1.08728485E1,2.5736637E0,5.596292E-2,2.4479291E0,0E0,2.1597214E0,8.87576E0,2.4643946E0,2.452589E0,1.5386965E0,0E0,0E0,4.329183E-1,9.492742E-1,5.0201416E-3,6.361943E-1,2.3056743E0,7.941946E0,1.6130552E0,1.765199E0,2.192154E0,0E0,3.8969684E-1,0E0,1.159653E0,0E0,4.10228E-1,1.6051668E0,0E0,0E0,0E0,0E0,4.679409E0,2.1737823E0,2.913682E0,1.5053219E1,1.8668652E0,1.441925E0,2.1541922E0,2.1452818E0,1.9289873E0,2.627921E0,0E0,0E0,0E0,0E0,0E0,0E0,0E0,0E0,0E0,0E0,0E0,0E0,0E0,0E0,0E0,0E0,0E0,0E0,0E0,0E0,0E0,0E0,0E0,0E0,0E0,0E0,0E0,0E0],"parents":[2147483647,0,0,1,1,2,2,3,3,4,4,5,5,6,6,7,7,8,8,10,10,11,11,12,12,13,13,14,14,17,17,18,18,19,19,20,20,21,21,22,22,23,23,24,24,25,25,27,27,29,29,31,31,32,32,37,37,38,38,39,39,40,40,41,41,42,42,43,43,44,44,45,45,46,46],"right_children":[2,4,6,8,10,12,14,16,18,-1,20,22,24,26,28,-1,-1,30,32,34,36,38,40,42,44,46,-1,48,-1,50,-1,52,54,-1,-1,-1,-1,56,58,60,62,64,66,68,70,72,74,-1,-1,-1,-1,-1,-1,-1,-1,-1,-1,-1,-1,-1,-1,-1,-1,-1,-1,-1,-1,-1,-1,-1,-1,-1,-1,-1,-1],"split_conditions":[2.5E-1,2E0,1E0,1.9E1,-8E0,1.6666666E0,1E2,1.2E1,4.6E1,-1.6655754E-2,1.3333334E0,0E0,4.9E1,1E1,8.5E1,-5.5876013E-2,-1.9852867E-2,3.8E1,-1E0,0E0,6.2E1,9E0,0E0,7E0,2.4E0,6.8E1,8.6555846E-2,7E0,-1.9147353E-2,3E1,8.663442E-2,9.9E1,9.3E1,3.183021E-2,8.9104585E-2,-3.947295E-2,3.454863E-2,1.25E0,3E0,8E0,1E0,3E0,7.5E-1,2.5E-1,3E0,-8E0,5E0,9.652937E-2,2.1660006E-2,5.780955E-2,-2.203886E-2,-5.706504E-2,3.9879787E-3,1.3087645E-2,-4.393817E-2,-1.4199405E-2,9.516098E-2,5.2816696E-2,-8.5170055E-3,-1.6117856E-2,2.7986033E-2,5.7353117E-2,-4.310154E-3,-5.7561304E-2,1.799087E-2,3.6182627E-2,-2.5002835E-2,-5.7623006E-2,8.00332E-3,2.1583471E-2,-4.9341526E-2,-5.4205846E-2,-1.0250817E-2,-3.4761943E-2,2.7914557E-3],"split_indices":[5,3,10,1,8,4,1,1,1,0,4,10,1,10,0,0,0,0,7,10,0,0,9,13,4,1,0,3,0,0,0,1,1,0,0,0,0,4,14,13,9,4,5,11,3,7,7,0,0,0,0,0,0,0,0,0,0,0,0,0,0,0,0,0,0,0,0,0,0,0,0,0,0,0,0],"split_type":[0,0,0,0,0,0,0,0,0,0,0,0,0,0,0,0,0,0,0,0,0,0,0,0,0,0,0,0,0,0,0,0,0,0,0,0,0,0,0,0,0,0,0,0,0,0,0,0,0,0,0,0,0,0,0,0,0,0,0,0,0,0,0,0,0,0,0,0,0,0,0,0,0,0,0],"sum_hessian":[1.2363652E3,2.1317279E2,1.02319244E3,4.5818928E1,1.6735385E2,6.168422E2,4.0635022E2,6.5488906E0,3.927004E1,2.1034153E0,1.6525044E2,4.6370697E2,1.5313527E2,4.00068E2,6.2822065E0,4.3535433E0,2.1953475E0,7.947655E0,3.1322384E1,1.625996E2,2.6508443E0,2.1955904E2,2.4414792E2,7.573302E1,7.740226E1,3.987439E2,1.3240976E0,4.111383E0,2.1708236E0,6.071394E0,1.876261E0,5.064262E0,2.6258121E1,1.4403906E0,1.6115921E2,1.2496333E0,1.401211E0,1.4468373E1,2.0509067E2,7.28695E1,1.7127843E2,3.2018883E1,4.3714134E1,5.6744595E1,2.0657661E1,2.7396707E2,1.2477685E2,2.3015213E0,1.8098615E0,3.8375971E0,2.233797E0,3.7974558E0,1.2668062E0,2.088452E1,5.373601E0,8.625601E0,5.842772E0,4.962373E0,2.001283E2,5.3146404E1,1.9723093E1,1.099236E2,6.1354828E1,2.8807522E1,3.211359E0,3.3694897E0,4.0344646E1,4.521614E0,5.222298E1,5.09443E0,1.5563232E1,9.4539385E0,2.6451312E2,1.0221E2,2.2566849E1],"tree_param":{"num_deleted":"0","num_feature":"15","num_nodes":"75","size_leaf_vector":"1"}},{"base_weights":[3.1873386E-2,-3.0643278E-1,1.3559157E-1,-4.6590526E-2,-5.7759666E-1,4.683241E-2,3.1696925E-1,4.3944797E-1,-1.2182088E-1,3.3428986E-2,-5.893179E-1,1.9719125E-1,-1.3430068E-2,4.8736995E-1,2.2354542E-1,1.915914E-1,7.692128E-1,7.6237045E-2,-1.3755155E-1,-3.588241E-1,-6.224679E-1,3.3962172E-1,1.0640233E-1,1.5066789E-2,-3.1802723E-1,5.9302384E-1,1.8262914E-1,1.5923153E-1,6.465816E-1,-1.1829102E-1,7.148888E-2,1.6144358E-2,9.207808E-2,-2.0130342E-2,-2.5076535E-1,-6.420615E-2,-6.0643494E-2,-2.0741436E-1,-6.2921715E-1,1.14027485E-1,4.6128818E-1,2.6303666E-2,4.7200584E-1,-2.0746216E-2,2.0076634E-1,-5.412308E-1,-1.6209921E-1,3.7093416E-1,7.332644E-1,3.36405E-1,-3.9689043E-1,9.845922E-2,3.7856433E-1,-3.1993425E-1,7.7374786E-1,4.2291876E-2,-4.4167664E-2,-3.127378E-2,8.017784E-3,-5.1080253E-2,-1.0358888E-2,-4.7619842E-2,9.78019E-3,5.0489716E-3,-3.75476E-2,-1.9363629E-2,-6.3651346E-2,7.183394E-2,-1.7586624E-2,-2.8087327E-2,5.1448446E-2,1.41744455E-2,-4.0529862E-2,6.439736E-2,-2.5021061E-3,3.1034842E-2,-4.372715E-3,-5.1886406E-2,2.642343E-2,4.443607E-3,-5.9569348E-2,4.6502087E-2,-2.4281079E-2,-3.399178E-4,9.175995E-2,4.2764295E-2,8.742161E-2,-2.5300404E-2,4.6193417E-2,-6.6565804E-2,3.6245923E-2,2.4186527E-2,1.2387614E-3,5.4608613E-2,-2.5973177E-2,-4.930332E-2,-1.3207103E-4,8.597833E-2,-1.641682E-2],"categories":[],"categories_nodes":[],"categories_segments":[],"categories_sizes":[],"default_left":[0,0,0,0,0,0,0,0,0,0,0,0,0,0,0,0,0,0,0,0,0,0,0,0,0,0,0,0,0,0,0,0,0,0,0,0,0,0,0,0,0,0,0,0,0,0,0,0,0,0,0,0,0,0,0,0,0,0,0,0,0,0,0,0,0,0,0,0,0,0,0,0,0,0,0,0,0,0,0,0,0,0,0,0,0,0,0,0,0,0,0,0,0,0,0,0,0,0,0],"id":16,"left_children":[1,3,5,7,9,11,13,15,17,-1,19,21,23,25,27,29,31,-1,33,35,37,39,41,43,45,47,49,51,53,55,-1,-1,-1,57,59,61,-1,63,65,67,69,71,73,75,77,79,81,83,85,87,89,91,93,95,97,-1,-1,-1,-1,-1,-1,-1,-1,-1,-1,-1,-1,-1,-1,-1,-1,-1,-1,-1,-1,-1,-1,-1,-1,-1,-1,-1,-1,-1,-1,-1,-1,-1,-1,-1,-1,-1,-1,-1,-1,-1,-1,-1,-1],"loss_changes":[4.3273586E1,2.0364708E1,1.5177357E1,5.497194E0,1.7097435E0,5.7544413E0,4.8243694E0,1.5013659E0,1.9089193E0,0E0,8.4710693E-1,2.3132815E0,3.9463968E0,3.3976173E0,5.3929424E0,2.167985E0,6.1814547E-1,0E0,1.7003319E0,1.4183578E0,2.0878601E-1,1.8761721E0,3.279593E0,2.772116E0,1.2659311E0,2.2325058E0,2.760484E0,2.317646E0,3.48382E0,1.749266E0,0E0,0E0,0E0,1.9052817E0,2.4433455E0,7.301021E-1,0E0,1.67617E-1,2.5395584E-1,4.6722193E0,1.9338713E0,4.704667E0,1.7378306E0,2.6753109E0,3.2147377E0,5.230675E-1,1.344169E0,6.786192E0,1.7052727E0,1.8805661E0,1.596515E0,1.7212478E0,4.2029357E0,2.0721799E-1,2.0424423E0,0E0,0E0,0E0,0E0,0E0,0E0,0E0,0E0,0E0,0E0,0E0,0E0,0E0,0E0,0E0,0E0,0E0,0E0,0E0,0E0,0E0,0E0,0E0,0E0,0E0,0E0,0E0,0E0,0E0,0E0,0E0,0E0,0E0,0E0,0E0,0E0,0E0,0E0,0E0,0E0,0E0,0E0,0E0,0E0],"parents":[2147483647,0,0,1,1,2,2,3,3,4,4,5,5,6,6,7,7,8,8,10,10,11,11,12,12,13,13,14,14,15,15,16,16,18,18,19,19,20,20,21,21,22,22,23,23,24,24,25,25,26,26,27,27,28,28,29,29,33,33,34,34,35,35,37,37,38,38,39,39,40,40,41,41,42,42,43,43,44,44,45,45,46,46,47,47,48,48,49,49,50,50,51,51,52,52,53,53,54,54],"right_children":[2,4,6,8,10,12,14,16,18,-1,20,22,24,26,28,30,32,-1,34,36,38,40,42,44,46,48,50,52,54,56,-1,-1,-1,58,60,62,-1,64,66,68,70,72,74,76,78,80,82,84,86,88,90,92,94,96,98,-1,-1,-1,-1,-1,-1,-1,-1,-1,-1,-1,-1,-1,-1,-1,-1,-1,-1,-1,-1,-1,-1,-1,-1,-1,-1,-1,-1,-1,-1,-1,-1,-1,-1,-1,-1,-1,-1,-1,-1,-1,-1,-1,-1],"split_conditions":[6.666667E-1,5E0,6E-1,-4E0,-6E0,-2E0,0E0,-3E0,3E0,3.3428986E-2,0E0,7E0,8E0,3E0,2.8E0,2E-1,2.3E1,7.6237045E-2,5.3E1,4.2E1,4E0,0E0,8.7E1,1.8E0,1.3E1,1E0,8E0,3E0,1.3E1,3.9E1,7.148888E-2,1.6144358E-2,9.207808E-2,-7E0,6.9E1,-1E0,-6.0643494E-2,2.5E-1,-2E0,3.4E1,3E0,6.9E1,1.2E0,4E0,2E-1,-2E0,1E0,1E0,1.75E0,1.5E1,8E0,3.9E1,1.3E1,5E-1,3E0,4.2291876E-2,-4.4167664E-2,-3.127378E-2,8.017784E-3,-5.1080253E-2,-1.0358888E-2,-4.7619842E-2,9.78019E-3,5.0489716E-3,-3.75476E-2,-1.9363629E-2,-6.3651346E-2,7.183394E-2,-1.7586624E-2,-2.8087327E-2,5.1448446E-2,1.41744455E-2,-4.0529862E-2,6.439736E-2,-2.5021061E-3,3.1034842E-2,-4.372715E-3,-5.1886406E-2,2.642343E-2,4.443607E-3,-5.9569348E-2,4.6502087E-2,-2.4281079E-2,-3.399178E-4,9.175995E-2,4.2764295E-2,8.742161E-2,-2.5300404E-2,4.6193417E-2,-6.6565804E-2,3.6245923E-2,2.4186527E-2,1.2387614E-3,5.4608613E-2,-2.5973177E-2,-4.930332E-2,-1.3207103E-4,8.597833E-2,-1.641682E-2],"split_indices":[4,2,11,8,8,8,10,7,0,0,7,13,8,9,4,12,1,0,1,1,3,9,1,4,3,9,3,9,1,0,0,0,0,7,0,10,0,5,8,0,14,0,5,3,12,9,10,6,4,1,13,1,14,12,5,0,0,0,0,0,0,0,0,0,0,0,0,0,0,0,0,0,0,0,0,0,0,0,0,0,0,0,0,0,0,0,0,0,0,0,0,0,0,0,0,0,0,0,0],"split_type":[0,0,0,0,0,0,0,0,0,0,0,0,0,0,0,0,0,0,0,0,0,0,0,0,0,0,0,0,0,0,0,0,0,0,0,0,0,0,0,0,0,0,0,0,0,0,0,0,0,0,0,0,0,0,0,0,0,0,0,0,0,0,0,0,0,0,0,0,0,0,0,0,0,0,0,0,0,0,0,0,0,0,0,0,0,0,0,0,0,0,0,0,0,0,0,0,0,0,0],"sum_hessian":[1.2310856E3,2.884077E2,9.4267786E2,1.4787685E2,1.4053088E2,6.3378595E2,3.088919E2,1.9171936E1,1.2870491E2,1.4341857E0,1.390967E2,1.8068723E2,4.5309875E2,1.07889565E2,2.0100233E2,1.1847875E1,7.324061E0,1.4200937E0,1.2728481E2,1.8976461E1,1.2012023E2,6.9271965E1,1.1141526E2,4.1520447E2,3.7894287E1,7.941154E1,2.8478031E1,1.7567152E2,2.533081E1,7.9274225E0,3.920452E0,1.8741411E0,5.4499197E0,6.305956E1,6.422526E1,9.240739E0,9.735723E0,2.429772E0,1.1769046E2,2.4948887E1,4.4323082E1,9.227174E1,1.9143513E1,3.48821E2,6.6383446E1,1.4568762E1,2.3325525E1,3.2147175E1,4.7264362E1,2.2837578E1,5.6404543E0,1.3869193E2,3.697959E1,2.7690458E0,2.2561766E1,2.8499818E0,5.0774407E0,1.5557944E1,4.7501614E1,2.2319536E1,4.190572E1,2.060772E0,7.179967E0,1.2346613E0,1.1951106E0,2.3926108E0,1.15297844E2,7.6090775E0,1.733981E1,2.6782231E0,4.1644855E1,7.332979E1,1.8941954E1,1.4002945E1,5.140568E0,2.182829E1,3.2699274E2,4.7986636E0,6.158478E1,1.2551838E0,1.3313578E1,2.1167893E0,2.1208736E1,1.9671051E1,1.2476123E1,1.6191273E1,3.107309E1,3.8315287E0,1.9006048E1,4.2570715E0,1.3833827E0,5.1341133E1,8.73508E1,2.9406322E1,7.5732713E0,1.439532E0,1.3295138E0,2.0742365E1,1.8194007E0],"tree_param":{"num_deleted":"0","num_feature":"15","num_nodes":"99","size_leaf_vector":"1"}},{"base_weights":[-1.16630785E-1,-4.3380526E-1,-2.3573523E-2,-4.9380533E-2,-4.930585E-1,5.3173818E-2,-2.3355427E-1,-1.3409463E-1,4.952439E-1,-2.9761016E-1,-5.995867E-1,7.3549026E-3,3.0361903E-1,-2.5649312E-1,1.3736679E-1,-3.7504616E-1,5.3706504E-2,8.127882E-2,-9.143899E-3,-9.727091E-2,-4.637603E-1,4.09813E-3,-6.1044616E-1,2.662873E-1,-2.8134862E-2,5.6915915E-1,1.0209079E-1,-1.8774952E-1,-3.6675295E-1,-3.2654127E-1,3.015298E-1,5.155823E-2,-5.9669774E-2,-2.6855704E-1,4.1145808E-1,-1.5496278E-1,1.6948514E-1,-5.144425E-1,2.439167E-1,-3.9263174E-2,3.7537597E-2,-6.324229E-1,-3.4307396E-1,3.065656E-1,-5.3740468E-2,-1.1030392E-1,1.146701E-1,7.168753E-1,2.7363735E-1,-1.5716082E-1,3.4259987E-1,-5.8954763E-1,-1.4268996E-1,-1.20200634E-1,-4.811112E-1,2.3882098E-3,-4.8066042E-2,4.401387E-1,-2.0265881E-2,-3.3260334E-2,7.212394E-2,5.2036654E-2,-4.944813E-2,5.8116436E-2,-3.947018E-2,-3.6107562E-2,-4.516074E-3,3.479365E-2,-3.9645378E-2,-5.487379E-2,-1.1236589E-2,-2.0939426E-3,4.06034E-2,3.3220507E-3,-6.390633E-2,-5.1692605E-2,2.4286497E-2,5.4347254E-2,1.8810278E-2,-1.8898968E-2,5.910095E-3,5.603078E-2,4.9301567E-3,8.196434E-2,9.459092E-3,7.0723005E-2,6.7799217E-3,-2.6897673E-2,3.5256922E-2,6.9413476E-2,2.0376623E-2,-6.575504E-2,8.7032495E-3,-5.1412325E-2,-9.373202E-3,-2.0232178E-2,9.6157864E-2,3.3033423E-2,-5.0956573E-2,1.6077932E-2,8.874195E-2],"categories":[],"categories_nodes":[],"categories_segments":[],"categories_sizes":[],"default_left":[0,0,0,0,0,0,0,0,0,0,0,0,0,0,0,0,0,0,0,0,0,0,0,0,0,0,0,0,0,0,0,0,0,0,0,0,0,0,0,0,0,0,0,0,0,0,0,0,0,0,0,0,0,0,0,0,0,0,0,0,0,0,0,0,0,0,0,0,0,0,0,0,0,0,0,0,0,0,0,0,0,0,0,0,0,0,0,0,0,0,0,0,0,0,0,0,0,0,0,0,0],"id":17,"left_children":[1,3,5,7,9,11,13,15,17,19,21,23,25,27,29,31,33,-1,-1,35,37,39,41,43,45,47,49,51,53,55,57,59,-1,61,63,65,67,69,71,-1,-1,73,75,77,-1,79,81,83,85,87,89,91,93,95,97,-1,-1,99,-1,-1,-1,-1,-1,-1,-1,-1,-1,-1,-1,-1,-1,-1,-1,-1,-1,-1,-1,-1,-1,-1,-1,-1,-1,-1,-1,-1,-1,-1,-1,-1,-1,-1,-1,-1,-1,-1,-1,-1,-1,-1,-1],"loss_changes":[3.48263E1,6.0729523E0,1.473558E1,1.7670257E0,4.6482086E0,7.6847057E0,2.117487E0,1.4991765E0,1.0383573E0,2.743102E0,9.796524E-1,5.2206917E0,5.484624E0,1.6806936E0,1.2335266E0,1.3963573E0,2.329056E0,0E0,0E0,6.3016105E-1,1.7582693E0,6.816647E-1,6.4344025E-1,2.3814893E0,5.8776608E0,